{"biases": [[[0.46235707931049486], [-0.9497314882757102], [2.1975025595882336], [-1.2179217378865785], [-0.6423594151592059], [-1.6552178308251784], [-1.8994068323978268], [-4.370565411910588], [-0.19753197638353878], [1.022023718295091], [-0.9144058563829361], [-2.5890841633554724], [-2.1030534676726402], [-3.064710751203184], [-4.695660572936095], [-1.7962773973144035], [0.1164047055237959], [0.03318098411100219], [-4.719756867938449], [-2.762513597514858], [-1.3087439310978142], [1.6205733434306577], [-1.9015526870418615], [1.2321715533701902], [1.3448069815071364], [-5.1162031965949515], [-3.515887990847155], [-1.0928511952507554], [-1.450810196842585], [-2.3186808154530287], [2.0824080065913235], [-0.17239608915533422], [1.369647266814779], [-3.3174662500323087], [-2.5205448825716417], [-0.20700596057357154], [-1.760991602877878], [-1.069392044664104], [-1.7903961523647518], [-0.768875502151551]], [[-2.7698475817103985], [-2.4227035907042973], [-9.229912766019446], [-6.3138803054993575], [-6.055755149818363], [-2.6949720516764066], [-8.039295682550057], [-0.2914693592585822], [-8.130937101416611], [-8.365569390080514]]], "weights": [[[1.0312681750935977, -1.1633536936032218, 0.11129855371942218, -0.6539517453816969, 0.7337445456396096, 0.6449372841297535, 0.623734681315429, 0.9288234910930064, -2.0233028205844477, 0.5778916312607352, -0.7475677363736838, 1.9937614823542753, 0.7529526180475212, -0.06535883934106469, 0.10986335772863484, -1.041617010248035, 0.9419441234710484, 2.1188842649026074, -0.0422085994733129, -0.646135385698121, 0.09051509437517355, 0.8328419653892697, 1.3652203568199877, 0.19334983448135637, 0.4972933783817348, 0.2552571720897944, 0.06932647436997837, -0.7296716834301795, -0.3084990638538765, -0.7171376828634063, 0.13721618164603686, -1.3079642797508302, -0.41448226262276505, -0.33675623945055094, 0.4595887145896789, -0.03150491469667803, 0.7637656194683295, 0.6442317168439603, 1.8744389954097194, -0.3388934575055613, 2.0657809794550266, 1.598080084743471, -0.32627994725290355, 0.5161374121680086, 0.5007541938702589, -1.201689933829517, -0.471756830126845, -1.5707203944339623, -0.35165025627657936, -1.428401959576133, 0.5038932395424248, -0.4267770127736164, 0.5568703519222171, 1.8055297887599853, -1.6025418204109332, 0.3094983778373284, 0.5847766022696337, -0.45302538517012453, 0.9043027480258887, -0.37980585873135275, 1.4222667094248995, -0.5052628248890977, -0.9043268795864818, 0.017853561160831418, -1.056870259124432, -0.41602487933855054, -1.1591393335142182, 0.5947904112392858, -1.1144188397119061, -0.6043717152395747, -1.0294923935126727, 0.6556821696844143, -0.9695808498708215, -0.16059391097029874, -1.5191396217138853, 1.0436974466059248, 1.259619243798141, 0.14176316384169002, -2.3305375574785065, -0.9007538448128395, 0.0729994516250241, -1.3283725576726624, -0.15834976685101065, 0.6368868446866274, 1.482578322673013, 0.7694708108094943, 1.270410806718628, -0.3176795103817269, 0.3365187639695719, 0.0718122562077096, 1.424046856731613, -0.781644030884514, -0.054214189748204494, -0.8184418616596835, 1.4458510120892862, -0.21456867245801906, -1.633581226421557, -0.8275762367952567, -2.63552801798154, 0.46264480874000424, -0.7951128386839469, -0.6931821138972212, 0.7304456116723071, 1.2389982354222762, 0.1062174225120229, 0.9730924867098514, 0.8053067615365354, 0.030047264127071028, -0.6321567987267093, -1.0093651619014472, 1.6275169905678473, -2.0429162544948176, 1.2801663238727743, -0.6103464056338203, 1.6856511906992284, -2.1819366181669526, -0.704936668675451, 1.372773773948953, 1.0668842953174424, -1.1219518625255391, -1.7028745864931614, -0.8472459807961075, -0.6234707646069996, -2.6240659382954434, -0.7686084271548792, -0.6847725639137168, -0.3081427277387203, -2.2151628122767915, -0.1802495741114053, -1.1828851530446027, -0.5365765189293102, -0.8270853585332631, 1.306505355885302, 0.6130256811445131, -1.0795296686027311, 0.47973901752811327, 1.15877765479505, 1.9509945036286755, 0.9833159055352821, 0.5332052392661124, 0.940706163739543, 0.012680009190191386, -0.42161467630174654, 0.8168260689204551, 1.0656440787442585, -0.3005528851761113, -0.7263245398914471, -0.07531090356543285, -0.5575582448330545, -0.10496141682550307, -2.175630722380856, -1.4893520250806107, -2.434048445333108, -1.123626660944263, 0.9647954719968781, -0.0693920623296744, -1.593605817973061, -0.9775423993467341, -1.3277669626568167, -2.9875795337906665, -1.0288481401351794, -0.2143724282992654, -0.13002131309389278, 2.505188644247262, -0.5907298292523977, -1.171561083850126, 0.49363084435482213, 0.11998204857692275, -0.2059768857682631, -0.6054682685774034, -0.32769767619948137, 0.40587388170370603, -1.044607666297996, 0.46426672052428375, -0.8429718386003886, 0.04245306141523697, -1.5763461499214018, -1.4285322038703003, -0.9271829354347727, -0.3308429774931599, -0.7358651382616018, -1.778415845793375, -0.8397135040339441, -2.987665466841587, -2.2254305896406077, -0.8863487397554219, -3.0528759327522215, 0.004460505526542949, -1.2567011769184824, 0.01939366100491039, -0.2528041174540674, -1.2248126367615266, 0.3027188502540563, 0.31748548991960795, -1.3273343293276576, -1.2626176691207947, 0.3654352247074035, -0.5892172235410931, -0.2739895883787261, 0.27683877894390707, -1.892911619642008, -0.7173641056958817, -1.810491113858145, -1.6538372795717677, -1.1352034990807314, -1.712856640892692, -1.3868473946181232, 0.6704540006464091, 0.0037112118229043448, -1.089155367730261, -1.049268851975767, -1.0131158814064298, 0.0063799721928243696, 1.0953106351808304, -1.1344422814753934, -0.7491700939943122, -0.1476433886898529, 1.3522315174483936, 2.5552613872866683, 0.07093703910752741, -1.081974593389833, 1.4505103317751848, -1.1047174971292262, 0.49281372118385885, 0.009913811931295103, 1.3913606138233363, -2.043005886902829, -2.5422746086348837, -0.9206256585337359, -1.1530639188159542, -1.0708999891723021, -2.175882313955036, -2.0878670742744565, -1.7122043773882103, -2.1104309152345353, -0.21540623340546708, 0.3444310449347418, -0.844958909455778, 0.280274598335694, -0.2973022171668091, -0.939285254221943, 1.5552711597361255, 2.7053098950006036, 1.2347139563532827, -0.3416642027574468, -1.3343922375836152, 1.1569885523782626, 2.10589637264685, 2.134164325626289, -0.4078188237990027, 0.39616203291021956, 1.264813332938661, 1.3308226578894766, -0.20947501107017744, 2.433198813185361, 0.3869421133198683, -1.4913809825881406, -0.9280253384650274, 0.145761025374802, -0.7755293161927531, -1.9457480474179467, -1.5730426445396901, -0.17826278495999856, 0.5229030427263005, 2.035255954957356, 2.322501175731767, 1.6550164485842656, 2.3898908258093536, 0.18484603431836913, 1.7768601861374214, 0.5016213565986398, 1.7204907451621443, -0.009128259358949035, -0.4214865510374778, 0.2983941628674659, 1.1713244336118416, 1.9719356932467904, -1.5963303575396903, 0.06955395797320275, 1.8994608511301203, -1.4807481750172593, -0.7345371002001349, 1.3452852671329334, -1.3532327699051647, -2.228952316642455, -0.11395399207063632, -0.24283338778316935, -0.3567747279042075, 1.0216305418005578, -1.1624004868422135, -0.08789919387155858, 1.7942517346841906, 1.5071159960095475, 2.5684647959654487, 1.870264113532127, 0.7373862929172783, 1.0011942658003157, -0.20363379628524386, -0.3066395531494252, 0.5467912290009326, 1.0201282694285982, 0.25303586936421446, 0.48775220744296655, 0.5366005756875647, 0.7939604570929292, 1.6336639848900512, -0.1274641605726304, 1.5503901245807628, 0.4475456638482471, -0.5531038058551587, -0.21166506516332492, 0.27535804605558845, 0.19496624159141815, -1.683052238192919, -0.15681993036902217, -1.4731585612415723, 0.5309633079717777, -0.1307314921412202, -1.5051234343771016, 0.33781189656847366, 0.8808403179643999, 1.7628395591742139, 2.2319920741778323, 0.3224030894629982, 1.6272783207311705, -0.9626483021288949, -0.8857405248585558, -3.611894998109638, -0.6321704722564425, 0.2291541401563814, -0.3386695782922841, -0.08241328684599816, -0.2808238005551008, 0.12632518243882032, 1.015578661987103, 0.664195927189632, -0.00206409938313347, 1.3559828512123884, 0.38359081015262547, -0.2937268852591076, -0.3458694464304807, -1.476940278805583, 0.6702313131127637, 3.561697954093859, 1.4108779222086498, -0.5850658948528246, 1.3887493600208014, -0.2588586799466061, 1.9522752041230935, 3.2611900295787972, 2.0384606895038395, 1.346147957834802, 0.3394375460159737, 0.2658216644789156, 0.3258950127537202, -2.6188929441841418, -0.8420911663488512, -0.7211727837139892, -0.2791366443357674, -0.8886686894564803, -0.9627602903876721, 0.5247201691666997, 1.2229497377897125, 1.107614804574088, -1.8756072183865478, -0.5469725624699566, -1.0459552956923521, -1.2216215546749587, 0.16434075243123034, -1.2419419378666314, -1.1499742747586394, -0.8515410976299758, 1.7815522525657448, 0.4732391510657499, 1.2388641280903674, 0.37911816679573296, 1.5032306043239898, 0.4410824601060184, 1.8725485059068374, 0.007867370805920431, -0.49413326930436374, 0.2241315803079899, -1.4715956759393112, -0.27848846429498897, -1.1649342834009115, -0.22896567664738382, -1.3270565681895876, -1.3343691117724645, -0.06318858503361169, 0.03865090447633186, 1.1976700142900234, -1.6884135965060347, 1.4923837913952813, -1.9175747136761947, -1.115750234717401, -1.2514591328055131, -0.9439023385752109, 1.0858550444584523, 0.17833066859498412, 1.4377504869583733, 1.4556348728277055, 1.2639770785331672, -0.1508719119036305, -0.08453815146187273, -0.3958122880481098, -0.3735229958328786, 0.9139476432775906, -1.6052013505152865, 2.178020629739661, 1.9553082061147118, 1.7142812208468612, -1.2258706598316098, -0.656668342946546, -1.638941277958876, 0.0597375159150055, -1.5413485191584777, -0.2195459094570472, 0.000912491846354757, -0.7787451041334523, -2.2448063430206657, 1.5722516771912427, 0.2433153635162997, -0.03557966745438687, -0.3573731445318013, 0.8772011349038715, 0.11545235927980925, 0.7185174878906209, -1.0007918715665158, 1.0793456678183022, 0.7766816394688282, -1.3890509151677473, -1.0697793280435488, -0.05510880831005195, -0.6902621284759473, -0.18356162160102962, -0.10450783594952323, 0.8147770647453403, -0.0882092128183669, -1.0113617900463334, -1.0737506999465534, -1.8544856690164668, -2.2256804536671493, -2.334867208233643, -0.2648398888866987, -0.4488703700403496, -0.45295088330992006, 0.36791893466458586, -1.1700555307506557, 0.6710902875565482, -1.2084374719906175, -0.4757241259341043, -0.6973507268210397, 0.6815874112530645, -0.2795565470415224, -0.7148775459824448, 0.08847832536885541, -1.3471829893890754, -0.3304229866520102, -1.4183792439567933, -1.0583344339040948, -1.3532215015702633, 1.489988718561814, 1.7010978590207322, 0.9623841739327565, -1.4275044134677297, -0.8960770444818624, -1.686531497760896, -1.489890013431712, -2.730037695630353, -4.22555212191998, -0.40210249727042846, 0.1816074065986782, -0.7038564502898464, -2.1367551830051696, -0.7877107254031823, -0.20206177424849592, -0.2757245441989324, -1.0855414894087287, 0.188586317194643, 0.8797045431328807, 0.06163764795281869, 0.7930117358204921, -0.5704101512056994, -0.4149684170021707, -1.5324173448919978, -1.687885340692197, -0.23773357693638617, 0.28320645814279627, -2.3909250791801067, 1.4207305747947843, -0.03620951717422849, 0.7501571866265964, -0.7955253048634977, -0.6877129163629813, -1.6060900122091344, -0.9678285955060927, -1.318638476571087, -2.0626679565009822, -1.3309772018570114, -0.49786725381891433, 0.1773953950705645, 1.356682020001011, -0.3766067124206408, 0.3984056831420235, -0.7351716091494824, 0.001313485671940676, -0.9505076936458517, 1.9852353619332486, -0.9451825986826501, -0.3197787904600522, 1.7374292434276017, -1.0025811575304013, -2.684764808829185, -0.3743983487123355, -1.9486837456238075, -1.3309944837702463, 0.8566095150980071, 2.086420324868267, -0.1755072816706013, -1.8979106337573335, -1.3719249920960055, -0.4152766195954691, -0.3681224327128924, -3.020455232474863, -1.2235974252369861, -3.6997384714851664, -0.9590818319800143, 0.964871377782048, -3.237373267398614, 0.09122294778790105, -1.4567543566608878, 0.5291830248509658, 0.0062976579352476214, 0.5465593768270441, -0.5394423191246186, -2.5432748004877763, -2.058957187254072, -0.704242493508999, -2.4613684298525027, -2.6004641677696787, -1.5647580093097275, 0.27801397620308366, 0.3596404800490471, 0.7772566174565181, -0.4923868039218235, 2.3314414184708223, 0.3381911206010764, -1.7575686649898399, -0.5728473095165119, 0.29703771751284724, -0.9968727508257527, -1.3523966930984093, -3.1691318573778893, -1.4902047387733266, -0.37514044097665267, -1.16387698687726, 0.6616319061409254, -1.8042750986024851, 0.365249912244878, 1.2846776943370022, 2.3783532489599883, 1.5706290954578617, 0.15207672806077663, -0.9348833820559157, -2.0903035769342275, -1.8850897374207871, -1.3195303346931664, -1.1308149578561724, 2.306853346818953, 0.6774733284730324, 0.4280172951341093, 0.87234516182386, -0.7499352528475403, -1.67428513827935, -0.5322261633808983, -2.046905231698413, -0.9471762747883177, 1.0418975388618363, -1.1445751988620272, -0.187973250966067, -1.3760850417712684, -1.570147799273542, -0.7000774852813153, 0.26341756825815493, -0.6367931722174776, 0.7396935589796264, -2.5650375391591638, 1.3588656581703942, 0.2600309098872014, -0.10920349714645539, -1.25108422004689, -1.6544889154286424, -1.6734307116317921, 0.17146372755085046, -0.9853734317614452, 0.6581701204111369, -0.7990384902377021, -0.24217968341406643, -0.3392767807700939, 0.4024779535403965, -1.205128998771393, -0.6112970018611944, -0.5486005220068926, -0.586230255897102, 0.0934759984640839, -0.6463057658294611, 0.7929697936061998, -1.073207610500266, -0.7407813689003869, -1.3386727244370153, -1.2500391924129177, 0.8247553912901331, -1.5418200303840668, 1.0246347427721756, 1.2417999360546026, -0.49817925869109664, 1.8930965666081854, -1.110396956232194, 0.9410101944147413, -1.4799648492491653, 0.04168025175325734, 1.676442423002444, 1.0143707441067096, 1.1447466475216896, -0.7205100018054926, -0.40801312163786135, -0.24711768305868942, -1.6622795276298419, -1.2739173183009374, -0.7828743760527948, 0.0369124844055334, -0.9913779616964027, -2.3502927975462495, 0.35595249182269373, -0.026692330808676983, 1.2867299815180677, -0.1332283196469572, -1.6563747057003757, 0.7869389438457656, -0.375439008111082, -1.0929830094856596, -0.8514486646840654, -1.2263867267158073, -0.7075113517856138, -0.5780024134125372, -1.9217927542929467, -0.5250812893244144, -0.16125527404699547, 0.5668659942869334, 0.15617485875482012, 0.3700078492206105, 0.35922610798510707, -1.5902188475716428, -0.16059081123097074, -0.19259042627348288, -0.11059200184056513, 0.4835474998062397, -1.311585218281852, -0.7309817878895948, 0.043672088484332856, -0.5926091910418019, 0.33297659985435457, -0.7431802779772194, -2.270966136076631, 0.8197322617012459, -0.936015605950328, -0.9647575828185184, 1.3684597883681644, 0.31928646924612897, 1.1856537951369894, 0.0829508914663585, 1.157681712347921, 0.2094321866738365, 2.260950408444033, -0.5912351672648419, 2.4962447057783708, 0.2783031852780133, -0.45111052212425984, 0.7407548647522444, 0.8128726284141349, -0.180331362835792, -0.425665515649146, 0.4301985844195044, -0.9204643131184618, -1.9466991911263094, -1.9497678691158686, -0.5746689315770901, -1.1304480409428959, -0.8573314284702044, -0.45601859311788834, 1.3726118737663955, -1.5446569872627964, -0.048554426138703304, 0.6365032531936221, -0.8014849236397241, -0.6111399584447873, 1.2613737766793003, 1.118599143024207, 0.22334915203174086, -1.1444452150502378, -0.34007791846274643, 0.333103887362115, -0.9432604195206044, -0.5948824099007175, 0.17656936435270665, 0.544415133369684, -2.1076372247671133, -0.6031326497405904, 0.19612497905056958, -0.7342335379460152, -0.9425330014827129, 1.3691465718434839, -0.9547615538742691, 0.6504045632132678, -0.05733615670335666, -0.6395698986568339, -1.3673581302646993, -0.20636658039792893, -0.6594876758440659, 1.2659303244279183, -0.2337695192916168, -1.6175142175970068, 0.36784812226215985, 0.14632308857062926, 0.18244309061907923, 0.009763716389144668, 1.4770512642597142, -1.6906220444733144, -1.0374731510427344, -0.35163503769510374, -0.22178891746112012, 1.336250791452103, -0.6242784773317671, -0.6966248640826447, 1.4059990178500656, -0.306218057431101, -1.0371732699004117, 0.2883365007990098, -0.6966459573217599, -0.370357394523417, 0.45614122315265127, 0.09023940234669121, 0.22180545919220013, 1.2330270664938185, -0.8189548162913953, 1.4344219079044171, 0.5999194931486274, -0.8071896415972392, 1.8684117389819443, 1.1308358542035868, 0.0007800366685106253, -1.4233898479797222, -0.5725715553021087, -1.5618524452186804, 0.8762623958510091, 1.4113557615778147, -0.7099526178964942, 1.490557721337897, 0.749103026452251, 0.0863785163487783, -0.13772830886567133, 1.2252913485623635, -0.30587418426424806, -1.7464128492488769, -1.574745402945027, -0.42200645476241033, 0.5018189808280119, -1.4488361039217792, -0.15594486911757047, 0.8498319885651797, 0.3180029413894171, -0.4283012755595336, 0.30017964948116277, -0.40010497819774177, -0.6179809247915143, -0.108952209091633, 0.3921908528945474, 0.596166580770228, -0.4602066563277349, -0.2764591642742665, 0.6664283188672123, -0.2945574896417877, -1.5044997049315658, 0.03039754279161286], [-0.3195476695811966, 0.02292101424587278, -1.186669982282602, -0.5744159913484003, -2.5556340320360773, -0.004742679484824392, -0.34846112403774177, -0.6079523613311341, 1.203111352972165, -1.0619159096442135, -1.5550590168153133, -1.36709135481992, 0.3544044928334317, 0.5652165074078191, 0.8335401641939886, 1.167816548849968, 0.6435382380181017, -0.3899641330761856, 0.4871901445638869, 1.1681846771954005, 0.22746682663219542, 1.0825844140681264, -1.2535708234350564, -0.050163383617575046, -1.7693806066192022, 0.8863343498981594, 0.3081225448474371, -1.3062577894984528, -1.2757239001972291, 1.196106689658373, -1.271786466467349, 1.721603181171425, -2.09268039642544, -0.45157948067516435, -1.1600841571253158, 1.346552828501459, 0.36671148759372696, 0.9723296831004343, -1.2369451800999367, -1.2564875619629001, -1.4373591942849961, 0.8891381146831216, 0.5306256262932963, -1.965790793341902, 0.07554562187779922, 0.08472662132610995, 0.426402798945141, -1.3860181828468026, 0.3947237694507339, 0.010823405078546428, -0.6369086299926396, -0.07758897709138991, 1.857021634230142, 0.6663671267828194, 0.10308383579187658, 0.36482918345649146, -0.9086269261271087, 0.4761980687868924, 2.0915642399616945, 1.9414777430969652, 1.1996112780298624, -0.6582608807672646, 1.3109561964673708, 0.9564876707987932, -1.660937631211467, -1.1574822293247269, 0.8476429297802168, -0.4100538192834324, -0.9302812802694568, -0.6386754668785911, 0.6540553948056428, 1.574916036398869, -0.9879722115410567, 0.3808876333761352, -0.29293333783116976, -0.22893487365101042, -0.0725244232069909, -0.8532780530110299, -0.03714144601908141, 0.2610875570348021, 1.1516828259553722, -0.800504783335698, -1.5036693415061628, -0.800565381762458, -0.5282268608050695, 0.5402114005744517, -1.1880675376209209, -2.5024825627399623, -0.34996846985621805, -1.560991283446097, -0.18545350034521496, 0.02275911085354747, -1.1903894101727148, 0.980707843203258, -0.040203533892042245, 0.8077751119463176, 0.08778768562364732, 0.14617834168693547, -0.9470894635882534, 0.06852027420453052, 0.2634829048979014, -0.5786938351813459, -0.2109808501464763, -0.1628541608341374, -1.2642793799726388, -0.4729927501548923, -1.4081185308623234, -0.21930963178767504, -0.085523546966764, 1.0527912551746494, -0.511102824224129, 2.610527361094683, 0.4926751491555489, 0.5653949606212391, 0.41949656264112983, 0.14132100240485337, 0.6997565772159596, 0.21908583740283108, -1.1446256413784668, 0.619235635515194, 1.6151180976975101, 0.6445470318896582, 1.2836697578204512, 1.2046838645490776, 0.05581898769801444, 0.7034886353216222, -1.228281382020838, -3.752317501677363, -3.575332550943047, -1.022249442470114, -0.4312709102981948, -2.0599553377675406, -0.7657074844352486, -0.304658029952909, -0.00951614556229715, 0.16206240072568262, 0.40903680109400964, 0.13148731916575684, 1.9253702420296506, 1.008939185604643, -0.12204702802219389, 0.8530972266236867, 0.8380172403723767, -0.9311870860838852, -0.7309050202636035, -1.1400096896946235, 0.15024026862739784, -0.6374121367824819, -0.9625513533955844, 0.11946928832427715, -0.717140424135562, 0.9871031985497737, -0.5112054237755889, -0.3897693873044458, -2.462669444746436, -0.6173284285314609, -3.749083427691697, -4.396697471945134, -2.2339793392640175, -2.4115133990937747, -3.0994679952949373, -1.6865778047852322, -0.6780043431814148, -0.12635416827916024, 0.08276780919592423, 0.6119847373495899, -0.756596610387643, -0.4920486657158338, -0.32061565382541624, -0.26479144134132077, -1.7240757229615986, 0.43230016374263636, -0.4425279772140248, -1.0250080012926372, 0.3685610311999246, 0.06144718400198767, 0.5302201331727581, 0.419918940976489, 0.710892747975202, 1.9278499696183264, 1.2431142822348786, 1.3141007352959881, 1.8662500304589988, -0.6938526499142856, 1.5018947723194624, 0.9057474069392372, 0.02124667106893039, 0.4904542343530572, -0.22845808410135846, 0.06829853550987382, -0.7877828911045234, -1.5000388376257343, -1.050904424618608, 1.3494044336240572, -0.002796935785099372, -0.614292526105686, 1.7669714572253465, -0.568965948737102, -0.348102697768047, 1.4056840693553065, 0.633819889027897, -2.1911008272623693, -0.06933040893676885, -1.0463747988433671, -0.002786877624241136, 2.1189131811951105, 1.7094104225471334, 2.3236702983408204, 0.13636548012748012, 4.1588860166691655, 3.5523453850752635, 2.910143766867311, 2.007432414006891, 2.8011818715441867, 1.030926853449832, 3.1632633401583257, 1.6217396628796625, 1.9006136226289831, 0.04139368268915791, 0.28642780500054743, -0.7627038107829546, -0.8251116097923848, -0.4207533213844814, -0.9818054023777325, -0.43552539635456017, -1.933544790454025, -0.9577854024749912, 0.47469963554123656, -0.3911527555581511, 0.14162689423353148, 0.3804584144285296, -0.5513436116635918, 1.1191393168845758, 0.5454827861302944, 1.2011791461705494, 1.6052157592531489, 3.0294063895269794, 3.0040332085006596, 1.8921717290214342, 1.5702112991492685, 2.2733886697373817, 3.7437649755119704, 2.3083447213335107, 1.7683051338988316, 1.4586169387281809, 2.653149017166006, 0.3761646409409093, 0.3737656524875719, -1.2122909939954136, 1.199235650971503, -0.42324508750950973, -0.5652727427051215, -1.4770182429107392, -0.31649433061901394, -0.7695307762749961, 0.05868414953469365, 1.1087977067470125, -0.8304650500164262, 3.6888047427645025, 1.001840831910844, -0.39405995979044883, 1.0656871614157357, 0.7719722266554314, 2.467220805717717, 1.923020251510267, 2.7631518608978958, 3.3218571054612926, 2.3262634923197076, 1.7642364665221903, 2.5005058146712185, 1.318037403420939, 0.9710166359025315, -1.179863267682465, -0.19732994362888961, -1.869722938601707, -0.8491308539638494, -0.23319644021417638, -0.3628739654408935, -0.14403791758558834, 0.14117365967350923, 0.5529810078783022, -0.15845213334663394, 1.0929079258859113, 0.4857460491332384, 1.5084719806001219, 1.9394788451055172, 1.8326312144416113, 1.3192443323706138, 0.5857173116504941, -0.5683912565116949, 0.04399778178085851, 0.4705962046354215, -0.21719290917694825, 1.4682133654891873, 4.833850461295521, 0.7860387355789866, 2.4556890604330395, -0.7750673091615926, -1.435914573984459, -1.2207264188341356, 1.172019461054475, 0.5919859667659678, 0.6383679436199992, 0.27744518562986464, -0.5356878567412674, 1.9390835404356246, -2.1559418300072957, 0.7292221000881086, -1.383536576810982, 0.37939552242908403, 1.741961738026865, 1.6473574869361807, 0.48236679544223376, 0.24036049394957384, 2.237758118300567, 1.5590649219428365, 2.0279977581041355, -0.019104888046616902, -0.02169123826781923, 1.2259572328128039, 0.8803574160141363, 3.0848221755256207, 3.718486287952926, 0.17141861598629163, 0.0635826591102061, 0.543995429149808, -0.20194924331271877, 1.6892674799769252, 0.4004394108079067, 0.03856917963951777, -1.4668160070615435, -1.3872803906448716, -0.5256620039873628, -0.8868365241603231, 1.5513102687455482, -2.58947530405813, -2.480188737269105, -1.7185343021507586, -2.1755551939205158, -0.894160893015112, 2.0811706258234737, 0.04578651822541702, -1.2065179327442284, -1.0680307023004745, -0.6133986911232739, 0.297773559074979, -1.9913045877083801, -2.232936633403006, -1.846035938359953, -1.5450415997690528, -0.687316626000685, -0.0677683618572841, 0.07693897889989597, 1.034995727912704, 0.22250932509538135, 0.6267237759728845, -0.06814301311396868, 0.07284347824515028, -1.4254918737521887, -0.07963436556879319, -1.778204236385585, -0.7733206934031194, 0.3630672563698482, 0.7915924523880695, 0.206334744517751, -0.6732630152012508, 0.3663868425824067, 0.7464504787147529, 0.4662942107737862, -1.8842698430357545, -2.690649055591004, -0.32014923001650075, -1.9030232098506776, -0.8129750688916587, -2.597309155123004, -1.8313077275950684, -2.1208150627968636, 0.24699630141282833, 1.1620854222627262, -2.064461179957766, -0.2963095694480399, -1.1546104065400151, -0.6147762887382179, 2.144768453080479, -1.0449036977194315, -0.9398623412100096, -0.9544138059084012, -0.9017919249227371, -1.5948053899049262, 0.10422499317563653, 0.30368382578381625, -0.22350481207621675, -0.7092143122127798, 0.5018247311803893, 2.286673827361299, -1.3507269077089032, -0.09420698998587256, -0.6495673851441465, 1.8713226905491598, -1.4461997020905388, 0.22560699273003537, -1.752468720827673, -1.945799564370743, -2.5008941591264175, -2.6996676942350475, -0.4143677717719019, 0.3922676205059386, -0.194064830712795, -0.06996619241040486, -0.38144291680622666, 0.7755896903064086, -1.3123480037366222, -0.9579280581721966, -0.789793931517776, -0.825200219023984, 0.24520534847743403, 0.21884237860973751, -0.12012592688005981, 0.07758883366707557, 0.13386262108083402, 2.2552676966132834, 0.38365610076082324, -0.28567621988110187, 1.0841515130841195, -1.3019738045533213, 0.6334294358340309, -0.6740390538033456, -2.0838515804041573, -2.385807361531595, -1.4557011946576464, -1.4762765282855568, -2.0252876115753815, -0.5518273363409667, 0.6189595045334095, -0.21040193496319645, -1.819688982415431, 0.7861296807080002, -0.6755673085735079, -0.014977802353631647, 0.019526250312438122, -0.5006621718224846, -0.30225879748383055, -0.04439160460506978, 0.23059057225118068, 0.10517820851533892, 1.734968884255977, 0.3915419037891871, 1.4961202358604584, 1.2166748273492471, 0.1355090466994672, 0.783297840748107, -0.15773220853159411, 1.499985180312254, 0.949154566754476, -1.8424832418001684, -1.624881669407292, -0.9336129321909027, -1.0385256330225312, -0.5386195867545276, -0.6064067241016365, -1.262149474914087, -0.7189255396134858, -1.8285761774294174, -4.051237666850062, 0.7040730386205541, -0.8729537064005801, 0.7147546455335866, -0.8066968853335572, -0.18114327500343688, 0.11550981669877473, 1.2701620710915902, -1.7993143923111625, 0.8122330348605179, 0.2531107275874083, -0.3888641969483048, 0.8468192504234446, -0.7825893989059332, 0.9425445447564499, -0.2506210912093954, -0.06469500953731065, -0.011332491217074369, -2.6512553816801385, 0.5277566123440608, 0.3660307254901055, -0.3045659243607467, 0.675690794943775, 0.6158281353450511, -0.5919789318190937, -0.14551047076931983, 0.2565670847854495, -2.819720820769476, -2.138469990318438, 0.21698455933529787, -0.5973538780797937, 1.8661632236484826, 1.0125235621966815, 2.4078414996118207, 0.15259925858086093, 1.7307060803195815, 0.4275463713331471, 0.17704673393351827, 0.7515956573041875, 0.51512433265852, 1.0842587516714524, 0.4022785774730072, -0.4000189763427125, 0.06117818902143529, 0.7534703912717782, 0.6236155695984601, 2.9905085352217826, -2.7462610332776274, -1.0657824955457518, -0.27259059963607707, -1.0025814046699553, 1.0480695168642278, -2.4972483619620056, -1.5271919815759698, -0.7369481778312431, -0.45077950943500045, -0.7482825439597305, -0.4591453213752754, 1.666871735128718, 0.251399908594783, -0.7908669216872843, -0.7900968052923699, 0.1491609749361226, 2.1064822757036032, 1.5470146034828725, 2.8460304745453815, -0.7433252822755594, 0.4272837899441264, 0.26074109509011467, 0.9775181777142083, -0.9532326666032381, -0.726205959631114, -1.4795989470998043, 0.673856907652246, -0.47546671349191466, -0.20197744316507002, -0.5617661228474691, 0.8372438401126112, 0.5282059781797968, -0.24168192989719595, -1.6194526576580568, -0.11853570960909703, -0.7723911695193229, 0.21384820496217077, -1.5499604895024484, -1.3746699380358278, -0.23140321858907534, -0.5159897350176644, 0.4169459663433692, -0.004261083808380127, 1.7312663714558345, 2.4422246923534323, -0.32748897853735187, 1.3622494466561759, -0.08287757907065238, -0.06119044977889355, -2.100933334927293, 1.110095290580793, 1.0384754940744363, 0.6167870630529917, -0.002663501533782768, 0.4210740854765639, -1.251822893654462, -0.28093259553707706, -0.904904529221328, 1.2163658254168517, -0.4146097264652096, 0.048914701320089016, -1.7748813493223896, 0.7145880427092689, 1.5647743657293516, -1.7085785400870248, -1.5321650158985514, -1.5904279343508008, -1.895741453595856, -0.6463109343764476, 1.278134499718835, 0.0015256342702576488, -0.3452318899853745, 0.541039440804618, 0.8972977566260472, 0.16295078140915836, 0.8079605251889511, 2.887184181594674, 0.7659495386174309, 0.3729568094533856, -0.08266704669680883, -0.07102514073949223, 0.8245505482155995, 0.31991917343377396, -1.1736454119615858, -0.6182398565233738, -0.1454580310820139, -0.059996911385624095, -0.7189601101334749, -1.0940977775046008, 0.2592620607639798, 0.6784045338694408, -1.1348098216252154, -0.8181239898858238, -1.4475197369183876, 0.3224852469885548, -1.6708324475303575, -0.07437241410342177, 0.022808772560627816, -0.1235971608755207, -1.1254722361470237, 1.043403743777323, 0.7026724788741932, 1.7373985311099334, 1.173580540513499, 0.7121110451921951, -0.9852271609611681, 0.3107890407674668, -0.20628205344799427, 1.2361253687151714, -1.1368756006809413, 0.1688010154370381, 0.9676809927116539, 0.29812869181725715, -0.6645781300865726, 1.1229441173086565, -0.24571350489036684, -0.9761645211515906, -1.535184587794435, -0.5655805065049482, 0.6415363311878828, -1.5936395496042712, -0.7673865682001458, -1.6653628492336445, 0.8812523331017129, -1.3273768905023056, -3.3448551217306104, -2.4804009851743793, 0.1142610720672626, 0.984968740976254, 2.3149495676375205, -0.4014158138316866, 0.9575456555813574, 0.955023709954124, 0.6567618403430409, -1.4536249340901435, -0.3874428378188923, -0.5612976594076452, -1.2354488663759342, -1.7143335694037234, 1.2723999467416205, 2.750428245727294, 0.6872551814701907, 1.6651539501278139, 1.6759674295658216, -0.2484794419315953, -2.5237461910299883, -0.5484572345400679, -0.5982253191102237, -1.1624760776574503, 1.7081819142685633, -1.2333281957511149, -0.46922972924748624, -0.19270862265984168, -0.18550296165632996, 0.5130653990392935, 0.026169291062578957, 0.5622995636748337, 0.3951136440794807, -0.19201615614211148, -0.5456122321409085, -0.1788688840928185, -1.1488041683485337, 1.1171328249436856, -0.46999084916838835, -0.11983859053397951, -0.9679978363058032, -1.1649956306646527, -1.0353724220031222, 1.5255253867229555, -0.46910352385801357, 1.9456107075707276, 3.4129847794036534, 2.0994684183942693, 0.2556588376830657, 0.7460405537060876, 0.8367415130176155, 0.8307895543710698, 0.6436014761167133, -2.505272581035853, 0.05160221066803427, -1.1786151384106742, -1.9807907136252292, 1.4240959839199236, -0.888993149702796, -0.17001769009862824, -1.3683988448713722, -0.24182939686735955, 0.3762141207002036, 0.5878944332410658, 0.46068137140303717, 1.0078450081912926, 0.2526702622655159, 0.9543190861663837, 0.8540575194539949, 1.0074032528318622, 2.221687210809871, 1.4827286415287775, 1.9449446294741854, 1.7402554007971947, 1.321897207585155, 1.926660061743562, 3.8761370368661647, 2.4620311539398574, 1.1558380296332358, 1.2245749630287959, 0.6913109998392462, 1.4040614431896896, 2.1657100675373377, -0.17667013602944615, -0.4898434615333952, 1.7465004026804456, -0.14497766954092156, -0.9926166477417674, 0.7609771111791425, 0.14365015416773338, -0.4759533037130296, -1.239719904467252, 0.5367080144010642, -0.6264882015480956, -1.978863127674462, 0.7762459273028299, 2.089752464652962, -1.132480988993085, -0.6731726983953553, 0.33914591315199744, 2.7289766222837977, 0.0420001728580393, 0.8571845868454648, 2.624731621388727, -0.14879443015122631, 0.92262933039543, 1.6404678794753853, 1.3866866083950604, 2.702978329980239, 1.5387604547387894, 1.6568264992152923, 2.7590882228857248, 0.05777646754831161, 0.8757738642471365, 0.1087736915358953, 0.6926728713217097, -0.522644762323284, 0.10178829966075602, -1.864228756099109, 1.3661541846642087, -0.05222437479896748, 0.9454946501240064, -0.637105366527604, 0.8433753610872757, -0.7932045690184845, -1.2639948842399151, -0.5976038544003442, -0.4786617996652197, -0.8924648693547966, 0.1152567384874184, 1.0463822553046636, 1.7507468937834416, -1.2589352181514786, 0.22971001504929878, 0.8130341963357055, -0.35242511050915654, 1.1701468849593761, 1.2770251481950685, -0.5944769275428013, 0.3040076999924831, 2.1209258177565227, 0.6607251968244414, -0.3016342228266862, -0.22642632791537345, -1.3137370527428414, -1.4431410526039787, -0.42306968972672765, -0.7810070557892422, -1.4466086343239863], [0.25620948521086645, 1.4420557237579439, 0.14679297909122663, -0.44699097683448935, 0.8512317376332068, -0.0015036979918566905, 0.07421209450426312, 0.45257245475073027, -1.0469795737372756, -0.43470475308975715, -1.3031880163407834, 0.5510631655578819, -1.814782124826404, 0.5326597510089646, 0.4852978960884513, -0.7131421824971604, -0.7843784594202762, -0.7965289014158418, 1.0603411198972195, 0.015504658284161456, -0.9952634240642065, -2.9162028025801368, -0.8337629588846474, 0.9480339147087572, 0.7101621082697688, 0.05074322685734545, -0.5353049255931313, 0.5890935648412485, -0.9402476129373649, -1.4177472391516834, 0.2889117987613853, -0.275757140271358, 0.8925823744120993, -0.3858942237433891, -0.2937447109209627, -0.1586103435431767, 1.3399175719985723, -0.6077838645076576, 0.6718049087049812, 0.8490948050153895, -2.3264946249821135, 0.3432361014145952, 0.27820764422621663, -0.6858492025528516, 0.5190920144576158, 0.7607248920828158, 2.112536296172768, 0.019304482756318003, 1.1459253318369194, 0.6204768725338862, -0.8691495696197769, 0.7383003078237111, 0.4862491136328037, -0.49996034756092145, -1.1831717719894599, -0.1690502119259317, 0.2768021666998833, -0.8127741141856448, -0.4841011817284855, -1.4686514654630616, 0.1904375360748502, -0.5466505951220741, -1.5243539060227713, 0.33496265426294264, 0.0935890321444557, -0.7092479410077557, -0.060513310465946324, -0.2652020297719869, 1.0141698269105461, 0.5919663397451559, 0.31649128500708495, 0.769322349920111, -0.9371494759990985, 1.1311257255026366, -0.7442015894412097, -2.506480091316347, 0.4556489962189158, 0.8743577038983502, -0.009297145541503824, 1.3551984055217297, 1.0229592339335978, 0.3443296956792986, -0.7791364330464579, 0.2426224057554356, -0.3470595985751155, -0.3557057032058919, 0.8064821036041248, -0.3514053733487594, 0.19167727750480795, -0.235675046354253, 0.4650973831900345, 1.558026098957489, 1.0365320868780366, 0.5085148618627027, 0.3201516076795012, -0.5135129717001421, -0.7740897965435848, -0.6930680348673164, -0.8287630149018773, -0.4240235906656442, 0.8976905015629447, -1.959123984819557, -0.45655835170071085, -0.04216711792478931, -0.232173003634223, -1.4849327781887633, 0.3164018695555895, -1.6111541573729555, 2.24898279722597, -0.2596066474054057, -0.21046217926178404, -0.2914517235750985, -2.8155357109494226, 0.7358924975248302, -0.29067700267790914, -0.22932881706729405, 0.2521318110104726, -0.2890407006924476, 0.3129444030497117, 0.41335376784975436, 0.7229012811857743, -0.9089891537717505, 2.474122970030152, -0.971751213337154, 0.42747489039243836, 2.017934956185909, -0.5242659278760817, -2.6666874751660044, -0.40481440935065005, -0.2533160431572012, 0.9764728457685847, 1.402814106931529, -0.7022146732966863, 1.8931821145280527, -0.9217020209239171, -1.6590798028738298, 1.5094580726286901, 0.8310815228310571, 1.4549132660021293, -0.010236093767388816, 0.5564083304927759, 1.107149960460925, 0.5138995657478298, -2.507988730137066, -0.6117351209726659, 0.42062695392011046, -0.4779993051932904, 1.6930848769291447, -0.970472553378231, -0.10984578133023071, 0.09216584135643835, 1.49652015436527, -0.6251346620888062, -1.3531570258441032, 1.4175861373352314, 1.8096336242104198, 0.44460404194603065, -0.8026862587129535, 0.7489108002866065, 0.2583624632766719, 0.7655492595844968, 0.40796602085718436, -1.7776358636898848, -0.8243301139394265, -0.23485729427931548, 0.20700227703628685, 0.8797663613299748, -1.0768438271065168, 1.3845669404641447, -0.5132537718880705, 1.7425261088415454, 2.1587306929729144, -0.7573484180387563, -0.23678101440557142, 0.32192005597064693, 2.6292735537152576, 0.2556771705961375, -0.6153971935149203, 1.7171507577159932, 1.5283905874390333, 1.573672678628012, 1.2233310097459504, 1.0606523755314654, 3.527497213781301, -0.28950364540155943, -0.2235184258719764, 0.063910470841519, -0.4593241104090734, 0.36696873727329926, 2.2256817301667815, 1.0249713836136214, 1.3269579216609184, -0.8558019572708117, 0.3760139513617854, -0.9896999668103208, 0.1878544174997561, 1.37322666507612, 0.5495845511823941, -0.6500056223541716, -0.3899246138919856, 1.1845291263426536, 0.09252766438075186, -1.0748216760132614, 0.3670269965172895, 1.0903199552312732, 1.8820698351167686, 1.4782260202423492, 3.251064719746766, -0.22687156925399166, 1.2331450693216042, 0.3085014336905115, 2.5553988232545883, 2.198596426511031, -0.06716503108651212, 0.9875120576377779, 0.9349475261220523, -0.7845201466373215, 0.37921444067678517, 0.10404034506420065, 0.7965021345357322, 0.8235783775219672, -0.4437465976999437, -0.207177334574783, -1.076786153424549, 0.30755097482989363, -2.1612679482802553, 1.6554488942911896, -0.11005096183732574, 1.4058966083315025, 0.6962655006708106, -1.1259681291229364, -0.4637250698381631, -1.0171832212307765, 0.34110532946071875, 0.26501485641959616, 2.230928084153814, 2.880415824188424, 0.8380500211332459, 1.7202793456197518, 2.1372258844437946, 1.893266712684918, 1.4750048905507402, 2.117266005079895, 1.752520071731339, 1.9381180664573543, -0.10421040439581261, -0.39103493181898025, 1.0733173689727882, -0.04430720135609433, 1.1435043683805284, 1.3292388927881513, 0.23406555827586442, -1.288385059987898, -1.5307032388694557, -0.5060964456907334, -2.2045729936478575, -2.020608857845624, -0.9362244640496855, -1.5285976337686473, 0.8337748062870255, 0.7865479336450232, 0.18320638158068092, 0.8728589763291537, 2.5550084183119313, 0.9446611582507456, 0.800726145454526, 1.1679845075839652, -0.2216675528846134, -1.2341710524989964, 1.7346743399865714, 1.6895456002882379, 1.53614977949345, 0.312295498283936, 1.2744529441775694, 0.5353951166642271, -0.3461138249432083, 1.558471952454426, -1.1971412289532668, -1.9503826722635247, 0.7621948653393085, 0.1375200861920192, 1.0664824965834203, -0.3207545691703758, -1.5582298182362453, 0.9460582582612127, -0.03783499256475321, -1.0410046822145638, -0.435698661961255, -0.644572861763896, 0.759632922262151, -0.6339427982285931, -2.4067801559918953, -1.0681415562038643, -0.17020008492340397, -0.7858621244094881, -1.084905516585765, 0.40429271108339476, 0.8539508837713371, -1.3862387868473813, 0.33524275279999227, 0.24896310000945449, 0.8721882216939858, -0.499341832971724, 0.4781282514049346, 0.9247606892336263, 1.6147914581730336, -0.7506239764027782, 0.8117892153170684, -0.43248524439075914, -0.7119435098454708, -1.907195569259058, -0.5894052329085403, -0.030638600671093547, -1.0283510321487699, 0.5261332012091786, 0.14989711844068904, -0.09154128554849383, -1.9689046406582906, 0.21326816765261045, -1.7040943297577291, -2.410069563892889, -1.9309428796532442, -1.2582221588773828, -0.9752414605756389, -1.3587273988686024, -0.49987006069763185, 0.12305702530602523, -2.5948225441104467, 0.2108741397869227, 0.07706573796249377, -0.5681570065015511, 0.5603441597844064, 0.07767660214315936, 0.4856597518290696, -0.6122088493135205, -0.5468634073616235, -0.279034007121557, 0.7827835179478113, -1.4349832773206423, -1.702541746175223, -2.3817404929159713, -1.0609849422495317, -0.6721237692448593, -0.9320392749526399, 0.7425232641401717, -0.35723925622404473, -0.2938633239768621, -0.8488465131845419, -1.439473951571878, -0.231876156594978, -0.49063596507766816, -1.442781328959404, -0.5617654718595259, -1.2509807895724807, -1.7984003472671424, -0.5458716490072313, -1.2447230513090426, -0.6382921086618373, -0.2936150738114556, -0.755225357367949, 0.4163062356293866, 2.3943175134378434, 1.0714374746789619, 0.7654542472010812, -1.002584003034937, 1.550947084944831, 0.09726258634801924, -0.8339550695368683, 2.0831400693443003, -0.19718090343111555, -0.40675171726893655, -0.37769217864660254, -1.0088942532340082, 0.598420464674712, -0.1480243771081246, 0.3738103705410525, 0.7735144858300452, 0.445068051808823, 1.1336546423019287, 2.166678352683425, 0.3570836327501439, 2.739575969614049, 0.04571072530149054, 1.1201126532712065, 0.30608753564436303, -1.3448851437044982, -0.0569730644956294, -0.5165460626354014, -0.33333059210233285, 0.7225620500074326, -2.196231144222296, 0.8902725065484992, -0.7737755112451524, -0.2512244941882681, 0.4021162237072498, -1.3629711724916438, 0.540296705228247, -0.8055315649285955, -0.5442124493462603, 1.8317331306490803, 0.0287394768890148, 1.059383624092557, 0.7140988095509929, 0.9053425889984775, -1.0761818424844412, 1.1850014240221345, 0.6219718138574097, 1.141366726260134, 0.6357432349355759, 0.6010705165906977, -0.40998271510618345, -0.004190883383921657, 0.5894194515710982, -1.3350390744159526, 1.5771210591136808, -1.0343397326892552, 0.3020558123213176, 0.44567014902193164, -1.511087379809278, 1.2997452831762106, 0.3012829896368192, -1.462930718138712, 0.5720270020469088, 0.46563308875074405, 1.8625732427619959, 0.8942104894747049, 0.9707253651118135, -0.8041759923720053, 1.1136728604569686, -0.13455662487244416, -0.3268927277106894, 1.3313550904191003, 1.3653189991685701, -0.14850407409849162, 0.7396992056068227, -0.32541858178310895, 2.3674614235715694, 1.2312027233677194, 0.005034201814167935, -2.0001654052966784, -0.19472125079555472, -1.4494233795397629, -1.1408528528114554, -0.1716677292936496, -0.32425085902694983, -1.6435492504114921, -1.4438920087264397, 0.44061322816856174, 1.8811513000778315, -0.09319140004065832, 0.4583657713435769, 0.38931687783280167, -1.0073319215794945, 0.06896022014553267, 1.1047419443618958, 1.615546793878508, 0.5025123100250365, -0.22893556934079226, 0.7783551728026394, 2.440687211578134, 0.5800694014888734, -1.3484364808602198, 0.25158967634197815, -1.6599096597086525, -0.2548015348871199, 0.06733530228645006, -1.347601582487517, -0.045660708386488245, -0.8351107618052086, -1.2267999678461288, 1.0261814001068623, 1.424946048793467, 0.7871810453096404, -0.19432669173349967, -1.542172259304108, -0.9217546328231008, -0.633947529361725, -0.5266383688370979, 0.7206330587729197, 1.2385757399405093, -0.4566576024876237, 0.4301937554119153, -0.0038259131112605683, 0.8021953984776699, -0.2835512145652864, 2.9495062630716045, 0.028055430441452228, 0.5363553294845487, -1.0468151998494297, 1.2534482373731977, 0.8623557622003537, -0.752300857669699, -1.0615332708788414, -0.1034766548678743, -0.32801887993005296, 3.14431287990377, 2.2283746934300903, 2.884178090390227, -0.714261669364629, -0.8977447348761999, -0.6673925980560381, -0.7996613700143782, 0.9672518332831347, -0.7662042656118631, -0.7605481082568455, 0.988342052053721, -0.3281438415042371, -1.108642148003594, -0.6471017836729673, -0.31433581506660613, -0.992322584586384, -0.2719198038741626, -1.853223018360148, 2.106648438526993, 1.6897093727683385, -0.10723042578028345, -0.07588418479889085, 0.0571841655876603, 0.06484002635159611, 0.4787764260788236, -0.5528387405108165, -0.4457345642148652, 1.7156982851121656, 2.484683831482655, 0.9585018925363126, -1.3062274848862039, 0.43696532494029994, -0.06993993124378187, 0.9665075282094264, -1.471945820302008, 0.561446083008495, -1.1546168687666631, 0.6187664082370787, -1.3503091758026011, 0.9615759665284536, 0.7465075953790878, -2.456131090762826, 1.2490711393466567, -0.3537426956461508, -1.0090219151341802, 0.4784018704687023, 2.1020520566053236, 0.18404015512165794, 1.1428070381604878, 1.1140547168095216, 0.9206412736905919, 0.7636173386534567, 0.9858712993752916, 0.9053850679916717, 0.7497987524961675, 1.1166150232774843, -0.18652835129174092, -1.0637468997094641, 2.600842860613725, 1.322403882880924, 0.5855978114197832, 0.9709907049819743, -1.7310559775031695, 0.5810447548931301, -1.8550264924900364, -0.20440173177268223, -1.062235133081838, -0.5034688576855643, 1.129532893687062, 0.28656643783228264, 0.2871842117337039, 1.8697606976192116, 0.04036365692120767, 0.879601097391569, 0.20146063852461632, 0.4872160544588009, 0.3454178738400675, -0.6679260195674511, 1.4998617076943483, 1.4626941410750725, 0.1475907051901538, 3.222391996673154, 0.22810081303519708, -1.5427260107639071, 0.6301810551654646, 0.12015090563273659, -0.3257930575883577, -0.2779216784686606, 1.469343699687033, 0.2415824187864994, -0.04875605083871455, 0.1821031638803465, 0.8448900343412661, 1.178992536146757, 0.6364311943466091, 0.5202793237383881, -0.7850687372345951, 0.5967769381705154, 0.668603451941005, 0.4916936050639759, 1.2849114278893556, -1.171641188166863, 0.4228510892301296, 0.046570893856556744, 0.09556930344315506, 0.7028815595699027, 0.43994853069596035, -0.7818106834882912, 1.0918939931171798, -1.0625463003005642, -1.6867082303096776, 0.16400860757649327, -0.5097504056115743, 1.0335551563354755, 0.7082311237866235, -0.41641439471429587, -1.4449750727665776, 0.04766933827732663, 1.052780064966579, -0.4545835126634053, 0.20752186802490638, 0.7091717246291619, -1.827341660571854, 2.1185345378264993, -1.0974894902992323, -0.14152319232289037, 1.4702995162764796, -0.3290089635838731, 1.023346017860548, 0.9708222411145639, 0.008586492468193522, -1.3954938966977763, 0.978797755771553, 0.5691071099520868, 0.9671663844338029, -0.25429700934212046, 1.376594748199722, 0.7773403321356164, -0.6111773264962739, 0.49112019245055366, -0.8321741577624935, 1.1075586213953326, -0.40408716047505533, -1.3536563549431564, 1.0156600643855338, -0.22461619711574007, 0.8104043917985513, -0.8419270988175007, 0.1684825544965132, 0.040962159230153276, 0.49495843309446985, 0.43792023172889183, 0.1292663005139531, -2.027265120865627, -0.47967713687869934, -0.7327911899773829, -0.5902977719975876, -0.013669436320431305, -0.03788054871928585, 0.8028000173660186, -0.17071192042666353, -0.5451154044427488, -0.8010527268936197, -1.8612626022345296, 0.033520304358721255, 0.353517487406832, 0.40666895952542903, -0.522884947936555, 0.5615209060077688, 0.8586975060808657, -0.2906953835528886, 0.16957771191503762, 0.1312549938157435, -1.0346729833788826, 0.257677678985582, 0.9523201534848644, 0.6198789204022456, 0.2518766765283708, -1.0382598576278428, -1.412942521946527, -1.5859819294003672, 1.5050409872328316, -2.0060927936780075, -1.6660802736825804, -0.1327520545222724, 1.1227123902566003, -0.4756811754769829, -0.4279851650155328, -0.7593744295814663, -1.5524122260443654, -1.0791494740739633, 1.3482447933237593, -0.18849514176351947, -1.8145522627783774, -0.07255157300565576, 0.10533059192327941, 0.18373780687286367, 0.39867358053142465, -0.4733215596539829, 0.7967833123430885, 0.12490923312461442, -0.7976758122281271, 0.23066001515937862, -0.7341151486748181, -0.3719773263849914, 0.30147949572770794, 1.906974821736754, 1.3294191295204667, 0.12916944103939287, 0.17486336688607115, 0.2942612181436982, -0.15562960816214927, -0.5461511955717246, 0.5191593604487427, 0.650965421682883, 1.1880417099158778, -1.4511380069746487, -0.22023404732097465, -2.959912618081957, -2.8850731028611025, -0.2166555881001267, 0.2543984400064296, 0.7202172065350309, 0.8043039814619058, -0.2524543224487948, -0.5104213068918341, -0.4904240176347209, -0.09801161964411571, -1.0618030101272682, 1.533100531726784, -1.7326765360601077, -0.7190535854466752, -1.0890328313415454, 0.5411568506987617, 0.963166839660296, -0.17841308656784644, 0.15820757708031669, -0.7082472647668707, -1.0351287590804417, -0.6856994604732237, 0.3190348882434845, -0.9697105138925913, -0.46805185136889266, -0.541669809108765, -0.8126095198812201, 0.6989219271851953, -1.046245557127431, 0.14157545844366806, -0.876525350963636, -0.1507641075398962, 2.0926016119815247, 0.19035512510668393, 0.6141457672988211, -0.6451721266653682, -0.06818860453368893, -1.174991341378975, -0.8946397199566558, 0.30887290914000964, 0.061435438053396164, -0.3929730731781912, -0.030967529668802958, 0.9897562471887911, 1.1108010542658087, -0.6768102455722993, -1.1269576927813358, -0.6157427181085904, -1.2578523985612047, 0.13964217908678908, -0.3271372551494036, 0.6772341650207018, 0.1343912910391321, 0.061363546605497844, 0.4593122046126349, -0.34781472646289513, -0.18974430296106953, 0.05570901553770289, 0.8672760605484152, -1.4282400351753657, 1.576249676499087, 1.1390284966819302, -0.1983184123685761, 0.1299261414696215, -0.8266827002895957, 0.6581876103516473, -0.06592591806487624, -0.7615928687699189, -0.8002504043851822, 0.7565310450343461, 0.7421179379405028], [-0.9894327656764083, -0.1382967646061325, 0.027797212164875615, -0.029604587951913695, 0.6063838301251582, 0.12704864683054845, 0.460999996295779, -2.812790615843905, -0.1493752480471261, -0.17403159988898917, -1.6176738558997976, -0.46207825515990286, 0.9279990345904054, 0.9676355552212815, -1.9721190740343806, 0.8179380796673998, -1.163279296757165, -0.9178746344115546, 0.637038875631405, 1.3998135939432765, 1.617097589417483, 1.216914117513934, -0.07597533042494942, 1.2357122563290344, -1.868901614624626, -0.12477796744596666, 0.23947391286985711, -0.450733913715555, -0.17095241502454256, -1.6025132890758274, -0.7341823014885087, 0.3166320467597588, 0.010711792693768558, 0.16781165100612466, 0.792616917649825, -1.7146226283769361, -0.30509402739658115, -1.1023957179379167, -0.1129053968052841, -0.7188501309157496, 0.6219569478210976, -0.362258292422817, 0.27058333375585125, -1.461703175589361, -0.45495320161191644, 2.1051196400894883, 1.89817998950515, 0.3110212027389994, -1.1890673974691723, -0.920442199475095, -1.5907458913349561, -1.2041519556618718, -0.265525860061223, -0.11648492394148047, 0.8267495637634461, 0.27599463406392266, -1.8866464291072829, 0.9109994778949967, 0.8733382759180428, -0.8742619955069184, 0.39600575374990843, 1.330111192718932, 2.1605711410732527, -1.5711055833322627, 0.8428764721315968, -0.34258599800569806, 0.4691985604982396, -1.1015531911782048, 0.6076938243446561, -0.2555395925425777, 0.8233241178141177, -1.3788861523019689, 0.9189585204272674, 0.23051182496630893, 0.7445433940491814, -0.37494980987066995, 0.9330989152396173, -2.036047897408717, -0.05441463870429726, 0.688864774674522, 1.0937883840340108, -0.11494755268256858, 0.3161133293154207, 0.07423399273684302, 0.021052177756381178, -0.17917759708610578, 0.30699309647740647, -0.6144590958675361, 0.5819177358635067, -1.4445679419695443, 0.38630126045175633, 0.8392578197967328, -1.0850299231545122, 0.3751364284794896, -0.009751439619941658, -1.1605033845644759, 0.9232058296540424, 0.8787810205766287, -2.0493946195608177, -0.05700991023562837, 0.3959689548988288, 1.4609289374218948, -0.10822386008314168, -0.958463971455487, 0.2408624477899108, -0.22083333112041104, -1.354838015777431, -1.6025026905587212, -1.47159754363395, -1.542683905921932, -0.5672543138391862, 0.7633906749120856, 0.04078114167572094, 0.22108632901434488, -0.31270107811342357, -0.4748355484931725, 0.5470791570323479, -0.09680798925218269, 0.9494268101941886, 0.939630667133082, -1.0328509033546758, -0.45894682597324005, -0.043382940167388036, -1.8917561792858464, -1.220497878816544, -1.483712056962768, -2.1968374910606374, -1.0732860707910787, 0.32587075641762764, 0.18108874582129178, 0.01253177196266802, -1.6101159175453348, 0.46302471144843543, 0.29517931597573493, -2.730878099357007, -0.6710665128031325, -0.7247285886205768, 2.198182716461551, -0.20122658770989835, -1.7048912640644376, 0.7290501890250272, 0.1828166086643509, 0.32245193672367306, -1.228997405116917, -2.820460336189247, 0.8268518977670168, 0.5875536344292713, -0.6588472870811615, 0.4649516748207785, 0.36203887254141415, -2.5248077109677878, -0.46363061344898204, 0.6893960766096715, -3.0669670847206962, 0.004412522272971417, -0.955362135584547, -0.3298445476200987, -0.9162685028676587, 0.4909539941200381, 0.09819080410005619, 0.4073316189269953, -0.7772536878980828, 0.09728058318386099, 0.5950494456439102, -0.1845270921615564, 0.07711991600105081, 0.6640304097983153, 0.27766499172258846, -0.29733608385468246, 0.6948003931730599, 0.2524534201482065, 0.06793599830103118, -0.19429990204976277, -0.6255733105545467, -0.23165375268519545, -0.5996207282658215, -0.6288922759499699, -1.7197001829290177, 0.039571111922927296, 0.8351520885910855, -4.98791140245625e-05, -1.871597833760467, -1.072431096296528, -1.428138454282746, -2.058576341002008, 0.8745667116087427, -1.5323667538012458, 0.6520131997906528, 1.3640782775575684, 1.1326839702186258, 0.10586424938875688, 1.4894882937097398, 0.296856321344508, 0.7406542824723871, -0.8769941951430669, -0.03524131372793144, -1.3015833910132861, 0.7256534066190152, 0.42929934244356854, -0.038010735371054497, -0.5377497962314801, 0.20516032638525175, -0.49883130909402273, 1.3920093109038514, 1.5811969209027388, 1.9737159069603805, -0.22744733998298527, -2.230218965617513, -1.312930175668529, -0.9039393962686311, -1.059405076454361, -3.196386178173398, 0.39754102142716685, -1.9132285244968288, 1.3502107859372168, 0.9896518126888899, 1.2124455222429598, -0.0031405288369895303, 0.7783484803721825, 0.4778416249361791, 0.6553355719668941, -0.04627054323960828, 1.37901545801597, 2.3532275927874307, 0.02924425694276761, -2.411581090461022, -0.9576260286694366, 1.4508018317994247, 1.888536367077999, 2.3637704350020705, 0.48052741065639887, 2.071259849849176, 0.49044267651749657, 0.6725480434442821, 0.4689421269057004, -1.037893463188757, 1.796631648505582, -0.24720812608245873, 1.0040442678257044, -1.0011810722557537, -0.8531832436530788, -0.9840513830880214, 0.6803808045410722, 1.6572857062902095, 1.808585025929766, 0.5243193480275665, -0.3213084898995433, -0.12434489459293374, -0.29338344500500346, 0.3366020151398772, 0.048813187862836, -0.883590314138153, -1.063807909554596, 0.6064071488172006, -0.14546619357611387, 0.5173489595880004, 0.1998030968708479, 2.0093824949601844, 1.2060331143019594, 1.3705332062051516, -0.8436270849369499, 3.0771821848740584, -0.26720482413094854, 2.1599115742796573, 0.7076882766133877, -0.1423543668537252, 0.5612935356365516, -0.20620080513170796, 0.5656918382225039, 0.14921761759222654, 0.7408553257880188, 0.36909088276103946, -0.6717466064508455, -0.1656380144483919, 1.3815086271975547, 0.4431448892051814, 0.9196372626847861, -1.1564479130358614, -1.0827847762028653, 0.7027431673804725, 0.2811438705707194, -0.03338381196493272, 0.25721151613263254, -0.21932118531064587, -0.32627344073948883, 1.3099746002639447, 1.1016897070779479, 0.9008446837720941, 1.3508402769313688, 1.4583036545914467, 1.5400410483175013, -0.6828614714065931, 1.4474310908215948, 4.223121552374482, 0.7244696235097009, 0.6621674904043132, 0.3576762324666028, 0.24411973794536077, 0.380027239929545, -0.020490161204842816, 0.21199989599195623, 0.5881225293967902, 2.5063224796268124, -1.3322326402304612, 0.21742309618145805, 2.3423449429925984, 1.284438508907624, -0.3332232764017387, 2.201373744109904, 0.5316942234676038, -0.9098193425155644, -0.4845660325710161, 1.735568258944062, 1.848693616839379, -0.6960483285086682, 0.5071310566646533, 0.20554430403321033, 0.930604540793677, 0.6972445909508868, 1.7690125197103785, 1.084379326167522, 0.9694788889608971, -0.23772871895550055, -1.048628141007607, -1.2811974622237026, -1.5086481603390403, 1.1369904375185724, -0.3262092982577974, -1.7855049775481724, 0.7805296985321388, -1.3820930247268506, -1.6742194419531342, -1.450100217154553, 1.5109492229336219, -0.07897695951062243, 1.1680530395468818, 2.4548461256160428, 1.0723540422453983, 1.2913010396299773, -0.8536988455747309, -0.7193835797954145, 0.1431227730516076, 0.24891703469709994, 1.5646430290914688, 1.243871330126482, 1.1598262775335673, 0.11713345856172278, 3.0078568172479208, 1.3006686209306924, 0.5038879854542601, -2.7404164706721583, -0.7002366575957727, -1.365053592991338, 1.8799888819464046, -0.5898955106497831, 0.06205330539726837, 1.5055125690927775, 0.746879504336957, -1.27179055088411, -1.6557166604526736, -2.0691777880872544, -0.5163608097438601, 1.1487248892439623, 0.042747967398613716, -2.016170249815438, 0.16714685868747958, 1.9619542160158756, -0.22387660571569482, 1.0619509796929654, 0.7148667272656039, 0.7367064519475838, -0.825529014759142, 1.2118232485416849, -0.7584669884657749, -0.7857671499901282, -0.656841641088075, 0.8559488660586494, -3.0117487763499176, -1.4632005300700077, -1.775475971397316, -0.4189980115877333, 0.17046546180166097, 0.1411889229608542, -1.9513331773698046, -0.17393284828438463, -1.349046533361627, -0.4808274679959525, -2.724590879559635, -2.455231621237864, -0.1929659241830048, -1.6643094136326666, 1.843968491242404, -0.5452517589048832, -1.660803492558731, -1.3492288283530443, -1.3697123025804352, -1.6951591310571, -1.5352523350177032, -1.3099440779003897, -2.5067720854422393, -3.0232530658081034, -1.3833374835404901, -2.3249137293983155, -1.6719337919875141, -3.4591845198366773, -3.0506245198933843, -1.2910890260240673, -0.23934998278926245, 0.6656823532446712, -2.3897093781558296, -0.613851219137012, 1.0277382497889995, -1.3681377618851458, -1.080819184707917, -0.5607240259520577, -1.6994665080949778, 0.31776539840011986, 0.18493720692600576, -0.47570250970873423, 0.09166198959484258, 0.2058357608420194, 0.9061945047898602, -0.3360559074992171, 0.6735771211031114, -2.5193317507234845, -1.2436985549131179, -1.15806696707109, -0.5125809218710095, -2.3195603185889957, 1.4042062375239623, -0.8405948234305854, -0.17321296573096462, -2.157188597965052, -1.222161729998427, 0.1788604427015814, -0.5042560580829943, -1.498441744415289, -1.0240097626380633, -1.8374508144305377, -0.3562230283222511, 0.03188223208977217, -1.4045071497541946, 2.0538669364069824, -2.141551683451335, -0.6181623294646827, -0.2371948989038177, -0.9351262138503504, -0.20623897967656285, 1.0949866354467426, -0.23093682357418152, -0.07213228779848498, -0.24434704121656528, 0.07903666238398831, -2.2877322890422165, -1.5769146051043479, -0.8891583945890511, 0.6305706147968317, 0.02590427874595396, -0.6603682306192157, -2.7999465605814144, -1.8609934379049353, -1.1415483315950101, -0.8012254281014496, 1.154700489062878, 1.7754561786606204, 0.6376997757591194, -1.145978200112804, 1.308697152991976, -0.5261048809318114, 0.11084632388332802, 1.1107952598951587, -0.5915330438173476, -0.5378981130167856, -0.33858401355336903, 0.5791574129036599, -2.9214763756206445, 0.9878673350345623, 1.467357322722967, 0.27164762630607264, 1.5192439394043655, -0.6226908674434468, -1.7191452789931567, -2.804244308312899, 0.8369418379542839, -1.2816873026951403, -1.703106054687188, -1.8980696304587794, -1.3542877562974758, -0.8691388952572757, -1.4548328927959457, 1.71879880232491, -0.5299755566479919, -0.6490087340800416, 0.7871939757481649, 2.4254799709240547, 1.8350891394383382, 2.4687180826956574, 0.5693679086979698, -0.3735232946541137, 1.832289083575483, 0.5246899325920158, 1.5739627747045855, -0.9381632368002021, 1.185628258181822, -0.38201836840343906, 1.9066025104598547, 1.7975023599797215, -2.0328284764761078, -0.8798276850937627, 0.35217301318917493, -0.8127583785135258, 0.7577554286724723, -0.6899827170672587, -0.17391153114384522, 0.14900869563827102, -0.5011277508784497, -2.5676337090428296, -1.235453368519982, -0.4297617831173977, 1.2861515828928365, -0.4766509485268044, 0.04360835496293615, 0.7494929393466384, -0.7436916736668476, 2.3897135546128805, 0.9470645960528656, -1.3631124104672523, -1.0119125468320138, 1.467666270606615, 0.8272512645029317, 0.16730344980270226, 1.0820033182927642, 0.33941269886375497, -0.8569401194455146, 0.47907983174471874, -1.1299355365118469, -0.5787499417336031, 0.27251251271054155, -0.4118317759824657, -0.22160992894004383, -0.0853767032777394, -1.3286503803796177, -1.997183154459275, -0.17526316667173947, -3.16270037787029, -0.48990216206454845, 0.7281752763541969, 2.15797414143716, 1.2137099618924887, -0.9832152630192665, -0.6936467362647923, -1.3123429186508666, -1.340635363140809, -1.817443171924286, -0.45421216398312136, 1.1670359033245385, -1.0983756370987543, 0.5542759172012403, 1.08513290177613, -0.19856005840911306, -0.46217641026792816, -0.8109153962111065, -0.2809805336854246, -1.6412355345005398, 0.3959024182969427, -1.6518955937945112, -0.48744375830477826, -0.2262986979320953, -1.2615232898736233, -0.5821993616293948, 2.5409200342201466, -0.16894098222736906, 0.37717074738633743, 1.1042941053524953, 0.9999780521398154, 0.0909602708311012, 1.3441559530402123, 1.7948292842227254, -0.274123946989996, 0.39610463780698174, -2.208261119444445, 1.3788681051001332, -2.424799231735456, 0.6024717878747257, 0.21058272066047293, 0.07981236011629234, 0.6185813054999583, 0.4859114129996825, -0.8365402466930542, 0.757513897397715, -0.39152354513353654, -0.14988936388705085, 0.036182873803027045, -0.6395728286043478, 1.6226139906399917, 0.06707112420903225, -1.2448273043190077, -0.4336762793704571, -0.27006060484664585, 0.7063564675196551, 0.011206306005908412, -0.6404984054516085, -0.8489481536731852, 1.3657139474597353, 0.859198680009499, 0.6306819577008921, 1.348289026973652, -0.38534601770427684, -1.6200485578080455, -1.1128413463592122, -0.0032850078809174917, 0.6416634775314155, -1.4835556346123853, 0.5940115803244523, -0.3717764537857154, 0.023299768592054907, -1.700560911078188, 1.0855046493222862, -0.21611898488185535, 1.3849307138157456, -0.5599333992951072, 0.29445381456801667, -0.1900979027951891, -0.770420760357027, 0.2118358526367234, 2.1005510491318806, 0.2426964190887419, -0.350147163325626, -0.8432249959356166, -1.339641417196206, -2.0642190065641377, 2.720639988113376, 1.7613153930585106, 1.4375534126772298, 0.32778557969280536, 1.5272042144021338, -1.4141125253549494, -0.8317523365905553, 0.1511973887312582, -0.9214050097353652, -0.11833150582120547, 1.4051959642301548, 0.6073598484378766, -0.18164613270314953, 0.5421059213441517, -2.4315762286327756, -0.8294236703283093, 0.07117172875528949, 0.583697002713696, -1.2547868734860703, -1.5739740223688719, 0.6192779052466992, -1.1763830944695168, 0.577816874555786, -0.00256129209096791, -0.06300525631926643, -1.4923892523494398, -0.9992032561411681, 0.2868957018575651, 2.1164993443947595, -1.6107214561356555, 1.0985491285736135, 1.766170701782983, 0.6744867959976452, -0.8536875184129881, -0.7003616658096399, 1.1287970540862227, -0.20730412606280216, 0.100100052599906, -0.7647478800002784, -0.4693877167824459, -0.2822810361959428, -0.847880737671712, 0.49064766672996357, 1.0411127545153265, -0.48900268490877113, -1.3676266562772297, 1.875791422038819, 0.5948165094261568, -0.42926334653125664, 1.2807208359172293, -1.720223716733511, -0.5284100198197227, -0.35715970034539113, -1.1847443289228827, 0.4836758102209173, 0.7750409818900984, -0.6637698685603238, 0.9237663241462241, -0.7914976201593474, 0.22030614245412714, -0.4209514318507857, -0.7876946440918787, 0.8481340023448568, -0.2173055034392246, 0.3733310621938836, -0.884932390657354, -0.44769174898364805, -0.9425257547436325, 0.7218739560505484, -0.23212604861447966, -0.7990694584330906, -1.0186106148035086, 1.0497113992552256, 0.0299243815908714, -1.2402971542529135, -0.5504592924565702, -1.5002881487746909, 0.9777437059896077, -1.6990308027670928, 0.9642781914204304, 0.593859027453346, 0.46791172842390993, -2.093858596655523, 1.063752495015965, 0.04501123095707709, -0.775197729618123, -1.2545426974049483, -0.5175746497623386, -0.6286891669737873, -1.1511331479229263, 0.2769127533151625, 0.30914888339269664, -0.4730577849107813, -1.63217182879143, -1.8871065024218683, -2.2580273243863775, -0.8311320172771757, 0.8279931723986496, 1.083037668597133, -1.2145065547390317, 0.5545125127406606, 1.2285061947706768, -0.19552914694716836, 0.13393835828624612, 0.47124029307285514, -0.02001243181370314, 1.0382919437035247, -1.4455117016092465, -0.07353023850841708, 0.008336564927837107, -0.2934940615347761, -0.7542126326007388, 0.2897027699542784, 0.2071787887767476, -1.7050720577453566, 0.07770620041685047, -0.1017813146514926, -2.4812820415475287, 1.525848556180884, -0.5586850202198809, 0.8365165263143403, 1.3865694604346552, 1.1193213954824244, 0.1247462005771003, -0.6150744414511189, -1.4420202225922236, 0.8802606253377343, -0.07007468416329789, -0.36892736112702984, 0.5899957061141835, 1.342164118440541, 0.13087718833206546, -0.17247796102928398, -0.11390727591032988, 1.6110362056931717, -1.2629690240182128, -0.45063433997923025, -0.5443532765341659, -0.23369513790168725, -0.14063965784380275, 0.005447901038696853, -0.6804406827946363, -0.22138708519617492, 0.4714319596389261, -0.5393667392499276, 0.5293663165960493, -0.6199799051329522, 1.1930658734090394, 0.31905605751168636, -1.7618907438945905, -0.0806143124052562, -0.20537649818711984, 0.9758739756464809], [0.11888014368541375, 0.43845416978343, 0.051729206051541445, 0.4315292832294677, -0.36637236905209236, -0.5263996994443128, -0.6252581823532843, 0.4757567203146795, -0.44086282818949074, -0.39383003042163384, 0.6965935450134364, -0.983976452651791, 0.7561183721503988, 0.2173547758867089, -0.159137789113051, 1.0122174362794996, 0.11131157462644055, -0.43071779313377667, -1.4337525134587437, -0.6576139688441395, 0.5398953584029949, 0.502081525677932, -0.07404514751918481, -0.9189706549528129, 0.3584781974244622, 0.43150115717771725, -0.04863858296190385, 0.15341190965311519, 0.6834223356780295, -0.07684884372034276, 2.2230419808952395, 1.710955439614299, -0.7438660848081262, -0.09950105776519633, -0.31281031671121157, 0.053127988094071765, -1.121591654426224, -0.4310087777471074, 0.42146787186151197, -0.24761728637649827, -1.033873717190474, -0.17015391461599638, -0.16286090819507987, 1.1900399360475598, 2.596246200300364, -0.5074644133366998, -1.3850309282485205, 1.553147324821074, 1.3474094187805756, 1.2084686985210342, -0.18772539943423708, -1.4465836326667727, 1.1316862466656445, -0.21769902379753459, 1.5570202057504743, 0.34000617405932904, -1.1297310557353233, 0.06365508922767692, -1.2903758150482418, 0.8219767845094439, -0.6793150406588729, -2.203206086204156, -1.3369679093710536, 1.833159809232384, -0.2879113003558809, -1.639283444673839, -0.6539089981495757, -0.08618006106866394, 0.18695652456071962, -0.027268036334572508, 0.762766601559864, 0.6152382189082878, 0.865199022427185, -0.02124394440827388, -1.8130666511870692, -1.2140772678822958, -0.03247157165766636, -0.6668269693217397, 0.5454585702587071, 0.007580077474035395, 0.6017441894333482, 1.0959459168035608, -0.2716080520945109, -1.2452469990971624, -0.7658936573611946, -1.2580176057083654, 1.0883178960458513, -0.8683153563946502, -1.709144131780706, -0.6971225601486702, 0.052480154549511375, -0.21775873987635228, -0.24646401336125606, 0.8668714670394225, -0.12500857205431923, -1.4845399468256022, -0.413624536394358, -0.8741729674845264, 0.6059551755958165, -0.3137928897920339, -2.9783239124104437, -1.616852623075054, 0.43997364801647565, 0.5359257439392293, 0.1409136682989327, -0.8843903267757774, 1.9326590666260095, 0.6397595627259187, 0.2194389284666612, 0.149129924035647, 1.33860175914503, -0.004436114800968247, -0.722337782564106, -0.895608521927367, -1.082945656092532, -0.14296457207873797, -0.25883306528307587, 0.29066920969798515, -1.2587346481860926, -0.7890396866862981, 1.1840778624790387, -1.1552047159188488, -0.21554486941125284, -0.7178141574092909, -0.8112052941467083, 0.2717013096852316, -1.9565557124545234, 0.5165614322764608, 0.22771453420092858, -1.0511757256871477, -0.9229013359561501, 0.7343777063493184, 0.2301839949600929, 0.4591264467986667, -1.0434662372448644, 0.03513973550553322, 0.45586723127171036, 0.42796360636402997, 0.23080769563287037, 0.7465672631184258, 0.15814866129812968, -0.35734962250863983, 2.149621900955248, 1.7722059948930298, -1.0600905669881588, 0.08270120158443278, -0.3036087405948981, 1.4997460077388978, 0.9791620458168989, 0.4243729062668823, 0.7610417915203982, -0.5674800853854547, 1.4395347927565112, -0.7549556028441367, -2.042937232752521, 0.34807631295369806, -0.7046151725085688, 1.593136361251801, 0.9607790972323955, -0.03479529007819036, -0.5475553135346939, 1.3530751028799488, -0.7520063040062472, 0.34560909468578327, -0.06468324364810049, -0.8649129924137247, 0.18436761886089348, -1.5677217666480683, 1.236899589467653, -1.020924558313018, 1.1929073782729738, -0.39679567815738115, -0.5001062745604555, 0.2606830843182449, -0.09463909231776405, -1.802012567102153, 1.1972159938203548, -0.5400616546467274, 0.006644898873515697, 0.1714355666141835, 0.4808180883627461, -2.3175645671321217, -2.605507452455017, -0.8892598955954755, 2.0555421992791914, 2.7347615670231376, 1.558941486534969, 0.5323169889031298, 1.7097990448817504, 0.09316420416486046, -0.6261006521517833, -1.434981474416515, -1.655172569267649, 1.308160333123041, 0.3570627350079021, -0.304303394452638, 0.7912953176192447, -0.5116511901185392, 0.7551105702230773, -0.2619781798052927, 0.9209686626576105, 0.48669913214113575, 0.6885411281692171, -1.2824642999755191, 0.6872026363675758, -0.6845389809240701, 0.29986303180909396, -2.2285207247844014, 0.8524646487837337, -2.7982005070492937, -3.66117077757662, 1.5971825554821073, 1.8384856181133513, 0.8656926795496486, 1.8756998244174476, 1.2665500163848593, -1.0305132578325928, -0.5190291120964905, 0.11033283827198073, -1.3990943624297845, -2.21107904388461, 0.266328143638307, 0.2928243418004887, -0.0010260311705031545, -0.08127961228457901, 0.8689065701546618, 0.12382142408643322, -0.6601652168710714, -1.2173244181280243, -1.8324933159446002, 0.6844205254244059, 1.9725211857999554, 1.3793880460582906, -0.13258223202419553, -0.9202404291374185, -1.5536395535454357, -1.6514183869482324, -4.493310234872824, -2.9540289127085604, -0.21649560368547666, 2.8860373060690785, 1.555416067363608, 0.36852830870132725, 0.21350952052075556, -0.7860513499030977, -0.5745217173777514, -1.6133702643639205, 0.3764637923165463, -2.079753084881741, -1.0563689888374077, -0.26706830670765197, 0.7815046829730149, 0.5211677457177971, 0.5173065039175646, -0.36924694735415203, 0.10107883606866407, -2.1580569343684495, 0.0015535702526098603, -1.1676815377169767, -0.4779176114506604, 0.6830213490279632, 2.6355381421304354, -0.3488076021266706, 0.2183431510875088, -1.022131161567065, -4.839194803735519, -1.9456458874676112, 0.34977634308442407, 3.509862175864146, 0.5564028548812806, -0.22747627340906273, 1.8215908835246752, 0.6227708444418838, -0.8620938035949226, 0.7213498280640596, -0.811513383939315, -0.6322533473596775, -0.19319201277406473, -1.2458764695042537, -2.673491678682292, -0.4239808905145569, -0.4320381296893085, -0.8147232886113216, -0.49809294916043323, 1.8368500559887098, 1.7275051093021772, 1.9244884201127181, -0.2568219288297403, 0.9889144464017012, 0.5949157397335276, -0.2298095467237588, -2.080248324991744, -3.075206785358597, -3.854133740450975, 0.6603420962803668, 5.117321591545122, 1.7972045883335739, 0.2624888646607479, 2.3808784162566683, 0.23075143779113613, -0.620409196993563, -2.3212795762923157, 1.3754120628421622, -1.0726119274522978, -0.08925011117075694, -1.6784452054188765, -0.17007328637716276, 1.8379959956803733, 0.4743870809436683, -0.7816823529280146, 1.323079584842777, 1.1118159692780192, 1.4192058542793888, 0.2279153046844448, 0.0635319501455802, 1.7406629178945934, -0.652171582179115, -0.22275257291837394, -1.0995925599371634, -3.2106562010679185, -4.334269688224713, -1.1886002371627487, 3.9849936573473737, 2.8573033284515383, 0.2592671995250377, -1.30100178978205, 1.258827789234291, 0.4737709256953667, 1.95384496274699, 1.6395958913327964, 1.5979900522409796, 1.4248802279635098, 1.9723036483890632, 0.35685724746656644, -0.315739812016303, 0.8056649177593079, 1.403512563543933, -0.18267612675122863, 0.47676022464873197, -0.15611081915263947, -0.7144566551077886, 0.3304347356716161, 1.7748578905569492, -1.6182288299381296, -2.086910222094106, -1.4325441464820814, -2.5352796803577973, -1.5981619967600316, -2.246739558173012, 0.8706423710376752, 3.339747204483926, 1.8754271725793064, 0.7479649541119401, 1.680800782116912, -0.884561430763442, 1.490776478500187, 3.1370112458802777, 2.2871555223258926, 1.9665378016217212, 1.2164173689459288, -0.5940012435098534, 3.7224408750387985, 0.6640389280207205, -1.205057104055372, -0.46934033024737337, -0.11068625726677442, -0.3811758799020592, -0.2632163861537312, 0.12219224147622804, -0.8180369033700965, -1.1002651677245359, -1.7515528301789967, 0.14982218673108247, -0.9103474816783887, -1.9581376227211844, -1.2075481217199995, 0.7459919229966367, 0.7376326636897779, 2.6518351110117466, 1.5015138665790477, 1.623202305146045, 0.9077249939964648, 0.8825936407898621, 0.029262547031726593, 1.5423706454111212, -0.33510116514844485, -0.2264429688027094, -0.805786991450993, -0.5964049817392971, -0.7030404409131379, 0.7232343437205134, -0.12433660357470436, 0.24367759450788845, 1.0732469966044007, 0.24749639694100714, -0.3701088900029771, 0.13834177043676846, -2.523237431054312, -1.5729227281923779, -2.378354545320838, -2.3014875578824396, -0.6063443874886825, -0.6572629022788785, 1.1085702826406172, -0.2821976641519399, 1.1101675027738362, 0.5525546098915024, 1.5069040066184416, 3.0559106216183287, 1.3088779687630596, 1.9249998496088234, 0.4910723032864505, 1.8325888164881365, 4.105882634240503, -0.8382812600779033, -1.9834517912610918, -1.860362205907002, 1.029140660331508, -0.15194395376704625, 0.1643907928118361, 0.0008743830399940699, -0.822094260375272, -0.21388065035971524, -1.9675986088411532, 1.0780910796272118, -1.1017447227582908, -0.393575664198944, -0.3123109077486813, -0.9881464354441413, -1.6419735665912847, -0.1448352533537949, 1.697897524817097, 2.611397819438532, 3.7143696017630745, 0.22751700455884621, 1.7729052760075037, 0.7200143315888475, 1.2708537434616485, 1.1119168341138177, 0.27386726276130086, 0.6882007558188965, 0.671317992435076, -1.2548706384428254, -2.7579868907048137, -0.1152164093576722, 0.08907845887575347, -0.0986530803706598, -0.6239573334528914, -1.0315740935205058, -0.8748390666235972, 0.9999333320280228, 1.0777403810951272, 0.24836539703723903, -1.6636057666714659, -0.43774434908537824, 0.0007182168723025023, 0.4683266113947408, -1.232024839601174, 0.21481885933729078, 0.6206318671218594, 2.273459656022472, 2.3507102265653272, -1.4422365042337402, 2.2025277055813146, 2.2805605543081477, 1.2363661337948832, -0.09669117279615018, -1.6338104686130421, 1.394126961998659, -3.768934450778771, -0.9281420799630373, -0.9822993368848967, -0.6003658166086984, 0.39521639819092585, 0.26508175675262885, 0.09188789108584297, -0.9056211831844018, 1.203940646787579, -1.4094002439825595, 1.856021471142174, -1.658235966515403, -0.39580518551589894, -1.390958971731736, 0.8378993492810695, 1.682711005207521, 0.7245092925769904, 0.13999209871277246, 0.3074380219308741, 0.17600783133036513, 2.759050300466317, 0.7792670806453047, 0.4155572219014611, -0.44555461457393375, -0.3507225975977385, -1.5341010910416706, -3.5729410248337494, -2.2579560347834713, 0.6323289249942562, 1.0545585382233555, -0.23063050246696706, 2.5890505900009213, -1.8486058255371083, -0.16248428858755248, 0.48430738694654335, -0.05768616277527987, -1.628105538337115, -0.2485287690815966, 0.9877928144128598, -0.6817825705720735, 0.1796014850564722, -1.843284454470284, 2.1893782338832604, -0.03648126422226792, 1.4231469905387022, 0.16629838830902186, 0.6181643436888172, 1.0547857986856155, 2.2241990812396253, -0.0913994213803135, 1.7049869653291632, -0.7555299096705879, 0.4614965852032009, 0.7412612884041341, -0.8395646341418072, 0.8649405403560647, -0.19616449261062913, -0.3877723098013269, -0.05496547951694217, -0.435419594043474, -0.029261066933836198, -0.19913226176632953, -1.6803932706005489, 0.8786572877554603, 0.10702457939572961, -0.7920290942191887, 0.3103471639748062, -0.5644700028614911, -0.11835922862331309, -1.142949842800518, 0.7231470854214899, -2.1279679427083424, 1.1251502905783142, -1.3405981969885927, 0.48002028667100516, 1.028899319377829, 2.365164973689877, -0.4505953213048197, 0.9988196302297457, 1.432661285630829, -0.6499045473697872, -0.061261696725508304, 1.1730089940818795, 0.37864194096385234, -0.9910741370879285, 1.5445976876363439, -0.7626431266589712, -0.5197448436445344, 0.13554590808459996, -0.3082742733906719, -0.2975664045341916, 0.424719403758456, -0.7386944083060972, 1.2330814366560257, 2.292353499620465, 0.6553593051721777, -0.17930028086296101, 0.8522038500896166, 0.20110646769952525, 1.0196597718192495, 1.92061988173212, -0.16219809131134535, 0.9363819188260144, -1.4705140840467388, -2.2842299268049824, 0.45517700805323846, -0.9408572635436222, -0.46744087966651143, -0.23058446313960104, 0.2291771343331086, -0.1880161035654148, -0.37422497055945886, -0.3073126750159803, -0.16069639971074726, -1.0178149816729947, 0.10923464438720713, 0.5881457487935378, 0.2462281666245208, -2.1269815602624305, 0.1547931785530618, 0.5616863741882169, 0.2999947970233187, 2.1211684493855603, 1.6744795206827088, 0.6899228685046856, 1.7668912437760969, 2.3232746009689866, 1.3272403263350134, -0.8145774777253431, -1.9040606279129524, -1.037730240779254, -1.0471050957351344, 0.8763046163161502, 2.157982609035742, -0.1263562527747291, -0.953274903447246, -0.4453499407701669, -2.7946226264095775, -1.2335726530563542, -0.5005193074356847, -2.3434789026096365, 0.9747472784002053, 1.5253914509017177, -1.8418736907304356, 1.1747536794020736, -0.39846537905131263, -1.794280095453357, -0.35257812287101303, -0.6271674018232001, -2.792953971303403, 0.6114590673908409, -0.16287583026054753, 1.1239022629672777, 1.809898957825595, 2.311468565222891, 0.6741224480316439, -1.101184551990565, -0.5634238242926518, -1.0983866668439506, -0.46122308151388824, 0.3552113884971617, -0.48773621782273835, -1.5313082474280766, 0.6267494555633869, 0.5616537008197448, -1.029031365093695, -1.6041673865321224, 0.6706342992143487, -1.427263052295821, -0.1349925124841762, 1.498571020197609, 0.07685958580981231, -0.5283451334665765, 0.4357700643061852, 0.25798921978883244, -1.3620745190932266, -0.9175251120356458, -0.313884749738889, -0.9247833999910975, 1.9834516755472378, 0.3752149075814678, -0.03390248272765862, 1.2844727007909336, -0.6087382889933997, -1.136529652111489, -0.8582834553917111, -0.10850149638911759, -1.098842523090812, -0.20493770035835773, 0.6455459187690311, -0.4430580655884083, 0.31744928835051794, -0.6132149115641632, 1.253113086120589, -0.41618999958495595, -1.5481090488069533, 0.38073433483630637, 0.20884617278059817, 0.2826251596324931, 0.9809803015181384, 1.7509971193494267, 0.4742793750351197, -0.3509842157458206, 0.2299229239797307, -0.9127548377614939, 1.844893014131703, 1.926515241378621, -0.5556534054676804, -1.5488480258019623, -0.36142838968234275, 0.19369393731762002, -1.2227684124105418, -0.4498661404044698, 0.05437127220414001, -1.4251874214202631, -1.037931669831428, -0.8620001794948196, -1.0863275853532, 0.7916230516630632, 1.4384704225788916, 0.9882050405680182, 0.9154600660275121, 0.9851844430926721, 0.23514346187666446, -0.8266676006240813, -0.126781004357432, -0.4365405220986119, -0.06454929886160699, -0.03210610964011334, -0.11300551908010707, -0.39516758484586517, 2.079268146454301, -0.6292856949139678, -0.0708021375881908, -0.17697163946021607, 0.010763958485568806, -0.3530292171009535, -0.13004767587763882, -0.12432759858702129, 1.6439189167743724, -0.3891215098852341, -1.541281021465718, -1.6540153458216749, -1.8805372411544239, -0.031126025593359686, 0.8057188022588062, -2.746320595185797, 0.36821327735816195, 0.7211226235826086, -0.6040136254922601, 0.5331404242223556, 1.3419532993702938, -0.8054266791370325, -1.1132901762878178, -0.23000481052257374, -1.5488310713431348, -0.23586706961529777, 0.43804330442425865, 0.3941868647254493, -1.6083554947155003, 0.4718046429171317, 0.5708003557491699, -0.5780382378477608, 0.548976736420134, -0.10654423189214492, -0.7018879308767481, -1.9543068479811176, -1.6591825235364355, 1.4209108422581145, 1.2948962399406603, 1.1990487118886868, -1.0263530866393271, -0.8092745607457323, 0.8196042462979253, -0.16163835666166324, 0.9754179680732424, -0.3319716354754075, 0.8730397243589966, -1.8924916313280329, 0.4442271240065841, 0.3368902427941036, -0.9452781419851792, -0.07720278487134745, 0.10403275198442101, -0.30318647346674676, 0.40859778880224706, 1.3915060775011088, -1.0499606010907225, -0.6371618846745032, -0.2999776546110744, -0.13239712696528097, 0.0006544238719186115, -0.8875549792132931, -1.4750544287964436, 0.8389378609640579, 0.6007320003141784, -0.03225078466786026, 0.04397481994877024, -0.4389572791405855, -0.45289495794666995, 1.9437203745434222, 2.6839502636076915, 0.9419946456666891, -0.49328264477651196, 0.35640952612607896, -0.31986629209290796, -0.12686135874747986, 0.3382298649440271, -0.38805728174647514, 0.6798781676329768, -0.7771204104789797, 1.1325115211809667, -0.6844958544073039, -1.0620520031079659, 0.511707612750208], [-1.6661017587255662, 0.7765334880380161, -0.6522562949697133, 1.1362397524624364, 0.814095275877007, -0.20334960465860308, 0.6388823683920752, -1.588934043994008, -0.13181916572021765, -0.27280364723537126, -0.06330696964067563, -0.23842040028382752, -2.465731028926833, 0.12053153793292733, -0.9938656239699125, 0.20617472421127953, -0.5719107438261734, -0.39480608300857656, 0.3761947699914697, -0.1489600984571667, -0.7406440388095812, -2.1193479091558505, -0.2686267985083106, -0.8660566469499786, -0.4377370889100858, -1.9859960133495447, 0.1663455568135901, -0.6190289402246058, -1.2170250292596443, -0.8961970152343758, 0.16011324398517243, -0.5837843061854372, 0.022844152219599383, 0.284590681075039, 0.8505133418603178, -2.2132631932651137, 0.7683041191055091, 1.137169742289743, 1.0338173503507249, 1.4265044563238563, 0.6393911731380588, -0.45346834279242815, 1.1811282891519688, -0.7404246341363053, 0.4923001280247127, -0.8624669267938804, -0.15680636422240724, -0.5043987769294968, 1.1023558620007177, -0.4019487260939646, 0.921863692651603, -1.4840589600054273, 1.419673910975283, -0.4774357115301816, -1.574891253857181, 1.5025795535549191, -0.41481941164543484, 0.4860734976800991, -1.0265888863621568, -0.825611158886515, 0.32852375117196353, 1.0160216006114013, -0.5548909380499559, 0.020441134865134224, 1.9476553898962174, -0.0024922949793695346, -0.7745923951850011, 0.12624982316788702, -0.617614695075569, -0.9611428938738661, 1.0543781831339396, -0.6574608482750158, 0.1589163907427206, 0.6784023961239813, 0.706108534897534, 0.219312863509938, -0.8456775466473802, -0.7527215261236023, -0.06948571505182037, 0.4358754114143464, -0.16793656406170812, -0.4532277494772825, -0.5980063585764761, -1.0366856486184581, -1.2929689086509972, 1.9107873114662042, 1.352562231390179, 1.6182115743539236, -0.8790524200677879, -1.136754375047401, 0.25062373428563023, 0.1572369676391501, -0.27383709002736845, -1.9357664267480053, 0.20830250088907218, -1.5530531484833587, 1.5217428701404512, -1.3152295157520293, -0.5440614140950769, 0.6889614201083739, 1.5572732700559244, 0.363998287881706, 0.021831243027694295, -0.2912249280526185, 0.46048916254164934, 1.8091427032744825, -1.5522962563556264, 1.2180216040405345, 0.535329027148914, 1.316923417472881, 1.5328303801447238, 0.39118739970295086, -1.3931420795059435, -1.0256407454060357, 1.2581445079940299, -0.15046031082003322, 0.2912884952303154, 1.3335261354740884, -0.584589446424649, 0.42175332759746853, 0.5320284544545582, -1.4651777578251355, 0.7445145641800652, -0.38835835284542963, 0.4059436344521624, -0.442555237800213, -0.8092697996568762, 0.27530620536832184, 0.5371391344134109, -0.7570796692333529, -0.3325901825944051, 0.9290072931675588, -1.4421090509537398, -0.416976045146522, -0.025065337932348306, -0.3065237224501296, -1.0719769529655947, 0.33653947928616595, -0.038485361048848046, 0.18788841152438288, -1.32473602540327, 0.3469233488383944, 0.9802404439117297, 0.7146020961513609, -0.17803592318094813, 1.5984186197084662, -0.15213883321518187, -0.5669852956550816, 1.0242883689555338, 1.0331746390608099, 1.0311534955620691, 2.232137319313009, 1.4423988191499755, 3.540980642770147, 1.216309830144932, -2.6029804436982245, 1.0481059530135972, 0.5911714459331667, 1.2944343554223734, 1.6786707293263365, 0.2850467520471249, -1.696337619290959, -0.854391911218228, 0.5197578486403349, -0.5014878620057263, 0.8240131851442078, -0.5860820740518725, 1.3296781292847122, 0.5164432392836569, 0.4035106682266657, -0.7025534309232799, -0.6929594450877954, 0.11735876512460625, -2.017603298335498, -0.85285384818459, 0.35407756159686044, -0.5591683360971893, -1.6377182543865934, 1.2109236687655762, 0.7822661682839962, 1.34745662705412, 2.6958603867044, 2.772941448523576, 2.5626791500593638, 2.083585948588391, 2.2015042919974483, 3.7928329111856725, 2.1123727912996966, -0.06208275479450964, -0.6949457017887767, -1.8359062246921751, -3.107274125343908, -0.9352531000021524, 0.19344413135513294, 2.0080500565404322, -0.26007028414729605, 0.09781435231053835, -1.0545755544708024, -0.29701924338010577, -1.1718768529911014, -0.0325183477412476, -0.1718103287010571, -1.4380018023189087, -2.5829007144052114, 1.1396927616517953, 0.6723398479382031, 1.4877972175241887, 2.0904465924447626, 2.65830264094172, 2.8752066867939696, 3.6267195190774917, 2.1623433873953295, 2.2670030608148104, 0.8098352692426706, 1.8342199772291707, -0.44523501886254974, 1.0645476749833183, -0.45504914327108115, 0.002435805580301071, -0.5571623074875871, -1.9861811898853556, -1.72714901792279, -0.3738926159282768, -0.6630761926513693, 0.13982406392399302, -0.6058445450939695, -0.5893086277892137, 0.8339489309387044, -0.8978662370437178, -0.0483004132801867, -1.5603043140812887, 1.3797420691841766, 2.9857521351470773, 1.6554967248809067, 2.0056142732911977, 2.296969948144754, 1.8107878980275816, 2.050555450897482, 3.700709252578476, 2.7844017680897033, 5.18760579938163, 0.31428595197696685, 3.012444770757066, 1.3762050668329324, 0.7758156011488325, -0.41243035976535825, 0.07110558757609917, -0.4271214107887892, 0.9945074434935891, 0.7853656337671759, 0.4796319573643771, -1.4679723773757298, -0.8877219429218353, -0.6606139302014584, 0.15306378147838154, 0.7847436762435592, -1.3051563262841768, 0.27626602128451305, -1.4272733264223514, -0.318428638414879, 0.943373342733982, 3.255540330421395, 1.6990823644235096, 1.1936279016340015, 1.4388679836987435, 1.6683396603182776, 5.391872404474246, 2.6216453751255306, -0.7885903395744253, 0.36168027258564617, 1.4509690844427885, 0.43956354928139724, 0.6058584039281925, 0.5043658363743612, 1.9639142320196208, -0.3558272770056717, 0.09115879130327981, 0.9736076456269206, -0.9964760971119648, 0.3907414907619034, 0.40226517747223756, -0.2427291190553405, -0.26444456360161517, -0.24921542085856602, -1.7137687195585731, 0.7529808011586034, 0.7355529684731413, -1.276397707279445, 1.1762865608455089, 1.7956273241442506, 0.19078775436222287, 1.6732756681731646, 1.1238320391839598, 0.9394198126803871, 0.14346102406278968, -4.6348919826402755, -3.27436419961497, -1.8334908139751382, -1.929038575598208, 0.6725569268940329, 0.6733876511202465, 1.9124675274439802, 0.3074080672283396, 1.8009953009008615, -2.0883243356662007, 0.6421634147318469, 0.4267973202934277, 0.44852193047927014, -0.20854389855144287, 0.8356785236239966, -0.9737717627715903, 0.6718244380681723, -0.02336814951547199, 0.3987304583891458, 2.682623003510246, -0.18718406227937953, 1.5106338626073352, 0.07133597124735855, -0.41063635712272717, 1.1279093748848747, -0.32159002014753757, -3.528947025928646, -3.6764336829309476, -2.6848346118694066, -1.485852436851809, -0.5792482911354455, 0.3883654269929019, -0.008998087270018633, 2.279419770973366, 0.24610813865066478, 2.3514895679311705, -0.11960486838051593, 0.1508989310991162, 0.4306911642748768, -1.9418207745053457, 0.09311369581994995, -0.22823679839832958, -0.9362588567504808, 0.752512797110116, 0.1761669192937923, 1.2364197484797899, 1.1549362835456973, -0.9495663737249866, 0.768364940804078, 0.9822408089518314, -0.6641406539296285, -0.22312612178634839, -2.3551143811974127, -4.4866388741022405, -3.7149052389468937, 0.534749519909939, 0.9164519860816003, 1.3368177136231552, 1.3239801196508, -0.1570639009083279, 2.064528427310979, -0.058807531637300334, 1.0065141257110777, 0.1008578445717144, 0.004291473777237856, 0.2402120619654751, -0.44347173114492056, 0.29826968772373774, 0.5024414940193473, -1.1557040571022719, 0.07564944088422791, 0.29785833696963565, 0.5388889080128212, 1.1574365156992492, 1.7886550858148962, -0.703159902332279, -1.189879563179481, -0.9760271813247199, -1.9432728432089779, -0.7541819635540051, 0.28461705601592935, -3.8011954889669424, -0.6609882038239259, 3.24636122244757, -0.8003857694331066, -0.8891137219869596, 1.2134672430857742, -0.7630156990952051, -0.31548603663958563, 1.1570477563777384, -0.40175772073928007, -0.5634058326125557, -1.5958484761790133, 0.2604341852846861, -0.24933789289715652, -0.20102775792984195, -0.26125027397139733, 0.4378705339273109, -1.2262314071748306, -0.5648346851921885, 0.34343891173318636, -0.18360032262128423, -1.3951716894806097, -0.67980186511199, -1.8201354811612358, -4.243908156877583, -2.1106496931973466, -1.8607413206758072, -1.7957034389054618, -3.5704188481716304, -0.09549716603507383, 1.3132407489298499, 0.23063724940246566, 0.314135229606879, -0.7421419212052724, -0.4506976603104633, -1.0871797377768522, -0.8169630683224763, -0.15190282919231557, -1.0990069969705232, -0.09896488027237488, -1.377407728563476, 0.6546952076605539, -0.02684538401954935, 0.1372268065106023, -0.653716322221017, 0.3569920436988793, 1.2650043170813667, -0.6709651730746656, 0.8231794185804601, -1.4469893282435295, -0.7063610738035602, -2.5915073442864816, -0.8817914404049447, -2.718079165783933, 2.3468331761651133, 0.49501068193607195, -4.23864167979644, -1.3408680870992185, -2.318334299182005, 0.07416705174656117, -2.931835611970683, -1.5859186043852924, -0.8854415400218313, -2.2426091641140364, 0.6709572343413968, -2.4328176210620476, -2.4154147398560766, -1.746468735131475, -0.05382006318380009, -0.19511895038880203, 1.8847916522103025, 0.290929948525039, 2.7571572849728763, 1.908551025866235, 0.022911895188466175, 0.7373282921669039, 0.14984592240902958, -0.7661478698564258, -1.8598441341609866, -0.5901377517786247, 0.6339503943447473, 1.066690646801516, 0.6013010316430154, 0.3270638929470369, -2.1142571745797265, -1.5687753765765016, -2.4775616879729623, -1.745255902524651, -1.083870820968306, 1.404508548617431, -3.2249463383108474, -1.8246620717405202, -2.5488671198367565, -2.389630966074283, -2.083314858591501, -0.6824401616191386, -0.7195099851473349, 0.9919954445956998, -0.5286672525295975, 0.26323422370662025, -1.0886193381874816, 0.7089099758972529, -1.417604492942756, 1.29696724806493, -0.21042706175204026, -1.7095417789927276, -0.7897512887995023, 0.9689370009277036, 0.5241786349011753, 0.25119262461404707, 0.8330841891375123, -1.7152594825268352, -0.5387247122314337, -1.5520597051536171, 0.8031218935515424, -0.6782122210639312, -2.1080707904043336, -0.5033304390416828, -1.707175440443146, -0.7936827541181437, -1.4634692183815117, -2.0891475059480586, -0.10160800486800388, -2.7975518769696817, -1.870157694850152, -0.3752087845469998, 0.14485020147356104, 0.0019625484408640897, 2.217816570259863, 0.3048099970655304, -0.2577556333917767, -0.6264082466998422, -3.0408196814226325, -0.8941791707718373, -0.4521683860865485, 0.2736703324014831, -0.5101060933102738, -0.508025525514168, 1.0127337295973204, -0.6991754138077871, -2.278104982770369, 0.07336204694880626, -1.2030417347175337, -1.2318484810408705, -1.7439325651359667, -1.1734809675530098, -1.6305674109399235, -0.4014254727043272, 0.040598877899449465, -2.701904067133456, -1.0333998994668046, -3.269268370297826, -1.5661639878094284, 1.8638548187388873, -0.5175381387023967, -0.15601711301948587, 0.15484310945543142, -0.9101650581554211, -0.0631939977046592, -1.3578254233936078, 0.15231347934290956, -1.3924816524624204, 0.4708609598925722, 1.2764878246906814, 2.2263561741645237, -1.119467650349855, -0.4355340725032618, -1.3962203754225342, -3.0124543242686532, -2.743623196851014, -1.2961392103512361, -2.2487474824018583, -1.3155278491217313, -0.17303175011198693, -0.11414341021288245, 0.4500162118003173, 1.5478600177157573, 0.9342631894942749, -1.3909889842769103, 0.7467364233633882, 0.45384425260826106, 2.9169427802164183, 0.6774050695229075, 1.487451624043874, -0.7891836111796073, 0.5501049296296746, 0.9105033306291961, -0.1512898363060423, 2.4293317189822385, -0.1915712580177312, 0.3372579958370035, 1.8885294915218522, -0.13678268874601895, -0.6264182181511389, -2.365595119197496, -0.7504056802482488, -0.11600121259523566, -0.42131958370545325, -1.600238206204329, 0.11392996282048237, -1.4550147245476672, 0.2751945263532039, -0.19720623709567842, 2.096473695904872, 2.671297676593546, 0.767136505643092, 2.763895341394946, 0.9657282112897208, 1.45918583876676, -1.783525918024917, 0.06160004828800565, -0.6775810080145773, -1.748435423234742, -0.4396842188892542, 0.7167042170420546, -0.7429433260017282, -1.1834667752943027, -1.0523239299889362, 0.28339590345692345, 1.2969077262239905, 0.6841081176111719, 1.4972768930401446, 0.7574083148703933, -0.3165527850713037, -1.3854730379036784, -1.1398151899931692, 2.265803933863367, 2.188690512903731, 1.2866791819300496, -0.13566221151841354, -1.3756867314731112, 2.562375990258028, 2.7518741161845988, -0.36191388664159196, 3.310937169886908, -0.2448965921694596, -1.8509076081462001, -1.049691095783622, -0.9824572050386404, 1.1281280823977742, -0.2549135172351983, 0.8146109430042343, 0.5379130201402816, 1.9980946132835045, -0.6248577694478004, 1.6196234422601543, 1.1894669645695102, 0.777755204451561, 1.4947876859427347, 1.7169051752787345, 1.4906272225229256, -0.3447431909418404, 1.6063308503490454, -1.8316346186391195, -0.8418998991766123, -0.11838482664357214, -0.7537841763773452, 0.15524357659466206, -0.9255419831971232, -0.814492258145239, 0.8108608039724465, -0.7600641904413891, 1.7253087114502579, 1.6722122462751572, 2.0673872776246367, 0.015569419683749393, -0.9744074246052915, 0.4705617429931177, -0.6365106156779708, 0.04467036069643564, 0.824660585872835, -0.4832606428130788, -0.3693817319784518, -0.8926732671814449, 1.7490981602992257, 2.0325119183760125, 0.11093701344078956, -0.3560533550538154, -0.4858595778868041, 0.05645585409439594, 1.2985854980198654, 2.297523523614642, 1.3842783357675799, 1.1059636958139318, -1.1959043221975025, 0.4656801520069978, 0.3851425986381256, 0.8454330724626196, 0.10151038630548183, -0.16300700468874138, 1.820320273942124, 2.0507507144026476, 0.1599497022434193, -0.46566391778182675, -0.6383569149179341, -0.5798081352760854, 1.2316250989163948, -0.3657701733766908, 1.9091393862103685, 0.6194532360003951, -0.42764773423032965, 1.007961332466971, 0.0691374817375233, 1.5861660427620305, 2.6522377747466463, -0.47418310699072536, 1.3022808274559907, 1.2457673353882779, 0.3637625855703278, 2.1650811929031804, -0.5774230218877211, 0.21199265982282203, 1.6316495750488742, -0.22702976978493952, 1.381728868578537, 0.2773598792793114, 0.3032897640245571, -0.0798468057049915, 2.2778265536441085, -0.28483096663653873, 1.6307604213747173, 0.8690446651964997, -0.36291441590638657, 0.15719388862006517, 0.9625085769004056, -1.6833846106681, 1.0292816421763678, -1.2016903740569669, 0.16756639295426948, 1.2381063954344493, -0.2441620754166061, 3.619942283112186, 2.506211248998742, 0.4022554914962006, 0.6139980393759598, 2.1824489487708503, 0.8234231404551268, 1.1693006825183796, 1.732252239786996, 0.6040714724524504, 3.279369817515048, 1.142506519794793, 2.5698613548737415, 2.2658627788159635, 0.831155909759835, 0.49609305827281386, -0.8723761999890594, 0.8499053291161146, -2.2001270738812937, 1.0281183106168446, 0.5285120810709654, -0.37517571501177804, -0.03541673682685798, -0.08305936271580922, -0.22716009447635288, -0.31167705800258216, 1.4301984840146496, -1.7373102844099257, 0.81519575675562, -0.257572498628324, 1.6683071707938346, -0.18604818616247834, 1.0915498894402618, 0.5615760755231889, 2.916237806778004, 0.7899573879608386, 4.1503971837229345, 0.6557794328381652, 1.880038428175897, 2.4252473510671395, 3.2945219773323147, 2.3996812745065195, -1.5828507222038872, 2.3397304975268187, 0.31983671990363216, -1.8415506238013943, -0.30518393805684474, -0.7390849944761227, -0.49388083922675363, 1.7645072553269732, 0.4645134885698966, 0.3559003481793983, 0.16872867606872213, 0.2917900027700117, -0.9434170950207753, 0.6198017824001246, 1.8679448791356508, -0.1606113594045638, 0.14396467548502523, -0.5648447504405857, -0.38213593586845, 1.2288967005936668, 1.0937762207963828, -1.9303068087705944, 0.6066803085898523, 1.3559416735166552, 1.3162515060885112, 2.0073699607680555, 0.46158362203094533, -1.0380296076970745, -1.7804051756050965, 0.8860791680760627, -1.1394769555306172, -0.2954004368909715, 1.0197660477997117, 0.6846438181184505, 1.6820973483543955, -0.6016821174154986], [0.6115370611993662, 1.5977279050680164, 0.9019510232892795, -0.7757997745842994, 0.3716232973302138, -0.035306606840619134, -0.486496915458755, 0.9837351522837334, -0.34357393767153743, 1.5047398972433985, -0.9912539333545598, -0.16072013242032882, 0.3298347269821939, 1.4804089145815733, 0.5495850411335766, 1.2110450529571457, 0.3415242150806165, -0.6092080512436486, -0.2504164127709211, -1.3385620638559588, -1.7544321292632756, 0.8366852413806956, -0.3247391979794937, 1.1715006136125297, 0.9850361121876758, -0.9524128019184452, -0.5465064265434054, 1.1938232708838568, 0.6790536267205248, 1.6677448814890086, -1.246456396124703, -0.21901900057165882, 1.0301517641020348, 1.26615355063119, 0.08219637177113119, 0.43093537561737477, 1.145678157185331, -0.7696528814595115, -1.7068430783263138, 0.016632176149884006, -0.7219569391890952, -0.9544258475021189, 0.6280302914478433, -2.541929069542784, 1.3876813036268087, 0.6080356035180726, -0.9152628695418555, 1.2376707900312482, -0.8826070061231726, -1.8793804121861326, 1.2495506100205636, 0.8732936391527317, -1.0754585963665477, -0.17779111716866194, -0.09274307417940268, 0.11753003529285926, -0.19691692970495622, -0.22696837137748396, -0.4150265139183803, -0.03228435926282646, 1.1557524715880647, -0.3714188201651433, -1.6003931268973164, 1.2350808948867247, -0.7604250807599033, 0.7591803193645013, 1.853651606033096, -0.7471327062101196, 0.8716197593517478, 0.637066003254782, 1.4790716892455074, 0.32449188466535733, -0.3469234869484121, 0.21186364740955876, 1.1189275671933825, 2.236493822965347, 1.0977755941452993, 0.09938705754501127, 0.3973483448520218, -0.3907202242110853, 0.950953236205589, -0.5103369689663173, 0.5447884804282517, 0.6150991163277861, 0.9692176149455122, 0.6712424163780162, -0.8832691323265761, -2.1051642342836563, 0.5507446017680665, 0.12720776494914404, -0.1481953902195229, -0.9714154887862045, 0.7836309664271027, -1.3238268128914465, -0.21811010493032584, 1.4434826260552631, -0.6158634401402575, 1.0669780725512463, 