{"biases": [[[1.830734060216012], [-0.0339497630563967], [1.2321291703411943], [-2.194212053913725], [-1.4462875491693672], [5.993714516276324], [-1.1792447722584012], [2.6523130693792387], [1.0326940587974527], [-3.0138819258997973], [-2.2295212960512942], [-4.491080606565884], [-0.9665303631765855], [-0.2212985700105113], [0.12306833840379496], [0.3088591461136676], [1.157286948972788], [2.3818984683592914], [1.6960435181832954], [-1.7668189032078236], [-0.46690521324765555], [1.871904701220937], [1.614770063933204], [3.638999180673143], [-2.62339810690756], [3.512720395946567], [2.143207873725144], [-1.7550718962668261], [0.5384232870212651], [0.8770514639049982]], [[-4.805546223636552], [-3.034556431937826], [-1.6756918725875145], [-1.432239011924112], [-9.46231648159427], [-3.643662874220146], [-5.654322601471897], [-4.762884169919591], [-5.348924498224826], [-7.273171212078544]]], "weights": [[[1.383971556936162, 0.13274533973516778, 1.3774569086692041, 2.373512919877128, 1.1127453073780438, 0.7651941539378387, -0.2190711631616237, -0.9829753646944074, 0.12725559577946688, -1.736561472154838, -0.34157315089858664, -0.05802153286173009, -1.0231863231133378, -0.04920516752171129, 1.4361233855196383, -0.600224913951896, 0.897303626191931, 0.30648549827276905, -0.4912110901338159, -0.25608456041242783, 1.3239107366125877, 0.06272937851201514, -0.04802737777184766, -1.7369701135382412, 0.5594951589630688, -1.3980017454013753, -0.9827524591825015, -1.2927821485303534, -0.2853520273644319, -1.5170157837638583, 0.9118028622516617, 1.387232053637946, 0.7430584422068488, -1.147887472061855, 0.2876922747843233, 0.5849967648581669, 0.6785626702505985, -0.2320964380299079, 0.43174010340841945, -1.0536810796306217, -1.5408651926986507, -0.3820692610583225, -1.3065579513965297, 1.8840285363635976, -1.5860462003180658, -0.5294819028216169, -1.7312221968939618, -0.11358736555849974, 1.4202246959963505, -0.41651329876420634, 1.3593656914508305, -1.0238725838701421, -1.8415160197169065, 0.43224429238915396, -0.018352734757299642, 0.12259047388653517, 0.47631936981951306, 1.3090575742083186, -0.637635401694859, -0.034530471483273144, 0.7316743178551858, -0.6905441573226605, -0.2825113852617922, -0.7511562899488463, 0.4803721205889383, -0.8514399680341772, 2.402670058473162, -0.8868498560234296, -1.0849073576733783, 0.775118554060548, 1.80872331022312, -2.258186216847691, -2.4375852218533027, 0.24223617102959752, -1.6794523173452636, -0.4684567204718015, -1.0017033810886737, 0.9078187121462109, -0.3990057404671067, 0.8629509867565671, 0.9068274755677245, 1.5393408864197762, 0.020417358507207804, -0.5642332023540898, 0.2011968979795692, -1.2066488608051977, -0.4273058350666292, 0.2700655642511077, -0.07706128785422993, 0.11566983071147702, -1.326318884433463, -1.0601359521936904, -0.8339292376476534, 1.6248750038589113, -0.08604461058296299, 0.057240427622750924, 1.0104062261423536, 1.1306069689919183, 1.2326011632217027, -1.3228314210131957, -1.2114380032014642, -1.5054965928410613, 0.47616502888565504, -2.0216574125793336, -0.30572195357131565, 1.953481393327922, -0.41816887822339577, -0.5647768683967618, 0.23671924587233467, -0.1981123128917658, -1.3668640067683955, 0.5609903308543767, 1.043914781825213, 0.8623442349935545, 0.37178515587006833, -1.6393366251572101, 0.39771091949591864, -0.5830749471660257, -0.4134617931279016, -0.7235814580761017, -1.16272275696718, 0.046122841729481064, -0.03181827937944705, -1.8798759960030185, -1.1026181491389089, -0.3876967123694887, -3.2329241133336626, -2.4670446563030723, -3.588005834239464, -0.9581007239744689, -0.8383666047702657, 0.7093914487376506, -1.350461118711691, 1.4883816702692227, 2.055790922204975, 1.9497539775571038, -0.19677681494183472, 0.5710972081539382, 0.475307755010913, -1.2045360011306105, 0.8536547611849274, -1.1087464735452117, 0.5149245979951282, 0.0009382864981269509, 1.0506544453675526, -0.942671383199408, -0.2520511345332686, -0.3543663390371893, 0.17612991877839795, 1.5462759420286936, -0.10645847114705408, -0.6304573005947498, -2.171793946814356, -2.0834764742153187, -2.385898282566272, -1.555673175021417, -0.01335410363949056, -1.9565392455728734, 0.03420050353369531, -1.7541133401770597, -0.25534550207436796, -0.26769035093381655, 0.5377013889166018, 1.3866375685808017, 0.9147977277449219, 0.7135616716467013, -1.3652781561927685, 0.3245519437304433, -0.5307286680073591, -0.09969530815635284, 0.7580290264955278, 0.7710843774986281, -1.6699950799152612, 0.2829167303360995, 0.45238913810806564, -1.1345392282753606, 1.8530496261236844, 1.6320328492768212, -1.5815526033011065, 0.028581565753692858, -0.7172613606894511, -1.7007736668478783, 0.036409319170189657, -0.8644459830665526, 0.6755726495127028, 2.1668401114302958, -0.17999127426425465, 0.02056106860915742, -1.0493437871335805, 0.31622635421055406, -0.12426223135801838, -1.0611712675582279, -0.05921168147259107, 0.3573451541493487, 1.2543823683682556, 1.2571223564016991, -0.7303149831724771, 0.27252971424237216, 0.8331609025077104, 0.4197226440243614, 1.6694512796620695, 0.3430338202390328, -0.9225351712360493, 0.8727209321144793, -1.6212384823673596, 1.6672225075346714, 1.8229501720629422, 0.5663452962578137, 3.2806135576769724, -0.2855916486230172, -0.8328285448065486, -0.15797048878897912, 2.2619355051285903, 0.6990679145062884, -1.149647657920084, -1.1009271528109805, 0.08294979911905115, -1.024377277453529, -0.43608627059268457, -2.516520175967574, -1.726579782361101, -1.4101143768219135, 1.334461561351061, 0.3592107112943416, -0.5271809393761588, -0.28705958674835635, -0.5481676773153147, -0.8835233329057853, 2.0061803529145603, -0.032016096102439176, 1.9604953190403176, -0.043933396106016404, -0.9620659165421971, 1.7270579741172631, -0.11164863601138762, -0.51522625536129, -0.9285231582859618, -0.397483616231919, -0.7065817938026006, 0.8152247772202003, -0.8400318521827764, 0.13737479796640076, 0.7112413994235143, 0.0687741112110763, 0.01691606485317988, -1.6744228741520408, -0.12836562649596478, -0.3691697275181724, 1.5286251947649367, -1.1776978496589456, -0.22838620336740245, -0.04081051579651666, -0.11710799144800046, 0.6081086454071791, -1.0635461527264582, -0.24740656273635997, -2.609168326148034, 0.6684854407287506, -0.7390960661157305, -1.3998648173055344, 2.2781410022752566, 0.9474500519906826, 0.4103054798571297, -0.3055880412025725, 2.300952365457871, 0.7208994653671533, -1.1850466299633868, 1.3643981114052182, -1.224166965143133, 0.9801617170475657, 1.816424449274645, 1.884973320897714, -0.46007468637711535, 0.2427570821302695, 0.9101059234549933, -1.0348824043870513, -0.8909497696747785, -1.2676284225383856, -1.355133014193586, 0.586786404176293, 0.8027144491298579, 0.8773709836134461, 1.0896387392306783, 0.5345801017446097, -1.4829440617655023, -1.3474000871662564, -1.4322011670983636, -0.3466826024796451, -0.3801644133621591, 1.7530746331079032, 0.1079002345715721, 0.7059166021372925, 1.5217345296153555, 1.06310765070032, -3.6793763692001855, 0.7969698091078773, 0.8537569734630749, 0.25441918274534053, -0.29668309655662545, -0.03294679499253094, 0.3898074506757215, -0.04760695674103326, 0.7893211682159637, -2.526826389778503, -2.537828091565911, -1.3991250297968234, -0.8353610406921371, -0.8300070119130458, -1.6823608396049676, -2.7224186857997883, 0.9027029574176068, 0.5745391926433385, 1.7138274891476193, 0.4045440725682986, -0.4666334113713748, 0.26064430770714303, -2.0953559936126416, -1.1337065854586814, 0.2936418226391631, 0.7777180004756614, -0.7514786921912777, -1.9793331901545181, -2.657402033526574, 2.610814775099189, 1.385236965105475, 4.24077242947486, 1.6219109965194958, 1.6566030819500823, 0.6929316542826364, -0.5830891558373082, -2.3060793049830104, -2.3082546138967612, -0.8597902483610665, -0.6611913480075065, -1.75768893481625, 1.502265251814644, -0.9209404648268641, -0.36410760519572105, -0.4444606854237321, 0.36168295413264373, -0.04185388869413855, 0.08906619255577077, 1.2645662489442893, 2.0015865927256242, 1.0346164296343496, 0.006018829180474011, 0.4701930699308585, 1.721298480962935, -0.6215824227291553, -3.749459686269419, -0.6099674191230292, 3.08009147643386, 3.5097151087044045, 3.5586775754290167, 2.9821783656151264, 2.5159656748181756, -0.8168719181636411, 1.3657723954374896, -1.3308240524847401, -4.64437531986351, -2.8668033865017293, -1.1226055627253222, -0.12824524491487277, 0.4453773188667837, -2.0343758012481463, -0.30914658286513264, -0.6580205498815648, -0.3058537190269556, 1.957643603816351, -1.2490396823824583, -0.4948491756989556, 1.713401763015971, 1.3404402404988736, 0.2595925248027211, -0.09231760878090561, -0.26769376214889756, -3.87893324618119, -1.3760262657400206, 1.0938954377502528, 2.518251939217102, 0.0516084253512803, 1.9820315502235406, 0.8901120631021671, 3.0317770220892704, 2.7325407873491017, 1.748276983116263, -0.03278999860390254, -2.550013311628567, -2.1082042689183527, -0.6988285739004548, -0.8033040024757973, 2.781093840030489, 1.1460125336994247, -0.7302976139276219, -0.5159291930692529, 0.8068418706569653, 0.7995373938884003, 0.44745533886726657, 1.771682535417851, 1.8825554706419865, -1.3207154631581148, 1.1075346935369457, -1.7372523811443317, 0.4099882104662064, -3.776812875162724, 0.16691252729713704, 0.08562211483426364, 3.431590607226401, 3.2366850273572334, 2.4171576600234475, 1.0464396154009419, 3.503152790545502, 2.5894827752446727, 1.6909153351878963, 0.8461787563377399, -1.2175158688902843, -1.4222217230669343, 0.6209934415693872, 0.9734896924155865, 0.17944099140289993, -0.09633165110637913, 0.21862876677265058, -0.9525535626364006, -0.489088404129519, 0.9767665876782806, -0.6781116819218344, 0.6140212523570111, 2.204419961207927, 0.5644312043808349, -1.3243613739584958, -0.329037058316831, 0.39211455870491474, -1.6442827394005242, -0.6329608771544603, 0.5796555413080947, 2.1902289649576185, 2.0459240717908433, 2.256485542217759, 2.5745111431274057, 1.7557682212783683, 3.3821553771792, 3.8718053894434883, 0.5837835097617056, -1.6757975968784156, -2.0189617432380715, -0.7115369349374349, 0.7343634834841871, -1.467213379162164, -2.100714551356403, -0.11082252931878982, -0.5112136646782088, 0.8320667418713156, 0.6174946358167664, -1.258112524997044, 1.6659527486072907, 1.1906615402984027, -0.17550385474734934, -3.153955845725008, 1.2597541538692347, -2.0592261136633576, -0.9282989759657932, 0.6400892688569311, -0.154019849999683, 1.6197993203360583, 1.490615842459486, 1.2756539828825881, 2.901924796702554, 0.7177154517059554, 0.5189164812192272, -0.07082775890510504, 0.025792920358934834, 0.21836296962329388, -1.8369254119372211, -0.2778330232539948, -1.5682562438896657, 0.8277312774797688, -0.14174858411602523, 0.9039000558807929, 1.6117052182279816, -0.37012412681837137, -2.4950199007616516, -0.8552764193894725, 0.4452596237665885, 0.08283468967350469, 1.8381725999561027, 0.7987797261412481, -0.7237377542267359, -1.0852345592510977, -0.16812151296682964, -1.0369980847435174, 1.5072747755114266, -0.4384048308848007, 0.7933682550600276, 0.7614815978141087, 1.6649640477396546, -1.4607571068045995, -0.5009675412466105, -2.2862360421578356, -0.0911774600847138, -1.42725275972309, -0.11067783369375522, -1.5597666707760822, -0.11758474238659045, 0.00991550419084751, -0.40883382603722124, 0.37051540527934096, 0.7911308483990951, -0.6750527937524469, -0.9238144489243612, -0.8237731682406363, -1.7503520272826698, -0.3422466011112909, 1.237562827454018, 1.941778726643208, 0.07087844499477569, 0.7550159823354559, -0.4315290390087589, -0.2327396353946728, 1.5447261087407325, 1.6804433102921097, 0.16043423152292058, -0.15728937495069978, 0.5262608609994052, -0.5003070654162256, -1.559691343177728, -0.8439637908707832, -2.2953599861277136, -2.9557921049991904, -1.0532261624994912, 0.6183616179129382, -0.022315003115380615, -0.18535718214343008, -0.2799070653538941, -2.0072952626745972, 0.4349330956657194, -2.0666287165526898, -1.5667702086676336, -1.719602131453873, -1.237399241518697, -3.3893179989384805, -2.1143830153747665, -2.5518150188194175, -1.9860493706341784, -0.3480905314852925, 1.123896992295191, 1.349628356010265, 0.7295676716107485, 0.9004587936918615, -1.348383976537393, -1.7194211429518562, -1.670500945122693, -1.756595276349038, -3.913201005326206, -3.576562616340858, -4.134417244914076, -3.3075188028280738, 0.8110950838900615, -0.6146976348803626, -1.6525328779653028, 0.965694425496738, -0.24041834752321617, 0.6782369363493687, -0.3648096280763357, -1.729522719766639, -0.806812492187441, 0.36638021486585537, -2.1433208506057126, -3.9421715525635483, -2.7861644777599324, -5.32310963694318, -3.6975322077460833, -3.3579076177714993, -3.669164824647675, -1.8457002417477573, -0.2351868212402396, -3.9657013294835095, -0.9492509245947934, -2.0804794034097593, -4.217863367916644, -2.1484193825504456, -3.9503495012123975, -1.07933122167525, -3.142578265057539, -1.7343104859000869, 2.9837481469539737, -0.6639743141422771, 1.9171542676760147, -0.6168313466590425, 1.0892883541345786, -0.047679751975251136, -0.7327898156427681, -0.7622224525314389, -1.3864547829637703, -2.5689954409302946, -3.6013665605370497, -1.2881885999784428, -3.96963270104831, 0.5960844658311066, -4.376238007336404, -2.834572069657554, -2.5922287069636107, -3.2877596360763515, -3.2168652034097196, -1.809211315754831, 1.417998213307021, -2.2331517843063975, -2.5183315201607424, -2.5705519247140725, -2.798391034006852, -3.934072658905605, -0.973834714388913, -1.9796841286574063, 0.3737616584070275, -1.6865232226577982, 0.25786537033500684, 1.4851926647130742, 0.3592608584194233, -0.3384012927188372, 0.19741371640347502, 0.05308560163655597, -1.4407496084399138, -1.6598977382301954, -0.1415708698920841, -3.2332527775287625, -0.06276878146491427, -0.050391224491489264, -0.6320334195170787, -2.3693692403738504, -1.1614083038500238, -2.0037429379358893, -2.4638637336548017, -1.2643981268697098, -0.8767534768880791, -2.474163947773055, -0.33679254671242165, -1.3192511558035638, 1.0067203590119533, -2.406803817340948, 0.44332666687333366, 0.3866765988967882, 0.021393262116273376, -0.8697735879229717, -0.4555217050420913, -0.7742569041942258, 0.4763450314887965, 1.25651511354977, 1.4486294885293167, 0.4816434454611093, -1.75317081811259, 1.2332724400611292, 1.4507852731704534, -0.1000260851755469, -0.30202365500635636, -1.408341645047867, -0.10228344208573632, -2.974356736077568, -2.9389561489799796, -1.0331889540768713, -1.3749297965872815, -2.1104263088283863, -3.327559079858851, -2.2994964822566732, -2.1938517138183955, -0.9340852382119078, -0.9570962448502481, 0.17387262728631692, 0.4475654994859526, -0.08574963402164563, -1.0453818913625064, 0.1260033318916902, -0.5481233997798045, 0.4824547352622111, 0.6845647519609085, 1.3548436763501623, -0.6913047298961905, 1.3118384875045797, 0.1643264607816113, 2.27889558927438, 1.8381102681460049, -0.47931644512793065, 0.6144882255425855, -0.8089503972663885, 0.7867579079747576, -0.9774376438791422, -1.5190578714538838, -2.3451601537225457, -3.416953867594729, -3.2126041010358892, -2.9768764665045717, -0.5652081756196334, -2.4861553844150226, -1.7587409224363757, 0.6232775554718628, -0.9696296648910497, -1.3188075116891793, 1.071326340279971, -0.03840758679516052, -0.23318122618666562, 2.158421760528869, -0.17445966384186645, 1.3696780113748916, 1.5648241903421214, -0.6419145049232367, 1.0166704438141592, 2.1128399443464803, 0.5808709638128792, 0.22262632722858244, 1.9115011790768424, -1.2348728981137471, -1.4286400782739377, -0.9524333532080526, -0.6013029406944718, 1.2516476527857507, 0.3209722241667419, 2.2560487215595515, -1.217896931639568, -0.374101685513032, 1.127689269360167, 0.8089035467261253, 1.2351197967694771, 0.9835604266918431, 1.9972207479767383, 2.1335800924253427, 0.29121727180926943, -0.06658355145441967, -0.8222581362639728, 1.4578141329327186, 0.5211214110620461, 0.6042167111455157, 0.5887724123544343, -0.1868950458551342, 0.23087361172495435, 0.9932626129746598, -0.4209619365420036, 0.6831941344806955, 1.941996334870547, 1.2740696841110999, 1.0335846668987625, 1.1848591248664753, 1.2927106911226176, -0.9726259265442927, 0.8267694821015492, 0.9391497021615218, 0.10811832207761485, 1.0402506757715793, 0.19162013643780265, 1.6379144494357782, 0.8646605870855204, 1.476023546677209, 1.4951173621241205, 1.1199911738700548, -0.2640408136650757, 0.3721904418562156, -0.03112814989547393, 0.23034440887525107, 0.08021502897228688, -0.6342375618207852, 0.5151495273883324, 0.04611457476592154, 0.32744738126307116, -0.32120394901829896, 0.23930215743750338, 0.7818344059933005, -1.1570048638611425, 1.1392688872337695, -0.8513332511859945, -1.1260445125797234, -1.1361259039665665, -1.5060187579343682, 2.198652847835841, 0.8091122037172552, -0.5928085966110247, 1.034273942309018, 0.26568872011423283, 1.5056595525855612, 1.2387089421642061, 1.8910826788981148, -0.051218601996421476, -0.044404180637312066, -0.563185497048106, -1.668500401344076, -0.0090863375708076, 2.0594917102740853, -0.03831786891018157], [0.7310408254159259, 2.2575895789857583, -0.00035756559904926593, 0.060307324968721, -1.2114902177827216, -1.2273803840699544, -0.7879816500461199, 0.9322741005724203, 0.50156748880266, 0.8596081967163803, 0.05203371239184454, -0.7658555442502885, -1.652248664845735, 0.8320387070265963, 2.1014432316260394, 0.9961913194537612, -0.6129550379314773, -0.1322865283194408, -0.405888209876875, -0.062446243095534405, -1.1461726555515441, 0.8085965838240715, -0.24426372736890214, -0.8403171972107712, 1.4215858789164557, -0.4934637563737712, 0.29833625378198203, 0.7841149596868281, -0.565313359245866, 0.2728593637033955, 1.4450839030635727, 1.276690455298682, -0.004518691592589985, 1.5497891309933618, 0.3447677950943269, 0.3569032615379297, 1.9624081719417568, -0.5689242402131123, 0.5210148396674787, 0.5044967632232973, 0.7694127941547455, 0.18259350717557124, -0.19027671723243408, 0.9217134907277402, 0.334446913091099, -0.19790263561811364, 0.34873355914797743, 0.53304646545891, 0.5117140862539271, -0.4178741450120515, -0.2131871044086768, 0.27963839703025695, 0.7666753345018996, 0.4445714486472334, -0.7878970199474575, 0.7189481867876092, -0.5164742899189074, 1.2883172031172418, -1.0756829475104233, 0.035015779062654476, 0.2571720541167999, 0.7806709929942719, -1.054776951789035, -0.39580628475412516, 0.2683518638628862, 1.6362694176766774, -0.2547792488842767, -0.15513726232479205, -1.757444605956259, -2.301094227654115, -1.2438727323193148, -0.9846805159820496, -0.02049705276105674, -0.2913279921595017, 0.8738928057891011, 1.2745091473727062, 0.34142514518480044, -1.0196368112659109, -0.3368215429272386, 0.399773771144231, 1.4208968961354584, -1.2976087220412256, 1.1098527457976728, 0.1786128287983452, 0.1781383688810874, -0.09121282852525722, 1.4579948438828887, -1.0082674257021988, -1.6964205622383455, 0.16394900111626615, -1.3022603316084322, -0.37618166790846386, -0.033049195584413514, -0.7688855607388216, -0.8327244159813069, -1.377659197091872, -1.797112906353508, -3.80144296606149, -1.337876691078975, -2.3807953694557398, -2.682495608078486, -1.7464670581986752, -0.2058342689369265, 0.71053517719876, -0.2081377651077544, 0.8311065840639721, -0.3402337560095396, -2.011113076150166, 2.4628850156450124, -0.08245356286378035, -0.9043622539266765, 0.9969414290947032, -0.6975206056510794, -0.316167739800995, 0.15703725412078393, 0.01123277850094448, 0.10535808832908632, 0.4385490495470368, -1.3731318736925746, -0.8121848023232335, -1.5692400011521364, -0.31323085972405357, -1.2607578347973225, -0.689528926959477, -2.4481863225639056, -3.1050396236742337, -1.6223204381048595, -1.6573826077902394, -0.3085076768494445, -0.4499660334871423, -0.02140512641907064, -0.7904585486149136, -0.19097013538240593, 0.6360961442380785, 0.6072729315180206, 0.663689730721678, 1.4539175226106325, 0.18843551197756295, 0.24318960572578857, -0.9771983392215055, -0.8766848504212739, -0.9569677027541076, -0.6386373820970018, -2.2579573971947315, -2.6620898892590232, -1.6334013218106362, -1.75776115373241, -0.8209731504754543, 1.303928246168142, -0.5944227352070031, -1.3028167406563154, -2.517695068494814, -3.2634188336282732, -3.4582575468443832, -0.7836734059825757, -0.9690610451648447, -0.6035336430618433, -0.14141722976138985, -1.5273277066500783, -2.2378047173179456, 0.8869337223994178, 1.3735598126365445, -0.3311459812519755, 1.026960324846049, 0.09338463672452982, -0.9313426750178848, -0.9952892008945995, 0.29277040553965306, 1.482432927461424, -0.3787763502858412, 0.49500738646499337, 0.9425503438968241, 0.6226598523366509, 0.0801184914513526, 0.3942747322588044, 1.2186812565504745, 0.15975689259642223, -1.4867612546841529, -1.6679349242357044, -0.6625727299778557, -4.739420610504785, -2.519373165629507, -1.074019826317718, 0.5057804233559295, -2.9528302309489147, -1.0427555205106327, -0.7997104830879358, -0.24476239108664405, -0.797985220355644, 0.1191119581778002, 2.5000431982895805, 1.0619611289336712, -0.95740103128072, 0.6696302486984839, -0.727844090485122, 1.1769853191019797, 0.08760751329015935, -2.2440789767463043, 0.5501552617889129, 0.37239232957603874, -1.7574915578320836, 0.4363376221923122, -0.6818909981888708, 0.44514489329500956, -1.0426429631334526, -0.16936274961661366, -1.9906594449839696, -3.2175063051079533, -3.196916501059455, -0.41255582423966747, -0.9132891385562119, -0.1638530373135685, -1.0645885192710853, -0.4081047221237781, -0.9009743148712854, 0.2655226728255071, 0.04052741432010123, -0.5658621806834097, -0.4603217112069076, 1.3687092380216193, 0.6156143041359342, 0.3590856927739966, -0.4129485848253171, 1.1567779778070837, 0.5054862593795666, 1.291860777853606, -0.8624110415043778, 0.33258400068007576, -1.3430272467274782, -0.33596085632527506, 0.8439327803308044, -0.3020968392806416, -2.0957971808557185, -0.9377185749803012, -0.7753162799342117, -4.424859012597228, -4.215583553228782, -0.8495544383601288, -0.9383781413630249, 0.8726639068320383, -0.5253400762101386, 1.6548177437453007, 0.22114468546764723, -0.21039782412761993, 1.5558444052816325, 1.3510264135056387, -0.20816996203050006, -0.3668537678018422, 2.7519439745482432, 0.38446348250409806, 0.2987225049516243, 0.25442101785654486, -0.8710955794099735, 1.1740917762921255, -1.1380367954333153, -0.7624324843596012, 1.2719019337183841, 1.0152040867012146, 0.2895025875231909, 0.1631887115732343, -0.3852447662995386, 0.40513341070696784, 0.21370727266931408, -1.877539156948626, -3.790739502902365, 0.8865463263409642, -1.6247453299814802, 1.674831414611641, 3.311326709883183, 1.2374457042615752, -0.1410651645202949, -0.18733701613929363, -2.1677981157650743, -0.1994736922632085, 0.4172614139601976, -1.3795089634881295, 1.8927618215618438, 1.7674387182300215, 1.3365777460134325, -0.3321776633770624, -0.1576862423795451, 1.0817461477081385, -0.7595679072144231, -1.249359495330181, 0.4361673844109408, 0.9106942804883951, -0.9090697778025628, -0.9064626309218501, -0.876559951646963, -1.7306555826673027, -1.7223084013530545, -2.5850128749677794, -0.2770544476614107, 0.18933379531212724, 1.0216960461337727, 0.7819666592204875, 0.8212860125188983, -0.2621525422898474, 0.24825816915279972, 1.1864862246338168, -2.7544852356404896, -0.6090382897794228, 2.194670217540429, 0.7967822343243038, 4.231565102294626, 3.4053967180673173, 0.08233071099552217, -2.064343568151112, 0.6413906414765128, -1.0501876887074801, -1.0938564407056004, 1.1665282609505274, 0.04202628487934469, 1.3639628186529198, -1.539795843899627, -1.2576913110233379, -0.16555194924697242, -0.8240647212200923, 1.494825973963924, -3.356714620723411, -0.8587989950505005, 0.21316123450691188, -0.37876682486659613, -0.33236847913196993, 0.9635879715231983, -2.0993054839426764, -0.3068482499520295, -0.7761063904119712, 0.05441259736803002, 0.8700421883907089, 0.8725991881048012, 2.1932842760693942, -0.4217619949520233, 1.1112187212135598, -0.3541203961308478, -0.09593101380576041, -0.3687707800544279, 0.6867310331483354, 1.4128142628187748, 0.9678465658171526, 1.8223828612299753, 0.8374774137427811, 0.4269841420297093, -0.5678898138021539, 0.5162064636088302, 0.18188372533778463, -2.4043813267199146, -1.193165659136829, 0.7054928576116648, 0.5073354424750169, 0.7580009930443968, -0.5004548601997372, -1.0313242668621734, -2.2779432679779714, -0.9070321240182125, -2.7968543886825374, -2.1036602464913914, -2.799671763587646, -1.8824140620413565, -2.510495859052467, -0.001522973351477021, -1.0383842158801715, -0.6256263437270531, 0.361549202523602, 0.8044427113573587, 0.0841125334261887, 1.182293968382755, -1.4880862648744884, -0.966344984209686, 0.601324057190821, 0.15193731348365852, -0.08879274489951698, -1.8749697014058122, 0.00868212928961888, -1.318137926483652, 0.7558267763314026, 1.7416497690561314, 0.460944178984272, 0.79197626553791, -0.279719852604478, 0.49477316880005395, -1.288388065004779, -0.14762611688888586, -2.630532035225444, -2.0585648057564194, -1.3728248623244697, -1.0063503724983593, -2.124844425109108, -0.3057343382048518, -0.16974593843800395, 0.13236020370461613, -1.5948191194272536, -1.5453068891080248, -1.131958767060681, -0.07132517751999343, -1.265607829130343, 1.507992789682885, -0.13147744237320927, -1.750653386015588, -0.6801890285286503, -0.3644939584802423, 0.5923309921411414, -1.365901572805087, -0.9079316897194682, 2.02575497329801, 0.0532020741192912, 1.431165237309935, -2.25800800729142, 0.21198857003458996, 0.6704071058862391, -0.5880861010167667, -1.3439671286125225, -3.0326746248137852, -2.7165797801111884, -2.075998849069047, -0.5199817373730771, 1.0193861801515973, 0.24382333540747092, -0.6245513058759771, 0.08708869373724659, -0.4592003478203654, 0.8212999916919337, -1.6065151684373264, 0.13324513788623396, 1.684209791851773, -0.3876351284106511, -0.8697329785794914, -1.079325510584164, -1.7445086715119456, 2.0468839499623184, -0.4395337637096368, -0.06632427999837452, 0.5184577778353773, 1.060931187638447, 0.08264164396289314, -2.3980611318109255, 0.42100499822696, 0.07173590503993632, 2.001882987139993, -0.6285624148367991, -2.1866637896837737, -1.2398351466474313, -1.4451118423406686, -1.2033571325338213, -0.29296895078220986, 1.319174961554156, 0.5192218648669638, 0.20457559859918503, -0.7843460493957771, -2.106974467316258, 0.6979972715973173, -0.22371288527883004, 1.160028470420761, -1.0034452567645484, -0.07232236010737549, -1.220182558083143, -1.7962379009337184, -1.8143308081659362, -0.9150284760429587, -0.7121991828312111, 0.16688893238023517, 0.6949444211249284, 0.26203915026458463, -0.19897624029344618, -0.33683286451665795, -0.7405696863370655, 1.0925496495344318, -0.048983361572810094, -2.9439206775453037, -2.125721425149436, -0.04614983038313001, -1.155120645228908, 0.3583453074342516, -0.4730662750605285, 1.0127818932591277, 0.11647562485026497, 1.3262749601706378, 1.270724767689057, -0.45941204065230185, 2.2305216846965905, -0.1948784013804435, -0.48681091421529543, 0.6100220751659847, -0.8628407912926779, -0.07331114999351909, 0.3027710251931801, -0.025417043062592008, -0.1947448829477136, -0.30762165415157483, 1.5248002589487588, 0.584768409288034, -1.097776149009322, 1.0970472743836976, -0.3994932305359484, 1.1904606209911437, -1.3668322196977531, 0.40620998124656194, -0.23635778036796046, -0.16269133970293315, -0.28495361950845316, 0.3610469341969575, 0.8790637528677213, 0.9158261369560757, 0.09250321997883934, -0.7998670816258707, 0.7653429472379006, -0.7894190986024834, -0.24100764981308348, 1.280283160751788, -0.5279259171748644, -1.3518708276077327, -0.5940242335126925, 0.6123537114865226, 0.5508383705148818, 0.3931906401585178, -1.0389507476698179, 0.9181526389256497, 0.5145977474831521, -1.1834535437678844, 0.9746180843313891, 1.1786550233688529, -0.04313517455286201, 2.8435680901999696, 1.5568367895948405, -2.8259245463563833, 1.4587910942080273, -1.071416909578921, -1.3416441450332846, -0.28634935244416054, 0.47034422588995584, 0.558426042338468, 0.6773348350879687, -0.09402317147794186, -0.3647498055066374, -1.7102325913297758, -1.9418518551966275, -0.21898171129084398, -0.8321449519796305, -0.15626562341901215, -0.004537677556898965, 0.509548330038207, -0.15969785518629326, -0.5763629581339277, 1.3314509793812432, 2.8554497361339726, 0.5220829323160381, 0.9610283295503984, 0.054885439622352594, 2.809417648743645, -0.12634126191551812, 0.7756666653332838, 0.05683971710947679, -2.1784036295901963, -0.7852616856265107, -1.2191777722180195, -0.6839564602591598, -0.3583101509438499, -0.46122178130463437, -0.42305769726078857, -0.5036300611072447, 0.42533040547486145, -0.4693787353572814, -0.36918821988082323, -1.9298407053441682, -2.263041778678926, 0.38275045827733195, -0.11707019100606925, 0.7120110007160148, 0.4820969239023156, -0.4709284237263421, 1.3407658630225479, 0.6551562526967607, 0.7150746886981788, -0.4047071948997654, 0.8119224631814533, 1.0008259715623038, -2.533691172802798, -0.9321779050160328, -0.05141980008861649, -0.9137847135166075, -1.773169393921732, 0.2372564079661066, 0.14318833768729386, -0.3949358257137566, -1.6906861655296492, -0.4148746919233259, 1.1528391201601773, 0.5830290767564889, -3.5147287626883315, 0.07900399401641586, 0.6149946490515276, 0.13398863004024433, -0.6042981640499752, -0.45956511357451824, 1.39696067813209, 1.7121122160105742, 0.03751602191775857, -0.09011540608915826, -0.1059816302918912, 0.5076649137482029, 1.0296640581030734, -0.5803687988823172, -0.0635286360081094, 0.03932409441033692, -0.11520237940321149, -1.0216147250553327, 0.33675117011972167, -2.3220285412323194, -0.04282113260137851, 0.09972397878787603, -0.6466939817548291, -0.8448002225361108, 0.28913139665088833, 1.3361204838434877, -0.531521734265831, -1.426587641640806, -0.14582144859981222, 0.4885104040004283, -0.5190463410145926, 0.4693829791386229, -0.059839268570682155, 0.8020631726900695, 0.284248507102398, 0.7996913496258213, 0.056293692481472604, 1.9052043174437767, 0.7775455085338573, -1.8486046649888892, -0.890920134643632, 1.0548840563565116, -0.045089596315061424, 0.555284995111582, 0.05835675558847488, -2.2828933822841764, -0.9063478354998271, 0.43339618396607066, -1.6815473575258204, 0.2568553430193469, 0.45558584956393855, -0.008185399188734033, -1.6387201203591757, 0.3979817434697034, 0.9236213394442105, 0.6905927629501064, 0.8732025792049736, -1.2765428345983603, -0.853128413239566, 1.4075137285049462, -0.8197701093331975, 0.8106451373813349, -1.5285078835862973, -0.9896098251224474, 0.3021037267489952, -1.1413355238100567, 0.6763218474612152, 0.2938635626033755, 2.0934705864314185, 1.6283923690892748, 0.1684320911210248, -0.09419696376509094, 0.9634242682151329, -0.2731531855550984, -1.123907742623281, -0.581253739927217, -0.7424881179709838, 0.10149927112903216, -0.5529319654472302, 0.3984490200538149, -0.38038465967608276, -0.5261129055789461, -0.4087423149253498, 0.21986737584644092, -0.9064296016870864, 0.0014458651939007149, 0.3030957281429843, 1.5700475555256013, 0.5624231799695947, -1.5270502933565495, 0.6965040916962091, 0.586149934888212, -0.5829840006806322, 0.8353513366442086, 0.12757482241133472, -0.6424679218675773, -2.4185862901065547, 0.3106401105805411, -0.6846751689774766, -0.7174432770481957, -0.8919792342189847, 1.2108460118477913, -0.7944906509417294, -1.892069484833905, 2.0462836165313663, -0.7616221329555916, 1.593324992848662, 0.5849969124466633, 0.07345643271517108, 1.3437405166959306, -0.5978733581985636, -0.2340521787104967, 0.4893226880413075, 0.14679888488197526, 0.5941871779036687, 0.9335653676686297, 1.6452394806966675, -0.9545464783348995, -0.19145140300823563, -0.20670018148026748, 0.8621100423098413, 0.7316714702265483, -2.2256534295616994, -0.6974920918795912, 0.6872128049146282, -1.8727066473076037, -0.8744700537133718, 0.004229932896988382, -0.076559770716268, -0.5216121004466103, -1.749617003545303, 0.7464932235426237, 0.32314136349226597, 1.543365901985457, -0.7637629148400632, -1.2094841795503564, -1.1526438564012267, 0.906696152178219, 1.1874596270394306, -0.6102545822565277, 1.3867163832126403, -0.07165154219274246, -2.1402957742834765, 0.9528321798349554, -0.4498575449613056, 0.5206653967136308, 0.006459940344535892, -0.8319386382330075, 0.2644050321901743, 0.14299735560680005, -1.3244857578217868, 1.4534997320430276, -0.3759583490321442, -1.1026100312960267, -2.431004258993928, 0.4955130374182118, -0.10619079872109634, -0.7888569497706569, -0.29066222359260746, 0.422045938011177, 0.7791127230533076, -0.14164441940256078, -1.770658743173875, -1.1402459076557427, -2.006660868654332, 1.4597214025411906, 0.005349329265286849, -0.10547558994849611, -0.10979689450087889, -1.119100756658248, 0.28286345514062033, 0.8186087484417149, 0.7205399743853882, -0.8141199750718959, 0.6279101016674489, -0.7700789478938599, -2.4493343726403265, -2.445878055670648, 0.5074843513684084, 1.861609450859973, 0.8129693128978002, 2.1465909886262695, -1.2629713460508372, -0.6516875208059093, -0.2939753743030367, -1.254047523112321, -0.08799772422098373, -0.533657227511649, 0.12115151242964664, 0.9355711270103995, 0.4950593281178432, 0.3367150430495685, 0.7981462539932089, 0.11491218855718581, 0.8042447328133515, -2.329409513539539], [1.0616873643081377, -0.6345244205184744, 0.2846376361051896, -0.00036829756895574717, -1.2221690376294654, -0.5577487962912943, 0.8512743759672059, -0.41638377735666404, 0.23059693278789356, -0.7472473868517642, 1.6966967766425447, -0.9723859829888125, 1.73367241163925, 0.0500978340413915, 0.7165564044867215, 1.5993140492457423, 0.6793485598390168, 0.6783684569906692, 1.3311533659776276, -1.3635166217974795, 1.241445746979035, -0.2924475284943582, -0.7705950855491925, 0.5020534098277494, 0.8480237284142763, 0.3905015819665764, -1.3563258057229124, -0.6303039785663235, -0.35502736732089624, 0.1775432852771322, 0.565604298285801, -0.38208056406936336, 1.1592921964336205, -2.367948789195876, 2.145881318729732, -0.5557550049280374, 0.001513700132942789, -0.32183058550657845, -0.018525815374954686, -0.27010307420864355, -0.6511074471127527, 0.12841461957201436, -0.058084039279928674, -0.47927603889160375, -1.19742954886774, -2.9577739668871823, 1.7177124529787955, -1.207898355788162, 0.34692040741822183, -0.006119143419500398, -0.07629610549306708, 0.6687182080315659, -1.7006362003210593, -0.7538063472518406, 0.915354771089821, -0.445983972716554, 0.41620367796617574, 0.012853672524038719, 0.26732566032856464, -1.3766758009760294, -0.16130926264394033, -0.14809600735652878, 0.9052478341449165, -1.68724242970774, -0.2659927621541343, 1.413358301260424, -0.05233172925913283, -1.604234449281332, -0.8581968333838399, -1.1320634390747706, -0.8557364553556899, -0.9389769767563605, -1.2096047279357363, 0.318621787649933, -0.21870446897796428, 0.5427945882745633, -0.010427241227084804, -0.48968558822407615, 0.017025899680800937, 0.41112607783649885, 0.17929583832323442, -0.2130867822106313, 0.03456449979794153, -1.164991363326576, 1.54051043356222, 0.9355698027105145, 0.9418071293681515, 0.35172503076182837, -0.7883623754975804, 1.5360097998182782, -0.23628676851937558, 0.21162782046540365, 0.19404193463743277, -0.04477539025849518, 2.1426295270871343, -0.1511022343604688, 0.4239410452197336, -0.5566089882820355, -0.4791014525482734, 0.30289457574881673, -0.5576766922493361, -1.1620477651370904, -0.5158139871150867, -1.464128540324732, -1.3202259161107808, -0.4520441964645849, -0.3086218964897573, -1.447619169944608, -0.5061632809264489, 0.6672412016387995, 0.17224570254914004, -0.5850660746365434, -1.322070285709391, -1.1173187869453278, 0.24290620286972514, -0.3641962371706081, 0.9539483878714183, -0.2688049931374051, 0.6249511159463026, 1.8978862545958455, 0.18133873749995258, 1.9417595040899285, -0.4938822651902814, 2.1600807174519443, 1.3251137595850826, 1.3873498608325818, 0.727270632948489, 0.32550522008610083, -0.5089691481052063, 0.6593657877366091, 1.2540263495970934, 0.5529224953795124, 1.4977174961562991, -0.6241293552720919, 0.0013762269509131396, 0.2991160353386863, 0.38963322170638603, -0.015070005943124343, 0.25408174369491454, 2.678390762367834, -0.47172982342557, -0.11807638690874504, 0.054994402081454424, -0.7881922421672365, 0.514718772887185, 2.12463105757003, 0.40728944861805816, -0.8614570484716348, 1.1762397966527902, 0.6976844050779725, -0.9825043829182116, 1.0949320826914473, 0.8898848093896441, 1.3367274466377719, 1.94770613842866, 3.1090270471327055, 1.435687173178885, 0.3182514452219249, -0.48340021948506784, 1.1557806238047392, -1.731331174792309, -1.184477623787471, -0.4887511909725254, 0.6493074578652163, 0.3740890205510172, -1.7250468474618892, 0.4239308095569461, 0.03435425372043092, 1.1321368573783581, -1.8988480217606403, -0.11321510364198284, 0.5340330970726044, 0.21874051164578334, -2.5657416040702152, 1.2523448178499161, 2.2835522469874396, 0.9972541937797214, 1.2525778373153131, -0.22019507487489853, 0.8362136238628287, -0.5003905970233766, -0.01831326694168268, -1.6436173254674513, 0.2611123633307798, -0.5252955847554922, -0.2908708225987775, -1.1994885617779947, -0.6171589754363871, -0.8591061875453738, 1.4043922994033788, 1.8754610530049067, -0.23205249857347449, -0.12937847257203478, 1.4677750203466025, 0.8044992596563496, 1.4417430376159783, -0.2321621290250593, 0.2854233027524532, 0.03948974689699094, -0.27072915605253933, -0.447651244756051, 3.1118699583127483, 0.6331895356805511, 1.0515825430092633, 0.15223475884802176, -0.9738925499064558, 0.09775830758426457, 0.8788095959052075, 0.5867713602954798, 0.2177684508643978, -1.996593824504675, -0.8050559790099464, -1.84330004869097, -1.754550221033387, -0.6601297853620681, -1.1171193495099974, -1.674079368650039, -1.1419877478348255, -1.6577178287296166, -1.4772724588230808, -1.1483468506857444, -0.9155934318881019, 0.42099675375856127, -0.14108848288221065, -1.7224750876474884, -1.4295297984591764, 0.1371779206967446, 0.16988891211811094, 0.15984614503039213, 1.3712422498300603, -1.3081249050678367, -0.5651709489378297, 0.9886555490322321, -0.8823734996440594, 1.413911398575843, -0.7881880417220223, -0.568971793454856, -0.8729659341138593, -0.2783753592978687, 0.4627078755968377, 1.0757439436253082, -2.23041644331673, 0.9111212602825268, -3.3454661843033744, -0.6295256796427209, -2.166162387520393, 0.6875871274714839, 0.5853762049249395, 1.4063088544268325, -0.10505695962563381, -0.6503657840563094, -0.5056896637364638, 2.498613649737613, 0.8127104372350282, -1.7168537591678046, 1.014198485970156, 0.7859842044800172, 0.9334783962638173, 2.175495088035857, -0.15899656677148413, 1.415588228725237, 0.7469821356178369, 0.7885592304223294, -2.465699570108216, -0.4485939079789175, -0.7994398265133196, 0.39373446149885527, 0.2046879221914154, 0.9571650708789134, 4.372167034870189, 2.607350495737929, 4.332244764511572, 4.7388734058849105, 2.8175954493754434, 3.834042900432759, 2.230103123509767, 0.6887991870753494, 2.9435987058117807, 0.5496040010053206, 1.5085529291928688, 0.9555990509488983, -1.1667868651860474, -0.3050924348262148, -1.3619607081237866, 0.23510794573800192, -0.07082000232464689, 1.4777614516185582, -1.6743445301291726, 0.8369588899141442, -1.408219092645819, 0.5097452358184895, -1.3032638972335369, 1.0744044365472432, 0.22127102785525415, 0.5378012186854735, 0.5839939182901307, 1.671930630848866, 6.470681051198533, 4.475879250491026, 6.176514134383388, 5.1194703207949885, 4.132966538016356, 3.8477133859748776, 4.149692673631306, 3.363025199104355, 1.1851481271787963, 0.6494492921595856, 0.43321328675975457, -0.5581933845811917, -0.1158129923762322, 0.4790481251903123, -0.908787188664773, -0.6546393716197422, 1.5493598625795422, -1.510252339840002, -2.0954238362609163, 0.08230505640072841, 0.7426765849532794, 1.1876417402990374, 2.262102953123988, 1.2458695837380718, 1.7193154599380729, 1.2889892713330875, -0.3501086641128687, -0.27873958615152233, 1.7620877572214768, 1.3087950499716599, 1.9860831572963469, 2.007363734342215, 3.233053706122149, 1.6784706477739333, 1.815991533227765, 2.924802013231126, 1.4696808708657876, 0.18999471266786638, -1.6388451964891912, -0.994443812949773, 1.0269590639709405, 2.1437694963218217, -0.5820939774176996, -2.2775840536383156, -2.1624809489695105, 0.1626720000584665, 0.3658414245724923, 0.867543410828127, -0.17293911216179692, 0.5570867174159244, 0.6532460142057507, 1.7889142543420442, 1.4975782556855444, 0.5342237571417476, -0.3190297545857893, -0.6006368139067947, -0.018337218221956515, 0.057089854292748, -0.7657750709019772, 0.02846123644344117, 1.0328131872448387, 1.1493103749587676, 2.453680324071613, 1.4815432576464294, 0.22372993953385958, -0.352172580135505, -1.214971093275806, 0.64113342841974, 1.4193263692573599, -1.1511823645638573, -0.11969604070400537, -1.975353939948353, 0.7408556546235247, 0.792393990638244, -1.2115999946536655, 0.6582874844899917, 0.29322817741353363, -1.1084574006242733, 1.1543126435781552, 0.21580623244752328, -0.5164628462514385, -2.431776594523523, -0.6551898732188611, -0.067551245047819, -0.7161645403209382, -0.8758448051884257, -1.6202127466530611, 0.6114621359487736, 0.31964006147174806, -0.19383739607972067, 1.7282071621114983, -0.39897346199714917, 1.5512080412333888, -1.382640319045641, -1.4160954584814622, -2.1210930641584342, 0.06611252467779614, 2.413227337347301, -0.05400294577178797, 0.08913128585162639, -1.2955368298644756, 0.30982715615111145, -0.5946568199291425, -1.3586790188937894, -0.40359897382635146, -0.22354546628261335, -1.3028053081940965, -0.2467207796821133, -0.29173169521915593, -0.12154417745246275, 0.22686225096753987, -0.47842086808062845, 0.1992212211878917, -0.7044916323688901, 1.0343882325496223, -1.2918524588435487, -0.17369859009743382, -0.32529957657425734, -0.44245656265109007, 0.6209537055625199, -1.8189593173141902, -0.49077830222780483, 1.3945879254213225, 0.6994029256432179, 0.739171214990802, -0.6236750726192164, -1.4679578694062245, 0.47709922568970636, 0.9107399154536706, -0.23079704568810788, 0.7221045214417285, 1.2551373067222997, -0.031175513776826463, -2.266704667190712, 0.1860607861563152, 0.8599965281909915, 1.5670350928427308, -0.7333877988764441, -0.1820996186209007, 0.5268363111975529, -0.6962734073571731, -0.24627166672797152, 1.3620025497995565, -1.5928373945103063, 0.6335770528741262, 0.9102581301952346, -0.22017367993293996, -0.941759166577456, -2.302437428975636, 0.5468645855300491, -0.1251701106577816, 0.4566233556522862, 0.8539536013889745, -0.6569540915102168, 2.1442282220504856, -2.4879681548400074, 0.8663258940584163, -0.8953299207409565, -0.021013293582393032, -0.9983566150480857, -0.2026886247865152, 0.5110945743345731, -0.6044104105885713, 0.9793709635622514, 0.6518788767713881, -1.3571421181988872, -1.3309797177382658, -1.6478575024689046, -1.2770859223202793, -1.1582157032658706, -2.0155943192918633, 2.3649075749392994, -0.6058185561737056, -0.8429594925400322, -1.7469508097484205, -0.1557979813506358, -1.219879315839871, -2.486614281939349, 0.7922723844117878, -1.359162137155681, -1.1892052342326616, -1.6725944851953636, -0.12483433152387244, 0.5321943540747269, 0.7945678431939392, 0.033684742907761994, -1.6271900223745042, 0.35880516356774195, 0.31706677351562124, 0.005979464732845988, 0.14871650128595093, -1.3256018385138046, -1.5313444122072772, 0.45036601539257515, -0.6446057766999933, -0.5359235160399456, -0.16013997717544975, -0.39942453386275867, 0.4955279433296595, -0.2702557366112812, -0.17938098152408946, 0.676121459302944, 0.881074003823482, 0.17836356247285678, 1.0614731980105458, 0.017753279750552124, -1.9179614954312159, -2.8277898309943996, -1.4413409215319108, -0.22238978578295418, -1.1199008635447305, -1.122018205091504, -0.1360587650476648, 0.3791488984863226, -1.120526390669878, -0.40398906062886764, 0.21431315543503623, 0.20793631338684415, -0.589510989656915, -0.803166936659969, -1.0831743656189585, -1.0192179733404998, -1.9720894735210666, 0.6456113450908283, 0.47119508023466017, -0.07001346932470079, -0.027379598855848827, 0.3790912511795019, -0.5943311752688291, 1.7639216624553888, 1.775218408784509, -0.8458798242752125, -0.2505554785496898, 1.5503117143453453, 0.7922864521146226, 0.15048122605484876, 0.5828555634239001, -0.0032705453227268263, 0.9327856811445554, -0.05078049062474391, -0.6328463904126905, -0.15549674172022193, -0.2787788347566541, 0.5379496876273859, -1.425652365428842, 0.6030862009331999, -0.22477646443712412, -0.8699693926417457, -2.652031707209029, 0.8218728761314672, 0.36954299701384263, 0.3660284477165503, 1.2190838043345185, -0.2006721967409508, 0.6164397486068167, 1.3780830308824636, -0.19855621541901824, 1.478344808889958, -0.43666660519236183, -1.9841357788109584, -1.0427092632853994, -0.20214323907764217, -0.9686396123799016, -1.1415693987773237, 0.5539719120035379, 1.3481521529579883, 0.6200860176075983, -0.921866368223873, -1.0050698122956545, 1.181748566138992, 0.32431700351101006, -0.13960115894611844, 1.0650715728284068, 0.35263136634004316, 1.1041565324131473, -1.172200559308201, 0.7738219073018955, 0.035671538152750634, -0.3737101115237258, -0.4014150935988542, -0.2627340616020196, -0.5726922117716948, -1.5329247200472063, -1.8567124922520106, 0.6648036005679541, 0.20215274404964018, -0.4339327183741048, -1.147266965228934, 0.3472333938184743, -0.5858978863031331, -0.9647102143749722, 1.2130829514578647, -0.34972128139965686, -0.017295903243057624, -0.6329934536454954, -0.46220888026118145, -0.30385166260327495, 1.0079257209915478, 0.625232543941892, 0.5735510633596917, -0.558478646094921, -1.444561000275638, -0.5570291447024812, -0.13631631634249222, -1.9762476755360192, -0.22756052240424102, 0.09196004459279726, -0.6265953536155693, -0.6108049426023056, -0.12929340425897387, 1.6620219133592395, 0.8053224863055483, -0.9011391347159129, -0.48647195404881916, -2.100823359625284, 0.129604990202552, -0.29558848589888415, 0.848062438217516, -1.705287579568639, 0.6335981034203417, -0.39166133674615483, 0.6167680583868227, -0.8086627566280483, -0.3958859459640994, -0.4743060526696757, 1.494761656207469, -0.34437770281060776, 0.1392366984393358, 1.156210282832103, 0.31787036860823425, -0.40528277217981235, -0.8139737278879126, 0.14421178978374438, -0.5312256595163429, 0.12432921318746358, -0.4910175701498543, 0.8616393857892982, -1.0616399210541811, -0.7225747071946464, 0.9517564455620707, 0.8328688484907353, -0.012492479302598175, 0.0400822907220708, 0.36853604426420633, 0.1573420143260319, -0.43938896791847876, -0.1211509139144325, -0.47608765215094717, -2.9488079937429195, -0.38814028531614647, -0.9164871487121535, 0.4290692449968942, 0.4918852400667321, 1.0415587159398139, 0.7810972870118283, 0.13568790754304447, -0.04529029593550056, 0.7517898570888646, -0.6336566739771028, 1.2891604202123015, -0.3159250846737866, 0.7847631479168319, -1.367304321569275, 0.49320810038198293, 0.7853331478323233, 0.5542039148495183, -1.5337598545680913, -0.18863645404483728, 0.4636803579189723, 0.73416576331706, -0.527527702097187, -1.3043496907531602, -1.7198495657389974, -1.1168662439797394, -0.40729785698478754, 0.4635573621316635, -0.7805951426628817, -0.5480066373450111, 0.5109023511062826, -0.5420545103204486, 2.015536240698667, 0.283364306508376, 2.4508576742266395, 1.2240089732057458, -1.3207732749937595, -0.7547777806176791, 1.9637108807490036, -0.3084380459165631, 0.23781787432127333, -0.08427110396098059, 0.3984670526297443, 1.2804703580301795, 0.12065184967137382, 0.11596134479645942, 1.7612435811517757, -1.165242218359134, 0.9870888607650008, -1.9146650082493217, -0.45340826243739735, -0.8839294962138022, 0.1324165096553279, -1.6577977860385313, 0.3103824374162747, -0.0011437446421258953, 0.4165420079716687, -0.23952293829274504, -1.1089388476480315, 0.31722745023371196, 1.3711925023613822, 0.364596207374097, -0.2424697437356908, 1.863093094563763, -0.4590048969214778, -0.7025450934085319, 1.284666327648546, -0.8588293196182276, -1.7975488152634356, -1.0380497769307038, -0.3266459297242657, 0.9210290782000488, -3.062894341514598, -0.7728110325019295, -1.0318997506804037, 0.823078974792503, 0.2744760304407914, 1.303237674874622, -1.1723573596230774, -0.9939476584259247, -0.7722124270624008, 2.5869846026606638, 0.08299661141480424, 0.509788826825918, 0.9105173481152632, -0.6147115022060677, 0.06423544470071593, 0.8110578291029349, 0.1587700162776086, -0.008368056705010604, -0.42209143324248855, -0.5942896874733004, 0.34977155368604584, 1.2528339250625127, 2.194851459633029, 0.041180134800095324, -1.2569321738061179, 0.5525080842592937, -1.474180478766741, -2.2668176188062907, 0.675163600223835, 0.3577110951273347, 0.16587709791665742, 1.3485483861706251, -0.12232889130432854, -0.4443522186260311, 0.8060163881301666, -0.522910146889468, -0.5525306175536986, -1.791015701622081, -2.526735614348687, 1.2873008739418228, -0.2782947438645176, 0.06283048160209896, 0.24161489981141776, -0.8721558654602168, -2.430173654437092, -0.17189554622816589, 0.2899766269564172, 0.8259706628262911, 0.5332404409897223, 0.5639443974059211, 0.4858237937324484, 1.0280539795865224, -0.9793465855337306, -0.2540148108812004, -1.3754200105937, -1.6373623432090825, -0.3918821366607197, -0.7321516951355362, 0.2649707888631584, -0.16942427533514196, 0.7512018855911449, 1.1342197131992873, 0.6870834354247884, 3.194641873458089, 1.2273605642939256, 0.4140047621015721, 0.4011820168128226], [-0.08683185818392132, -0.7018649113740527, 1.206410040677962, 0.900541650358678, 0.9096542021846452, 1.2181389429112084, 1.975017393391367, 1.2732441791025875, -1.530537827238362, -0.9845799274054856, 0.33157787294655294, 0.12241727247172617, -1.2663504090442876, -2.094127485472131, 1.223382461329173, -0.39716314840755995, 2.2838878981865274, 0.43321633098342144, 0.532932656441283, 0.39847977168620013, 0.8919188385332383, -0.23297765095600143, -2.53434400727411, -0.6433510843547942, 1.0503220702715284, -0.9954601338635556, 1.2820186986587274, -0.4649638355812041, 0.41644539395984226, 0.06068809435425031, 1.5597470436728877, 1.4253087471856543, -1.1393418601087655, -0.3691739908801144, 2.120218758739237, 1.2152148883515175, 0.4093614119533679, 0.40237604598681, -0.9147064072637672, -0.4057970533925243, -0.6755304986605033, -0.13176932539471484, 1.0974581601145594, -1.806146558160349, -1.3148436803705346, 0.5452876648330135, -1.2496996480461058, 1.4548568969817741, -1.2152564286721295, -0.9063101807893613, 1.4204679627613683, -1.6561695453015761, -0.7825939347188099, -1.5700152265670015, 1.430672277775479, -2.2464030438070037, -0.8431051017171668, -0.4996252281514728, -1.1036276420183386, 1.009638055466197, -0.6148381371009618, -1.67610890250387, 0.28897677324755666, 0.2333344214608862, 0.0098984550394573, -0.0225331817827775, -2.1025768213938156, -0.5842273795740339, -0.3194288467725436, -0.053079363952482576, 0.3456645427714083, 0.2807144153661972, -1.1831466574177774, -0.6191020357364511, 0.22810721154036265, 0.5126693572319786, -0.5105173277160985, -0.5847688331712374, 0.9348156541860752, 0.11607784718366147, -0.06318953595991214, 2.197338784221291, -0.7146189136200904, -1.6148437935437503, 0.3080799833359018, 0.06736002057900056, 0.6895036194826379, -0.7456566613636236, -1.3403449119181365, 1.5650254490354174, 0.3281311979273381, 1.7710862141375114, 0.7156422393356585, -0.8022141438633216, -0.8854050435128461, 0.4638567625283952, -0.8653553832201218, -0.047730882609518445, -1.3989110735961636, -1.3020031274359987, -1.827031096722234, 0.2340132586384746, 0.7273266720249437, -0.4349386085939401, 0.8863299494772878, -1.4856530240202348, -1.115946910747311, 1.1587376033182268, 0.8684973804539633, -1.0893992668768626, -0.800828226404632, 2.341685369516464, -0.7128403882030357, 1.305921341859182, 0.49441355887473115, 0.36120816200091194, -0.2911467318478926, 0.509277842419597, 1.761152114254542, 0.5027326652051688, -0.007123483990044413, -1.509694125824487, -0.21765799666870844, -1.06984645482811, -0.3629911983292184, 1.0723923844524557, -1.195454268905595, -1.2899942750508164, 0.934318138674088, -0.320186175084986, 1.938581560148627, -1.0375981338520244, -0.16717918873037196, 0.2502800919917333, -0.8865531718904535, 0.08303534978227854, -0.7142035320484331, -0.7544377138680108, -1.4533431116873348, -0.9102301824799083, 0.050675559643578304, 0.09489609048486833, 0.5355225880441759, -1.0956553606885124, 0.19054870070334268, -0.8773446417113212, 1.046067718238627, -1.6579497599471615, -1.4154982094937905, -2.42779921343338, -2.6517334262873766, -2.5637731923827913, -0.1958842124392714, 0.4217972175415823, 0.2845602865260566, 2.2477440830518796, -1.9727044301847223, -1.2409096777487392, -1.0370473802503544, -1.9505325667375828, 0.021406721496517945, 0.4476277624592834, 0.8803060276444926, 1.4675525390207684, 0.1339160567477941, 1.2570430578617073, -0.4114512849294745, 0.06344911479308132, -1.97243259325753, -0.4565708863197524, 0.14149851291693702, -1.2741376099682546, 0.025920937106719954, -0.08041723404541536, 0.7872511022031297, -1.0630310730476829, -1.7903441404993572, -2.985433704199224, -1.346942131224751, 0.22712397757117733, -0.6387480780681049, -1.8990259393045656, -0.9205985383430249, -2.252412834763686, 0.7706345935309845, -0.6016245155314051, -0.9257230628948246, -0.42840473182263933, -0.3437420542431124, 1.1039005569501137, 1.0075733361921515, 0.6537708599957979, 0.6758056267176689, -0.013856169550949354, 0.6594613542771909, -0.98988959273512, 0.22932771928780193, 0.6829757861581335, -0.32699272334041785, 1.7426896840175101, -1.0777072006453654, -2.0674507448765063, -0.28994874270285226, -2.3940331700970665, -2.8367653109820945, -3.0217599597535534, -3.497627957358148, -1.3851490572605658, 0.3457720295334916, 2.2551854653575925, 0.3722384641090561, -2.418765975184834, -1.1793497268129434, -1.081833102137578, -1.0583524707290959, 0.021009496092973576, 0.9159970735528249, -0.5034330309261488, 0.8835022820309327, -1.6412373828602032, -0.3395232732646738, 0.2788864207956967, -0.030367059847055317, -1.11642202417889, -1.023515063712628, -0.2676770152047601, -0.7218896075058305, 1.563628465679335, -0.20962609324357798, 0.12627242980497713, -1.0895230207725348, -1.0915518052249287, -3.24793867316701, -1.5881207150751084, -0.15028562005653207, 1.6399790429109686, 0.3780854251519558, 0.7775941706203573, 0.6181877763761909, -0.2121497593831716, -2.23814221554948, 1.2700320806370011, -1.7116553227506301, -0.9859459942462455, -1.080643815330395, 0.48343646546572405, -1.1642736702891217, -0.0893072306321817, -0.7926177814472206, -0.3533371559138689, 1.3267586912108078, 1.2640943737295554, 0.09232376057012052, -0.37127613237519536, 0.157712586012623, -1.1010844975881864, 1.02651052241668, -0.6501197699708551, -2.6799885387668407, -1.6415340306900794, -0.31088527576148856, 0.47289381918882456, -0.2953235925922808, -0.15202526543724548, -1.2221197046350203, 0.020851653860827362, -0.9831701011123473, 1.3672924836035507, 1.2838595777006552, -1.3740608745282539, 0.27647707305807034, -2.188347941691861, -0.7863537755524491, -0.1716446906991057, -0.6855563459255506, -0.37014189461205554, -0.19934523106906749, 0.635959141459888, -0.8166630571998669, 2.5690305525970802, -0.7484822622482005, 1.1727887562293438, 0.06805248420283008, 0.9662134283456647, -1.2694816191913796, -0.38422671594410196, -0.8632045033139356, -2.2793241828052655, 0.9939213666037688, 0.11560621876678026, -0.7080818658353244, 0.6124965989460158, 1.1441406078954914, 0.1768137358718306, 1.2948294597088226, 1.744356463480512, 2.8959660060810974, -1.3833120580880234, -0.9713033504547869, -1.1527260492584352, -1.9101715411381364, -0.04009014559534334, 0.772137581479201, -0.7689557818806458, -2.5528868393906023, -0.6980432150183234, -1.6492511922773878, -0.9888427564295672, 0.2932024743163727, -0.4712049506101209, -0.7929556419970343, 0.7617291126023753, -3.4091194543317225, -1.3273866971676387, -0.27421852501757166, -1.2667150544479142, -2.1769785074306465, -0.9227778114084372, 1.2750585615582628, -0.5344578041558031, 0.16554181383527994, 0.964128279962398, 2.8172891030924583, 2.6169902203437787, 2.9397899219919794, 0.14675986295999122, 1.968521776680534, -0.9087240888689163, -0.3861292706694212, 0.41448175223016914, 2.3687809965938156, -0.11088079906380248, -0.02503483826256828, -2.100319445101936, 0.054811095938695986, 0.28259712671781495, 0.26997627648125405, -0.3616326703731419, -0.31013065432634374, 0.5109466311626104, -1.5250700826994725, -3.3403523423508683, -0.3470151214883493, 0.40085842312267433, -0.751230483701187, 0.3592389333475241, 1.4306096287153391, 1.8144175643644045, 3.242930510762378, 0.3915309033186944, 2.932251057586431, 2.171358450844433, 1.4320824688604146, 2.9242403056573565, 0.5705990430504914, -1.3886798982877533, -1.9315679284451155, 0.3018771212513936, -1.2375604382009253, -1.9426955913467903, -0.70340066690532, -0.7128473841857567, -0.011796460703030594, 0.9073109023943824, 0.06429829290001164, -1.5225698867110846, 0.9246428913297557, -0.3433681485092661, -0.30070638493415447, -0.22237580930597908, -0.3610401232514471, -1.2583599063838244, -0.9165632687703541, -0.49996601430019993, -0.2535409155966746, -1.5310127925610666, 1.213571430920694, 0.07304413874317908, -0.24783802322762652, 1.5808587704916428, 0.6038819882790648, 0.7384274779977842, 0.638017414966916, -1.9424947202317477, -2.595451147778134, -0.4942169791367854, -1.9701269955298588, -0.46614171619530903, -1.9721918501520055, -1.768730722913515, 1.5139419932066478, -3.3435769464165963, 1.6862484669009292, 1.128829963282593, -0.9418991026133638, 1.9709719697751669, 0.6189007724416914, -0.09805067670483904, -0.7956025906200356, -1.172151316334017, 0.6145008728702772, 0.2902814735371134, -0.28957424855403013, -1.2661124782831177, -0.2617245161942123, 0.9918613646453014, -0.3760432831236231, 0.5388115793919149, 1.7172286500952783, -1.1242287948079728, -1.9992436445722617, -3.2981353245075886, -0.5351811208556095, 0.2022310472757826, -0.8158050543006706, -0.7583867690645988, -1.8205337333390603, -0.7050173056718647, 0.2308212362015648, -0.3587784399312818, -0.08889580154977461, 0.5697279471368257, -1.434757806286427, -0.9843478325917968, -0.8801216771233664, -1.54331368715861, -1.2042619934506928, 1.170408276484994, -1.8153539087575885, -1.6029668440326843, -1.101058728272618, 0.05430846272249775, 0.9481139184728816, 0.7014081170676791, 0.7210727010404853, 0.24687006382784196, 1.1338850550303885, 0.2185985221206422, -2.59762190409469, -1.805591730339874, -0.677727123782537, -0.9596049138535577, -1.074412679236016, 2.1890886050478335, -1.014183220738952, 0.699057299222243, -0.28883756472804384, 0.3386912618952714, -8.394855893530595e-05, -0.4725385248841693, 2.125537796991808, -1.6445451807148215, 0.7886272328566427, 0.029849329594725818, 0.01646657915435269, -0.9965255748422442, -0.2923101747220045, 0.04160273542222369, -0.171027833941862, -1.0327785140791998, 0.3306688132034289, 0.459413905916096, 0.3103567503036014, 1.1874383672880744, 0.3834115808595324, -1.75440371817704, -1.5615091368267058, -2.0702315797350876, -1.2015402156986263, -0.5613647182517084, -0.012685056536607557, -0.3184301485766297, 0.5981731339226838, -0.5503149429076847, 2.3035485812329917, 0.552436603399484, 0.5253209711171344, -0.8310316413552606, 0.5153443068377852, -0.7402306929143249, -0.13850887192069253, -1.363995677479787, -1.7862784167854513, -1.0501287772810257, 0.20442029165930234, -0.8533272939922808, -0.6222524934817176, -0.25768651010413524, 2.19637003897964, 0.22963900401765788, 0.2671303153345629, 0.4487702329081201, -3.242266291595825, -2.870445547889465, -0.7898700223771951, -3.677113077201226, -0.21055186017319494, -1.6881618198837207, -2.3445721688343615, 0.2704506890328834, 0.21027011470659848, 1.363017610357589, 0.02182666625735017, 0.0554988245646241, -1.9893424478561097, 0.9019106063663607, -0.2613968070783507, 0.2524332986798206, 1.3399135047942357, 0.04493736625087432, -1.4135536873200472, 0.6110634457730029, -1.975989666215646, 1.4271362256740363, -0.0046981486742526295, -1.1604410597351695, -0.1706536249156777, -0.19442922987262246, -1.4021239993969183, -2.9966743036967918, -3.5505074595151904, -1.4190633412472016, -1.463514666654955, -2.4005113715637045, -0.42747421825735743, 1.6056520693227425, -2.192566985455474, -2.2222450678171093, 0.06385942550677319, -0.09109475467305152, -1.4437726336018375, -0.8955284716240712, -0.5090066136224569, -0.23478052974588928, 2.1137425967795664, -1.6257741694655268, -2.0207377728711284, -0.9638476202987442, -1.4618606577277196, -1.6225509697981841, 0.233000402709028, -0.13104601144855782, -0.20977055923262528, 1.0898484160297717, -1.3001584877835195, 0.5889009513076281, -1.0434974101886074, -1.6105054061472281, 0.5992936834087019, 0.33527281826127536, -2.8679236104344827, -1.0612028877069497, -2.2896094831834515, 0.43920432885909433, -1.6328505723008453, 1.1973321111789554, -0.506878791035461, 1.0165417441015139, -0.23541230072604327, -0.06576928030046218, -0.21014165319952155, 1.3241018194417353, 0.6631082339906733, -0.08132668319154544, -1.0504794661261632, -1.592392696347066, -1.2284811155625175, -0.451039944372902, 0.45431873499805897, -0.7819227223252397, -0.09684527504007626, -0.14080817001999613, -0.7519756411861769, -1.3876429829448955, -1.2666364150125164, -0.9468250192409968, 0.639967967202452, -0.27922092555638794, 0.5346466798603247, 0.24966601745144407, -0.2511971953259781, -0.2420435379267594, -1.9582574854577661, 0.49821944936461793, -0.3670648251537495, -0.6197596578800877, -0.8182067739008124, 0.7620202006678908, 1.0509224895846443, 0.5578344075120558, 0.5527658526574551, 0.6778364988836568, -0.8110197194753506, 0.8530442827245482, 0.29879507423893203, -1.999380083682097, -0.13257452081428983, 0.5530625505297314, 0.24894237404432834, -1.0979502717221665, -0.13736887660681385, -0.3080170876382843, -1.7542055975686321, 0.5192305832107104, 0.32387118704951817, 0.6404481301615589, 0.964353816134564, 0.5057559698577075, 1.3342623234387814, -0.8401772161326763, -0.3062582505074898, 0.9145811629524697, 0.15103978171120133, 0.6178816560178636, -1.074780146987281, -0.3894154932984565, -0.5266402677835731, -0.1488705185918826, -0.3667663617242294, -0.11616646081384108, -0.8375138340114281, 0.00011449829422817679, 0.41490526348351375, 0.2962164072544667, -1.144902565334771, -0.5204723607832861, -0.07655479495180816, -0.9826526424583228, -1.8195862574258204, -0.07911555887780904, 1.8273827148851376, -0.93614429286192, -1.5720006300205411, 0.9871410689921449, -1.11116591711045, 1.0868384804267999, -0.6656493042122869, -0.819815560227108, 0.4298301507970746, 0.280820706231763, -1.3856369078224084, -0.17740550538824731, 0.6958207530791812, 1.308857041086435, 2.742814294539067, -2.0066278832845854, -0.5513883588779704, -0.14614896830028193, -1.000933052907089, 0.6167496743194993, -0.46943382165252723, 0.4125425168914582, 0.4091724605085348, -1.2385660819819253, -0.33520999251053074, -1.1585193089175758, 2.5436169998678224, -1.570620749026703, -2.1099193862297136, 0.18996078607436473, 1.4157205676472526, 2.8190479709125933, 2.2408424795765938, -0.6770854327009374, -0.2552917587347298, -0.6496067775879019, -0.007357339553722566, -1.6235511162125131, -0.3907200997059372, 0.6088044469110951, 1.5710590041999308, -0.5329794775724261, -0.25781670941485446, -0.07450427843154674, -0.19128605346583477, 0.4338586038087589, -1.273709760911418, 0.07488485806982217, -0.10904255781303901, -1.4026806868249884, -1.3804997240839867, 0.06863356947530717, 0.26595651006929616, -0.8607626930996471, -0.6438483786997162, -2.510187207043213, 0.6348246225534415, 0.2695170312024981, -0.8524115474478597, 0.7477379775806349, 0.1582995887359397, 0.3778322501933759, -0.7773462216041576, 1.3638109374760743, 0.06648473647897785, 0.38032629065533896, 0.6677824382219293, -0.5476189527827503, -0.07424551094159292, -1.6292208345270491, 0.7635117014436792, 1.014934044750956, -0.12839906231051143, -1.7268426431939585, -1.7447412265790623, -0.7540184843519717, -1.4697869660280787, -0.3505756061067099, -0.08298199915663747, -2.4534490205880335, -0.4427706231061648, 0.23083713216105872, 0.2327386368752825, 0.18646773314833603, -1.0481084786174923, -2.0598089790338396, -0.7695098616386744, -1.413221018261406, 0.007706527333137489, -0.7808316837112225, 0.9148756361504042, -0.08802326379949084, 0.5968141580049303, -1.001861249813854, 0.15729147584986133, 1.0725428562276969, 0.4608678935718497, -0.06249527985821582, 1.499097443282912, 0.6166724443016994, 1.0918180593490652, -0.8062723192308919, -0.11352414792724229, 0.8715456947453956, -1.422277287029235, 0.34513266088039074, -0.7905874813870953, 0.15189497512768813, -1.535690244568335, -1.546048155629715, 0.03133206642698085, 1.250778227973305, -0.744302153374486, 0.45340204340629164, -0.11109661809189932, 0.27522865065011415, -1.1566013485861741, 1.0174008860882997, -0.16652677432785432, 0.9657225770335885, -1.8222214675533932, -0.5477988013324596, -0.5851674612944479, -1.0104495930581598, -0.7147600575878293, -0.13303434132647454, 1.5656712205352472, 0.11861533395476566, -0.193612128750253, 0.4887567596942253, 0.9151949515903073, 0.1601622572260373, 0.38440590728503, -0.36921670759481745, -0.12287050422905318, 0.999727512083213, -1.3601669655879016, 0.9680499947749408, 0.3469858781986299, 0.2847178783384121, -0.388479167619577, 0.39391781031312695, 1.848344025599667, 1.5080323426224524, -0.010673755988517558, -1.5161306101213552, -0.6603796128502233, -0.6405186668864059, -0.46344943692501106, 0.09727110140867068, 0.31311535661266626, 0.6413145894794681, 0.4791231225547075, -0.06715489898347045], [1.6463859996401409, 0.5274286855739528, -0.8171678275253622, 1.2078969794815115, 0.3835792854961924, 1.693353259843673, 0.1524736632510835, 0.42221303536577526, -1.0853230243670597, 0.911364442159099, -0.19656468206654767, 0.9421287720149398, -0.32294817315746305, -0.7369704310797847, 1.3161619838126144, -0.6195544620403444, -0.9754796106335297, 0.41041855494719637, -0.39001162529589206, 0.06566840394620406, 0.31698309225395, 0.6373393981579271, -2.072720551119575, 0.5468582096812329, -1.0252306516530747, 1.2673204371700808, -0.13571073144875645, -0.7821112049007525, -0.5398551616369276, 2.3924251835698174, 1.7048973973240094, 0.8772411148979057, -0.5349409382262836, 1.4645627052984702, 0.22021324569004597, 2.262759596015073, 1.2348817164182049, 0.415945286827698, 0.7768818473396869, -0.9207765465786307, 0.1537743897035185, 1.030563607447963, 0.35821587379760345, 0.3225354243154142, 1.906945449439124, 1.684364963458469, 1.2560581747712087, 1.612992670202565, -1.065463698562417, -0.12291819705045963, 0.7799451452144243, -0.8149277564857811, -0.3610820774116802, -0.1665717509729803, 2.7001747279577857, -0.01977765814654945, -0.5512328611137813, 0.9459301106712147, -1.1210131904324334, 1.153252745229501, 0.8912848358093464, -0.789837614212386, -0.06637100227629118, -0.3181042261749754, 0.5786978603286588, 0.22225480137291562, 0.5289494248099763, 0.15879223569322132, 1.725064164830329, 1.1790205041147346, 1.75247450473751, 0.6061816811385105, 1.286406333914731, -0.04079960398445164, 0.8557098542558309, 0.2478685668743825, 2.1500141035430653, 1.2294427973999424, 1.9670026154119742, 0.8352380852762643, -0.32155816979079926, -0.1599169590871099, 0.7997193580215186, 0.6791298276312464, -0.14354534513245867, -1.641332532025751, 0.9884023679161057, -0.3893082450562869, -0.56231779693889, -1.8371490331422755, 0.6760522481676821, -0.837367422063553, 0.3328037008590175, 2.2452478830294913, 1.8596038722456578, 0.18438175253437178, 0.8214826097996104, 1.6072524246475195, 2.882039443876931, 0.6451955671818218, 0.08988894729428032, -0.09330691743092061, 1.992476122673391, 2.313925459060132, 0.9560814223678816, 1.6980987674378927, 0.17918649359464198, -0.748180220521554, -0.7869157126880452, -1.2626902043454369, -0.9653990952316799, 0.16694000679197515, -2.3876649167693067, -0.3102554822248514, 0.11333474212879364, -0.4123589304915229, -0.09366487070606398, 0.9609886911392043, 0.6128588865641271, 0.5934563877279245, -0.4845791993203489, -0.1287299202307135, 0.9119521377010897, -0.1391930612691103, -1.2593684857373286, 1.3894540465367549, 1.1913066091323983, -0.38074056234633874, 1.4164213963377126, -0.25036637769247033, -0.7161014094853713, 2.613730431090188, 1.4723428915705954, -1.3970542542193294, 0.4573387430697118, 0.3434157775935498, -1.3296433338499314, 0.42729500317956715, -1.9351863937282332, -0.46451883226882534, 0.6044541809837649, 1.8979056009461701, 0.404372864835382, -0.7976162438000909, 0.12291033125136343, -0.01904710881181, 0.49570319458996476, 0.6400289782143521, -0.4668812303683545, 0.30309291562411367, 0.02388401815420372, -1.8402186359911288, -1.9562417912111176, -0.5901731300829225, -1.6833768553470376, -0.6754442081464666, -0.47485994905186607, -0.7723965634010278, -0.008959461129598549, 1.4382998561233493, -2.378197155054533, -1.0219623621329865, 1.0238672692100488, 0.401914350433271, 0.35016637960793334, 0.6419096433628297, -0.6331233163583351, -0.7967454056951536, 2.957180823645209, 1.0511441664090297, -0.2730698086627033, -1.7026660880995423, -0.34251736735759497, -0.1667713537809027, 1.2370799645304937, -0.13673684726626187, -1.2333224169850194, -0.7735862906956734, -2.016075207387472, -1.5003143207565368, 0.3050832725766913, -2.495386999436187, -0.29967979306200315, -0.7625998292292688, -1.4072927133813906, -1.8817967164209353, 0.016918023570684053, 0.284675143951571, 0.04432450940888754, 1.0515167790595217, -0.04977127960190065, 0.6750239218017794, -1.1071562902795629, -0.9840902361921413, -2.714473889787278, 1.4129903200298635, 0.7530672535313853, 0.3634865856276077, 0.20494174818786748, -0.7706351732826775, 1.7791874561376146, -0.3658805828164044, -1.506848185699305, 0.023309478967518532, -1.1582798004438155, -0.7683914044644364, -1.1865930382733971, 0.5839863162755754, -1.816114862757686, -0.4797660867724167, -1.446374948757225, -0.8902219875072869, -0.37659148103629797, -2.136219034597434, -0.8736252465258226, -0.07048238684790277, -0.10306985742659867, -0.3088623779524192, -0.3284873337011146, -0.8860174721603448, -2.7018516033839908, 0.8111602016143628, 0.01999197672915682, 0.7375276757602912, 0.5485293737807996, -1.0320750565136765, -0.30280152974864477, -0.7713615258989425, -0.21598173070746443, -0.654648654143381, 0.2527691663476262, -1.4277155929097611, -1.118869453694822, -2.1164589999046353, -0.3326498376831362, 0.4603453754077662, 0.75453200545206, 0.2007015286119047, -2.4179499811757568, -1.9746429177853426, -0.883235015693126, 0.22738056240106633, -1.3390593912500406, -0.749016076473291, -1.9531874364316546, -0.9875292477286871, 0.5614108306206734, -0.32191965432398945, -1.7228909046858654, 0.012187521010332771, 2.516459300764762, 0.7403318638912992, 0.1297182891754282, 1.8387114592719127, 0.5682545988763398, 1.0268491720424036, 1.3830892835635367, 0.6398853693734892, 1.0556621823183616, 0.3050314609142187, -0.5940189260166364, 1.3648882721499942, -0.8839463721130353, -1.2466868364454546, 2.4678509742238823, 0.9365216756015994, 0.5475203720322185, 0.6271340416376392, -0.5247581021408972, -1.7312116737933476, -0.7160204738803996, -1.7353431555331509, -0.7137434167184452, 1.7503295033504198, 0.13800120402682453, 0.45754022680923595, -1.1507329417269188, -2.355540528463704, -0.4079358372351723, -0.1020459584389633, -0.6171617203942694, -0.8322727869630381, 0.020477979538628305, -0.824507255382956, 1.0331222670468319, -0.04931173033014607, 0.9376505332266568, -0.4021961954186596, 0.863794760332237, 2.0388259161240256, 1.4292410809459055, 0.6545856321640412, 1.451347519600579, 2.4390598788689575, -0.016271376921009367, -1.9940384323388114, -1.0305542214924694, -1.4039764865447224, -1.002904653488389, -0.7472787302017592, -1.7638961379314466, 1.0160661099111652, 1.0028631929347036, 0.8163498163836315, -2.9261663503258846, -1.904243581326825, -1.176163269145558, 0.09554513966034522, 0.17787360584360692, -0.09923817506639629, -0.8254171570890656, -0.4483659113409501, 0.20147085844808182, 2.5548003867169, 0.3486715724112674, 1.1447948717084786, 0.4500924252726694, 2.412028159939815, 3.177107209319529, 0.34773876484374766, 0.4124711509874146, 3.081067850445126, 0.8673436183542994, -2.961574475113871, -0.8629101891367249, -2.794586848377717, -0.3091620635378213, -0.9852435404280718, 0.4303210364580035, 1.5731572034285652, 1.1401898677588234, -0.6750624576211616, -2.0229531774477056, -1.3181942300407612, -0.3931476070483095, -0.08385199906931723, 0.2915194993754602, -1.1991226550437555, 0.18982567012768858, 0.3859352139122221, -1.3571044501417342, 1.3908813473064932, 0.41707801229366914, 1.725810372866072, 0.5517760867652691, 1.8706143653075842, -0.13491039917245287, 2.8360252984967285, -0.26834111095535246, -0.28377934170679797, -0.5681638991649667, 1.3469651685561308, 0.04199952889971654, -1.0956521767443683, -0.7344259860883021, 0.9354526399271178, -0.810685410613803, -0.06690017210805986, 2.3766722881524682, 4.001405331441074, 0.7917588125859037, 0.8088337591632901, 0.6496540282723224, -0.20124828672335393, 0.26698081280887004, 1.1534828220513074, -1.298187635397993, -0.9465250149748247, -0.8829137312954296, 1.5558473212439503, 1.8903928655279236, 0.18918223133608336, -1.2381141292340756, -1.704052319581388, 0.8715542626933919, -2.658549146338904, 0.1774347157630183, -0.8636762528727705, -1.482611420829983, -0.3362111869683192, 1.3483436277078915, 0.6436402886408902, -2.804624513524453, -1.0903387711660892, 0.9014884095305424, 2.089554640697111, 0.8001741696500452, 2.5340440755334224, 1.777160725341022, 0.09375825524392707, -0.399563203544283, 2.005683361297072, -1.232335112348479, -1.1927540384094633, 1.4851357928998143, 0.5494391607052732, -0.8043439966729802, -0.11553002400641259, 1.371846332274797, -1.2200865406792059, -0.268976809080632, -1.6931472714082307, -0.16971365401160987, -0.5350603734629066, 0.06658382981382464, -0.6102468021540676, 0.2645973136047415, -0.8531448471268676, -2.0637960046400687, -1.9431886690745641, -1.3169467779540998, 1.2565952225674908, 1.6822197090470308, 2.180080984759429, 0.7095912002139374, 0.9772122974056517, 0.011350945084229479, -0.19526143083975964, -1.0647981310809895, 0.3220108556902793, 0.5297373399347678, -0.4956324897300831, 0.8291960481757147, 0.32289254861197064, 0.864634635380254, 0.46436264772403324, 0.30393881346078805, 1.3991858201603515, -0.39553739499533114, 0.6223785165329526, -0.8628800296023208, -0.191344385845132, -1.4753537840384028, -0.8124914616037819, 0.9942064329348701, 0.4935237079692428, -1.84420256367415, -0.5189872744687947, 1.4116678704304069, 2.8983028071931183, 0.45273245883414237, 1.6797647405810463, 2.459971893586456, -0.23739220049605983, 0.5440940128026279, -0.752047309638229, 0.4539383471848994, -0.8172496432511045, -0.9808121652042988, 0.20729514400302934, -0.9507881908658664, -1.2217736174293958, 2.824707448697915, -1.0669004291472166, 0.6014625232787978, -0.014382825887926535, 0.2317204082297534, -0.7689604390506158, 0.45146111776617914, 1.5595202925564522, 0.811641552118994, -0.7162080336797085, 0.34245942722155254, -0.3677029773821878, -1.462135594079462, -2.241545289671252, 0.8070681280802069, 0.7009686603802141, -0.5615412193614018, -0.29593899938614915, -1.7516725969889586, -0.2801760050078276, -0.07418073163198528, -0.7319782466310217, -0.1669864765371938, -1.5808811034620713, 0.8205516927904095, 0.7518043630950313, -0.5229820467310456, 0.5212824036561835, 1.2246401115323953, -0.5707636625595293, 0.2432270893579247, -0.035880958227893764, 1.5848855299379188, 1.7415125630597297, -0.06411228860878938, 2.2204289279996536, -0.49064877985953964, 0.43811269964658206, -0.6744063520218925, -1.6287502568612715, -1.8328919198932245, -0.749888002435681, 0.22818541597416028, 2.1747705610091543, -0.3229825189626927, 0.2914048790386128, 0.15850873082304895, 0.21239470757571946, 0.15828376553744203, -0.33984061482766903, -0.24143066047490444, -1.243682464968358, -0.8355482615263524, -0.22364856932196936, -0.6839709889566667, 0.28134621262560744, -0.7874071590369405, 0.10219472492775496, 0.16683541574330032, -0.10869167309457259, 0.8202862091689399, 0.7321679967885462, 1.006702412175623, 1.5920992769976177, 0.40110332876624805, -0.4157209404757496, 0.13672520885982917, -0.4870951815672719, -0.6558649783847113, 1.3793915485483483, -0.6756821796949924, 1.0268830932087905, -0.5397435380018353, 0.037601340714644695, 0.42396041620306, 1.2187292521795516, 3.0428340631855697, -1.3511326562595667, -0.19412885178550843, 0.5589443392927363, 0.17034448476753702, -0.5702947967955198, -0.9272469377962397, -1.0401334199679158, -0.4697085018524726, -1.116810831925332, -1.8866179257061653, 0.41934037528106, 0.008539793239890717, 1.8376507786434209, 1.5865327334484982, 1.0135050127236611, 0.013611144723432805, -1.2558150867721334, 0.15863314481575017, 0.06564760011360542, 0.2503836090177564, 0.3438118536282572, -0.8510363233763613, 0.45637163695051536, -0.1976071972033824, 0.555526666321227, -0.18507210450467054, -1.1566083795579278, -0.2671690944382362, -1.0435737586637177, 0.19941688708981686, -1.4966975469884012, -2.5401894207055786, 0.16572055799283505, 1.022040721742934, -0.6060786175567925, 0.2647194655354969, -1.2625235960873078, -0.30376547032786433, -0.8413222656571224, 1.2478241216705455, 1.4759496754588537, 1.7662170403002306, 0.9721183971905488, 1.878493131754775, 1.2958508780334923, 1.3233270638030217, 1.4247823293331787, 1.0925871869714703, -0.8208916719596803, -0.5904976598798762, 0.3655396990847392, -0.6332790731814875, 1.0248081856343103, 1.886014567650412, -0.9204921251656746, 0.16682790422058552, 0.5542255333752939, 0.10058281707465655, 0.8465897783990355, 1.6940656306687283, 0.5919767032989424, -0.336793930412226, 1.1420192575455836, -0.54796385351919, -0.13855835030818406, -2.288988318736657, -2.2675694192802744, -1.9853486786361363, -0.5593328914880179, 0.21843901798837648, 1.4925602406661207, 0.6327714134706999, -0.5307683188878769, -0.46041925662573474, 1.8726148334659085, -0.2352265787757906, 1.186211475713741, -0.5543503189658584, 1.6081627171888282, -1.006456878382319, -1.1307120876813765, 1.320710833915545, 1.5757436681826587, 1.271561275065465, 0.31034764760641403, 0.1010447131697572, 1.201650007286324, -1.9666618646993221, -0.45489289417075723, -0.08589584220080548, 1.8279410081156027, 0.0563755904160723, -1.4781344984236742, -2.575317738066009, -1.0205995356427757, -1.4649711447644755, -1.6836849021787783, 0.11114857953389445, -1.0268784860922056, 0.30138188267225824, 1.7537965464923393, -0.23675982147114957, 0.7360971972347493, 0.841702427721335, 0.38674457137391555, 1.9429578405245564, -3.049200026690371, -1.1633449623061831, 1.2937974163440984, -0.01204882902303853, -1.2804222853664302, 0.5880821354086814, 1.1219801559660092, 0.5458509522344449, 1.0393408870476961, -0.20300143239983326, -0.010886169087419016, 0.41429889005132386, 0.11438276553794645, -0.6412656013721114, 0.6861596261576174, -0.5470306839993616, -0.9309396993721829, 0.557322421538053, -1.0415084363572444, -2.772683489263743, -1.2323561137205588, 0.15238116200582755, -1.0857104355210152, 0.8472550305951616, -0.30650515692741165, 0.6793120026813594, 1.7085241478359363, 0.1578822720388291, -0.05010834710485062, -0.3192230864951006, 0.3933894917239381, -0.7948220959345006, 0.18388523685895092, 1.081865764414587, 0.4124155822044949, 1.1795585357166483, 1.6440843999508923, -2.0224163104598425, -2.481902263501628, 0.9260738021821112, 3.1042703193921755, 0.3724632084287753, 0.5373768238479495, 1.0667579306103019, -0.5576450898776779, 1.0492971610397501, -1.5248747559419673, 0.667671770770282, -1.337765928444943, 0.1986920839346083, -2.127992291681586, -0.5852013690436738, -0.4273079086708636, -0.4079627057177588, 1.561161934504199, -1.2515154968146907, 0.2036909642273208, -0.43944211104859254, -1.5710545231432282, -0.5658962497602464, -0.09598556480439725, -0.4375765713488657, -0.2980235050703324, 0.02979279605853349, -0.06850456141202954, -1.6521118390525036, -1.708603826679016e-05, -0.726149748665494, -0.12018881984233795, 0.06872107862146704, -0.4251802287874397, 0.7975822622294343, 0.0654706890379091, -1.2423132436323254, 0.31164623258223045, -0.6189424834008022, 0.2017793422111044, 2.281363881836268, -1.3444138418672404, -1.415035877967522, -2.4421698731600636, 1.5263641236951642, 1.1132115457795764, 2.2208665015096347, 1.0501805400991107, 1.521922145387102, 0.5448196108288071, -0.0875205541330054, -0.5521795859822021, 0.6761924908082448, -0.38610254681525563, 1.0821647726993873, -0.9008525279324283, 0.6775792296119825, -0.7794269627328383, 0.3669584999746389, -2.6491947239653624, 0.3760159995950202, 0.8809985525959653, 1.73425845697684, 0.27685012699431755, 0.38651933657215803, -1.244914305123283, 1.7457509063674668, -1.1579348221944006, -0.14701137069615783, -0.8389265018297495, 0.11395291098347397, -0.345251083410292, -1.4744282602582601, 1.3822572505100565, 2.35301604718103, 0.7765345673932736, 0.6231112059728016, -0.13196661898084278, 0.5837466723892615, -1.1814196628699918, -1.2071126675238113, -0.275011725345666, 0.38944345855213686, -1.4983124367306186, -0.8636719684524126, -0.7643031498755083, -0.48317772112701457, 0.30832091157896047, -1.0881044188061342, 0.19537979981448195, 1.3928394972835325, 1.3328864988860103, 0.003602155327769636, 1.2899724729856081, -0.1783285878721671, -0.9007920969424366, -0.41187962222316526, 0.1944626597545649, 1.8492735289699778, -0.10399620007579803, -1.510335617135381, -1.2972883246992695, 0.10689265627055221, -1.2508874392335414, 0.521055452333505, 0.3579931572907772, 1.7479974845120512, -1.0380722212094022, -1.3462295935667172, -0.1693449833057623, 1.9625380930586336, 1.267355501927471], [-0.40017378800520026, -0.48664708745168916, -1.0823673665606326, -0.08072753766986636, 0.0752044109435613, 1.0205412665376679, 0.2060535114714676, 0.3298389521857733, 0.07700749853485708, 0.71784898359502, 0.2752580126251233, 1.2365586043403145, 0.7394173576935114, -0.3873106223883586, -0.3113580328753228, -0.07612594210195098, 0.4118008153272054, -0.9887642072375642, 0.48502980364270815, -1.269123079165112, 0.6464554740465277, 0.40954478615097445, 0.8888667202682625, -1.0212363350763587, -1.2895431136755235, 1.526293166355774, -1.0135607598366085, 1.314494445940965, -1.292540302286187, -0.8229147695478088, 0.7260451949850276, -1.7987289383794187, 0.8082588451704854, -0.10049570623273216, 0.16293210879638914, 0.3545449838083758, 0.9148052373141206, -0.12330986101798844, 0.5521015498696882, -0.038378939348527416, -0.028353784735474938, 0.2075404380619246, -1.359850195397351, -1.6190249279382531, 1.1949725925080008, -2.182163115790609, 0.39056047674793737, 1.3252931504498295, 0.34440286516968427, 0.034602336664100904, 0.25509962570005085, -1.6123046533998593, -0.42157768959059994, 1.4561443345602658, 1.1422344416277128, -1.0315544296479515, -2.49587150743318, -0.009802352634222281, 1.145619747064665, 0.2668225984967692, -0.3225949585170942, -0.6753648921498974, 0.5357356763082649, -1.3138196419543189, -1.381557117157289, -0.633874427827971, 1.3669514477810927, -1.6545898678178472, -1.812036634130197, 0.452433920524487, 1.47437112947147, 0.6242250276058967, 0.4062662319931004, -1.492059171497239, 0.1818905309281009, -0.9118936914134503, 0.13785678390596212, -0.2561516371827223, 0.14756327062951122, 1.3302050482552015, -1.7737348695202575, -0.8176693616496629, -0.3475256246079527, -0.2983457023343384, 1.3785901704322465, 1.3477249951612171, -0.22974825233267696, -0.3311288801769075, 1.0362136732416747, -0.6708169598623858, -0.20404982579490777, -0.9785331936715839, 0.2168260273776513, 0.9523647883301273, -0.09190307551956287, 0.6093957182211726, 1.22907954612604, 0.8682264285771996, 1.0441803681066224, 0.34466327500817173, 1.328879719577518, 2.4717206218117433, 0.7202112728002782, -1.432350828034965, -0.7715218816078887, -0.2361382425783349, -0.6812084080831917, -0.6618945713729435, -2.6917283067596904, -0.726685075145776, 0.26095225920986154, -1.4729410522883268, 0.7693392092938532, 1.0550548719983246, -0.3556300552555246, 0.41661171175795314, 0.05405943026515772, -0.45165149763113727, 0.9920621622068689, 1.0781186430644378, -1.3391874689689034, 2.0936272778663865, 0.2831264847816647, 1.4986082932688747, -1.8842708986634895, 0.6740021739021345, 1.19077034513779, 1.4848062300926943, 0.5067987881897128, 1.1701639696622506, 0.1909920133859111, -1.1875960506353074, 0.5248712817508622, 0.5327746971516228, -2.7883834441382316, -0.314106453862451, -1.1094303210815888, 0.3734593281892887, 2.6791933813968813, -0.878460186375322, 0.31297231198800696, -0.1473385495367909, -0.4953241565540835, 0.3647359378548525, -1.317232564623434, -0.022448269196984737, -1.6661607748243752, -0.024756308748622984, 0.4348413191041689, -1.8642182601548172, -0.4632098514450673, 1.0227856869376606, 0.7696348257666721, 0.5777490716370529, -0.7570924974653523, 0.8172347361210487, -0.5512780677674115, 0.28678863808039945, 1.1003879512620862, -1.0924185995288505, 1.7239742555912534, 1.0030310253655883, 1.0283969865517126, 1.046277169331667, -0.8928913161675893, 1.6328759705722677, -0.22372704805103624, 1.6760146106590856, 0.25169271012403993, 1.4149192970166304, -1.1314804915239902, -2.357581825770147, -0.9628112821839416, 0.9014781243487996, -0.7205387598587751, -2.406812887637882, 0.19811002745888498, 2.2672870453446277, 0.5511314016923962, -0.08806811237388909, 0.42844183189246027, -0.44925861022996394, 0.8233854508916856, 0.5261076366508108, 0.6609410681020969, 0.6388497763703115, 0.06249419627321989, -0.41325978884036535, 0.1632463458213743, 1.4219503704326406, 1.0650177705993642, 0.3925713566591624, 0.7161733470032534, 0.30767841243803, 0.5371435083100188, 1.3227799327786323, -0.3106821312198424, 1.3816264861811338, -0.5400618305356342, -0.518224785717315, 0.19141498486570216, -1.1475280391385037, -0.07416482066401345, -1.3549967971265702, 0.6627000074013077, 1.742599782914985, 1.09478513923476, -0.6981969602786002, 1.0851183665611734, 0.7556017958137582, 0.5087814828924818, 1.374348468612625, -0.8046870789608297, 0.37449757103630626, -0.7000990083291238, 1.9591980238015099, -0.4434003416332774, -0.20685260014868992, -1.1351576302078596, 1.2125327301430615, 1.719311730386575, 0.7063369020988692, -2.15937047883742, 0.8897185262607222, -1.2447998170105259, 0.3383544232920767, -0.5354525168719781, -0.3211311914399588, -1.0432716746805033, -0.03776720422955649, -0.9616975053714675, 0.734348119247846, -1.2486953771362366, 0.06197859963203195, -1.2493426768276092, -2.3322545660931495, 1.1167322210951112, 0.4447923172745241, 1.7641837271433078, -0.7979473777399704, -0.3068970710607059, -1.4781346413658112, 0.048764532085631626, -0.8094640568158578, -0.8221704029434445, 0.9957581208231013, 0.9769228736654514, 0.9844429113162079, 1.8370580463720694, 0.07180831381333823, 0.6991539646053684, -0.7195272091471602, -0.4391088821924324, -0.4651401184602112, 0.6284266742801553, 0.13353471936666203, -0.5224221714352972, 0.25570955364110526, 0.04334307874563125, 0.5358287857125862, -0.10152593801034565, 0.43864119118988243, -1.8850179198388417, 0.545851590418953, 1.5900025628326104, 0.07536287198105808, -0.1021013140346741, 1.8568811566154464, 0.05271525331159955, 0.771295421137376, -1.31360805674102, -0.9866103658019332, -0.01078363623853138, -0.40533615858143074, 0.5118378694149157, -1.4775152940254672, 0.768158154743923, 3.500115040496196, 1.0507738909081732, 0.8666837277422582, 0.45576829758901094, 0.8086848990973207, -1.0740285002570396, -0.3105509988413023, -0.5506638148821384, -0.37515112008088825, 2.1056412592815934, 0.2880452135218402, 1.0973481705253232, 0.34769791976111064, 0.7276161343312829, -0.7641957906914576, 2.2864296571666434, 0.5541271860466989, 0.1334553768139641, 3.845328338545306, 0.9258544380896039, -0.8051678730228623, -1.993995876522793, -0.5125774513642307, -0.47564133363817074, -1.0420919245664035, -1.010094433998812, -0.9028308044451292, 0.6123252085105664, 3.0815993434847826, 1.1513836946869127, -1.353044714242319, -0.3376113099667353, -0.5978888911158444, -1.3406884382281796, 0.20546832193226056, -0.42641993498204206, -0.09796387985127185, -0.009989724388931363, -1.1678967098961455, -0.26412687267656715, 0.7041641844719084, -0.6139660706168363, 0.9856404053677938, -0.8112737007361466, -0.09353713740076477, 2.7761351459402355, 5.745512323824305, 1.7672670051774466, 0.4811096374855005, -1.1647646998314245, 0.6882758283605371, 0.028444693618472437, -1.3260602864581115, -2.8546396218699477, -1.7908260283437443, 0.34121136310270345, 1.7138330762207636, 1.5487752338369536, -1.090317842970693, -1.1884563145271054, -1.9869328969318885, 0.6042109781468691, 1.453041902107498, 2.328093093273449, -1.0926481200529472, -0.4446475239731986, 0.7359526766667934, 1.8830843165514763, 1.2637549883874757, 1.4864462868988926, 0.542026402640684, -0.274874489201344, -0.1814091533246029, 2.5919513185165903, 6.47829856063167, 1.832506927975942, -1.8959702165472494, 0.6215790027890414, -0.6757432709502319, 1.0117694783909874, -1.3639690989174684, -1.412350517843506, -3.2867377316597524, -3.233822844819009, -0.8278044932459593, 0.5612044303000144, -0.6471782753414568, -0.40537744027620065, 0.6834536242764688, -1.3881614246308032, -1.2034363749221646, 0.002344143004460524, 0.10848229126110087, -1.893634924389746, 0.2988843897238585, -0.8256916992897684, 0.35079623518218456, -1.2352931303488275, -0.9671014321644141, -0.8777140987134391, 1.276520823944938, 3.7575577098362656, 4.6931320500380975, 1.6435123080289407, 0.6002149766236412, 1.1364896560715694, 0.34087353144391264, -0.27240430474063587, -1.8563579135400907, -3.0449959694211124, -2.355088587515215, -3.4030366526219473, -0.8021291611206623, 1.321378311992842, -2.033739978251676, -0.10320518526591246, -0.36956030897464254, 0.15942429232848643, 0.7409384107009742, -0.06054599131909531, -1.7794301660732867, -1.1619496183952411, -1.6525007671112177, -1.027515315142937, 2.3887282197175397, -0.7195767341231203, -2.4515152001638745, 0.011658704814930965, 1.178630083898006, 5.706920213320808, 2.735021691987312, 0.2952949323630769, -0.8346297411326147, -0.5033377765310753, -1.3269077074423496, -1.493536757620297, -3.100292796006967, -2.0073878803213705, -2.599145948434643, -1.8938978024425883, -1.3783136118629542, 1.1179162727591525, -0.1761201076568433, 0.18419924027060514, 0.08497098955884588, -0.8792820501159876, 0.7130947092006882, -0.05753382512356558, -1.679529269625534, 1.1255151170157471, -0.7896054513521464, -0.933356682361204, -1.3971164659788526, -1.899124456088239, -1.17195532893832, -1.180258432602269, 3.746124902817299, 5.870735175620994, 2.126237406779112, 0.4728909718181403, -1.5248856534821245, -0.4605435057594646, -1.712036206152151, -0.5796694530958655, -2.03388037334207, -2.0398901386874964, -1.4946031705847904, -2.4037804470113393, -0.21478280034222824, -2.1145740959931687, 0.3722258181544083, 1.5517685800067114, 2.259605241042567, -2.1968761231373874, 1.9752918062553306, -1.0508926347314211, -0.543146261228745, -0.7064604929433671, 0.28425843771568526, -1.0422018807766875, -1.4644469684630512, -1.3748911797659311, -0.7837807762551197, 3.1183747955060763, 3.6299173516430217, 3.3027406003881574, -2.265442032481654, -0.9316524542472715, -1.5659404227368978, -4.086637813966713, -2.988349512155691, -2.92895231313533, -0.02797967887932691, -0.7249291697594338, -0.35576433246450984, 0.5183751673823084, -0.8995644539273563, -0.5905383435755727, 1.0671204266622945, -0.7956277941121757, -1.361556876785046, 1.2098399591648785, 1.3160086190520206, 1.241175739868658, -0.24346959550189998, -0.6648740804006639, -2.7353152204610898, -0.6031794004621027, -2.1462517639062604, -1.209806120990717, -0.13795803867866843, 2.0469380721007444, 2.7818771116169074, -1.7076241954436762, -1.663807204835608, -2.359897762702089, -2.0229125909464374, -0.4115720316643859, 1.9255181410022917, -0.12979509231194858, -0.6418526846327783, -0.6935015111103737, 1.7832113169240293, 1.0679748574065515, 0.4275662706469423, -0.22698528075562208, 1.3553101549671043, 0.5330872844626565, 0.42034444480750477, -0.12867872507129519, 1.3739445352947066, 1.334132040033431, 1.4438737179370602, 0.8715845487596902, 1.6591431395643328, -1.3699676036256512, 0.2445987614603668, -1.6366838963241592, 1.8389032271237575, 2.3243635142543635, 0.9330146258406123, 0.4260119729896294, -1.6440796334719425, -0.7057323928675427, -1.4803342073808365, -0.7214821507595252, -1.733793923146518, -0.20913189537586058, -1.0222500363643692, -1.6345351894579463, 0.9721693494367936, 0.8093044152705796, 1.0068897301029007, 0.05951024641671485, -0.25298788853351295, 0.4902063696051986, -0.4630204065170313, -0.916710169331527, 3.117265941897148, 1.074493814499917, 0.5279148767227688, -0.11638873055973645, -1.779097061077612, -2.519539217119964, 0.507052057084906, 1.4724591024060474, 0.1314735268140731, -1.087286612484246, -0.7746733927908996, -0.36374517320456146, 1.462405177392953, -0.32725254369114654, -0.48162825666741366, 0.9984112629650818, -1.0839197103903173, 0.9533415182230197, -0.030953642088949688, 1.2066049953901024, -1.5048282431651743, 0.6863000363154711, -0.8976519685018614, 0.024576233776147476, -2.0029423430191864, -1.0812166376750585, 1.4168162360939924, 0.7620917070077652, 0.6445845087296052, -0.2492045181530943, 1.8220756132891482, 0.18331132960037722, -1.6820345970010584, 1.0795863212196721, 0.29163935617857784, 0.2761646033021808, -0.33688113954774596, -1.88367451875046, -0.15638701726069548, -0.060902517605229925, -1.1638414493497786, 0.5601549522044067, 0.015637173711017242, 0.2427914843689313, 1.7740635660691488, -0.005919438711168624, 0.807747217685578, -0.6090138031882512, 0.37281468570451654, -1.3032707519192497, -1.6281007186322582, -0.23284888490112482, 0.23659709517844155, 1.1441182035254445, 1.000766820329002, -0.5880120023343965, -0.01185342050003858, 1.74378212176428, -1.3471518963143938, -1.5009650431761143, 0.4749459708517439, 1.9549502535705996, 2.3416820815805, -0.8742198105750446, 0.9532379319227726, 0.2575432510462675, -0.4579708330378805, -1.88806698473386, -0.3244515031558047, -0.5461468783880375, 0.006300443561142952, -0.07550906794847079, -0.23705125019985845, -1.1051434561669622, 0.3363447731662529, -1.0877026334672237, -0.4745185124672158, -0.44457433478844627, -1.2626084409892557, -1.156328292953311, -1.0592579189648326, -1.0236442184134946, -0.8233566448776111, 0.5699612699310134, 0.1584942123424482, 1.5778794296019842, -1.1493954818416028, 0.7613578179324936, -0.4455880987990239, -1.389963681749253, -0.8880387952053266, -0.5729670388720849, -0.6924313572606028, 0.2508833309562951, -1.3837724218354222, 1.9003837763210325, 0.04181246305656348, -0.4382729408942498, 0.251370566959703, 1.0873468967647797, 0.8736052775808572, 0.4252730249392173, 2.2585972480022116, -0.6458543594616654, 0.9191380942716237, -0.007997798539102366, -1.880404582570684, 0.7490716862072263, -0.2998785565741077, 0.1653301519303086, 0.11280459218307082, -0.06051097675679905, -0.4914417966321928, 1.2699876079995944, 1.7444314469250046, -0.3313702114092508, -0.20564147051605838, -0.9860322478798118, 0.29793676424009957, -0.9004057073249492, 0.2521067967332305, 0.11367207568497051, 0.6541149483826285, -0.9371192343000727, -1.0068706098141313, 0.43794444732172344, 0.26595882200949256, 0.2266383470395895, 1.2432980924628183, 1.4180365376473494, 0.3036522296032655, 1.1802238650707448, -0.30002222465061956, -0.6598255892648653, -0.31584181620025786, -0.8185193571867135, 2.12732427661025, -0.997992802066338, -0.26412880683855855, 1.0383897947192173, 1.0814783564043773, 0.8065382633684205, 0.08728984335394971, 0.3356740131989602, 2.733064847763526, 1.4276957051927734, -0.0546462647584794, -1.1800571372872743, -0.37208194460695054, -2.0772913177304826, 0.20528654481018774, 0.6417309848671834, -0.5582427928084417, 0.2302230729269556, -1.445041009155894, 1.6321054688615595, 0.6791070435500894, 0.8927832870960389, -0.03837089194215301, 1.759808513023691, 1.5423478825065349, 0.7386052417352831, 0.45381716692981783, -1.1336791190696927, -0.6297023633884157, -1.871534463138798, 0.34024242474694205, 1.283258215477546, 0.5487432087446936, -1.1304239134923006, -1.618741698500084, -1.0675866824988067, 1.1809225409136976, 1.4273273830332116, 0.1523066084778442, 0.5440102017418433, 2.5042211366671077, -0.5168057749617346, -0.247267707874622, 0.2358992468682435, -1.4366080198594835, -0.6028041691755267, -0.23506825225658373, 1.1790291875610823, 0.3070960345122441, 0.068053074408107, -0.5463826813488742, 0.5377800985527097, 1.999367176258438, -1.049203189927224, -0.2236744009822366, -0.3750535864995663, -0.6493777910386351, 0.35147000485059443, 0.9994279883006358, -0.5876398768420834, -1.1697511207141988, 0.15023301944060932, 0.050053747858295014, 1.427232902884347, 1.4685414964276955, 0.0967698915520672, 2.2396078083182025, 2.6761202984873282, 0.48421896754830984, 0.9426102977128739, 1.5774229738265688, 0.3319106786940219, -0.40437823885723084, 0.8917515061901161, -1.7012461233053753, 0.9408323905609358, -0.8043101491684923, -0.6889604469796409, 0.2836518700767199, -0.0005816847159519558, 1.332805578881764, -0.805802547857512, 0.6374088442040808, -0.6847833370961952, -1.5091720740699663, 0.7219304611851277, -0.06485813541072168, 0.09192964512133908, 0.4013865693091051, -0.42106144399221473, 2.011918782365845, 1.1672525540516694, 0.6794097782832824, 1.8177541802753987, 0.08924277694511172, -1.5180569484810158, 0.9117939997982498, 0.1624389810719188, -1.034658768178004, -1.5296977807679066, -1.1179911041399058, -0.8490206811670981, -1.3839767870888793, -0.302751634679267, -0.9114673620278291, -0.9020118197187872, -0.5775873789997193, -1.0288315792703913, -1.2825270624442306, -0.6397581457577348, 0.8407481887732279, -0.3591174843794989, -0.38000270663109453], [0.4051680179093969, -1.9815338038287726, 0.04241300108099786, -1.7591281012532425, -0.9277349611603255, 0.38834152045593756, 1.5300080484496743, 0.18684237385891658, 1.9081480186833994, 0.7080703129385427, -1.1468149227083626, 1.4453392921050998, 2.3916351693035702, -1.447789839188557, 0.6751323054509829, -0.21433969953324294, 0.29533508198922975, -0.553114578422751, -0.5070913330585093, -0.5787433765462892, 0.347507823093219, 1.2567348135311394, 1.2726830537361993, -0.6477412368321454, -0.9190896475460838, 0.009934057046820183, -0.8116833338874861, -0.04594943427665731, 0.5016640408204144, 0.3312861559167497, -1.663174890157836, 0.029551458793669164, 1.2004115450052575, -1.524360204171331, 0.11079759025890464, -1.7250012569367927, -1.214593309191463, -0.6848775184627806, -0.4633982504394395, 1.7263623102464007, -0.7546971163008833, 0.3557097736679722, 0.04774672812179984, -0.2290832209725039, -0.5243154237700168, 0.3358835931911108, -1.81857990650434, 0.31019899753043234, -1.441675386658404, -1.154440025533469, -0.11876785105598328, -0.6488711839659697, -0.2615273254114863, 0.3858336355836503, 0.35940455674002464, 1.408922897190741, -0.8019925877400996, -1.302391970462945, 0.30150715520387256, -0.04104077409229604, -0.5225108984779029, 0.5325641174835947, 1.3500480419268897, 1.7902660309482152, 0.07741455474696421, 1.2955461053839719, 2.0359386871748235, 0.1060511641338394, -0.15440502249043697, -0.5097139036275097, -1.4013503357910448, -0.5203861004463134, -0.6263832865998586, -0.46741135221482333, -0.5103227581831968, -0.3887684605972676, -1.9633976375322049, 0.8684215642025063, -0.3649036546594053, 0.04979609244529555, 0.3962206602124725, -0.874868972225953, -1.9332258846160453, 2.303265504216411, -0.3541829080780379, -0.39746697174946677, -0.21103013379333133, 1.933726575748279, 0.29239355372345877, -0.6049993945816259, 0.43028697220534146, 0.4169454468547132, 0.3084352358269292, 0.9291923877285568, 1.7554562472950073, 1.1078480655365435, 1.8914142574165254, 0.6224588382111211, 2.002957299926849, 1.2582987458404205, -0.10192581873517462, 2.478717507002738, 0.2642552450811437, 1.4839418018692783, -1.6852185869458136, 0.6539727584143481, 1.124253122163647, -0.05197027092988389, 0.5079851929559809, 2.1881035577399826, 